                    0,                     0
                    0,                     0
          -1417339209,           -1546188228
          -2298022254,           -1007599329
          -2870951565,            -731018468
          -2211877946,            -907277291
          -2211877946,            -907277291
          -3000790991,           -1555849438
          -3645142845,           -1584951125
          -4078928995,           -1667391433
          -4605556269,           -1843797838
          -4284049170,           -2425193551
          -3533603031,           -2536628943
          -3533603031,           -2536628943
          -3415132209,           -3279083532
          -3772600795,           -3796979747
          -3961894337,           -4162124597
          -4190293668,           -4660096559
          -4690040051,           -4822044977
          -5064811594,           -4654866386
          -4948693933,           -4233657290
          -4828588518,           -3530949573
          -4828588518,           -3530949573
          -3809839070,           -3401598668
          -3260215162,           -2377605654
          -3260215162,           -2377605654
          -2853939562,           -2957352736
          -2853939562,           -2957352736
          -2853939562,           -2957352736
          -2853939562,           -2957352736
          -4443358623,           -1708990983
          -4443358623,           -1708990983
          -5326560619,           -1330819113
          -6248953415,           -1089338871
          -6825591892,           -1045536080
          -7384931215,           -1045997046
          -7884540685,           -1132343529
          -7242228686,            -940041225
          -6560128617,            -630072874
          -6632582608,           -1363297090
          -6572408419,           -1937470362
          -6572408419,           -1937470362
          -5829963930,           -1813301076
          -5829963930,           -1813301076
          -5100523475,           -2107346966
          -3958264400,           -2430695320
          -3958264400,           -2430695320
          -3958264400,           -2430695320
          -3958264400,           -2430695320
          -3958264400,           -2430695320
          -4226063525,            -425039176
          -4548775274,             523445455
          -4802727500,            1165845139
          -4802727500,            1165845139
          -4158791343,             355612596
          -4738634611,            -375075001
          -4738634611,            -375075001
          -3627013009,            -117260569
          -2817503468,             197792019
          -3210476156,             287075430
          -3717270663,             347586314
          -3698905979,            -344399882
          -3577661037,            -972248584
          -3688323643,            -344947256
          -3869100250,             306598121
          -3146951874,             545853232
          -2486779179,             839108020
          -2993800332,             385985173
          -3445138953,            -138781673
          -3445138953,            -138781673
          -4259877518,            -352591328
          -4259877518,            -352591328
          -3642432496,            -521165280
          -3422450308,             421893212
          -3350372015,            1103671939
          -3755904226,            1582150084
          -3755904226,            1582150084
          -4313840618,            1417250943
          -5124233012,            1016023067
          -5360710658,            1516720365
          -5360710658,            1516720365
          -4489018950,            2150686615
          -4494474755,            3048475188
          -4149926170,            3421676169
          -3703023204,            3086366232
          -3044136219,            2745619813
          -2356985600,            3115349437
          -1844552833,            3464341334
          -1413374419,            3406521942
           -878744203,            3405955580
           -268747689,            2959996816
            147784104,            2484793251
            243237889,            2230412255
            243237889,            2230412255
            243237889,            2230412255
          -1052549438,            3709688115
           -403870629,            4511833511
           -403870629,            4511833511
           -403870629,            4511833511
           -971575096,            5600544186
          -1592263144,            5639748753
          -2023592240,            5938627951
          -2477347222,            5818297258
          -2477347222,            5818297258
          -1477446791,            6164110038
          -1477446791,            6164110038
          -2058177194,            6992217445
          -2058177194,            6992217445
          -2685910194,            6120444383
          -3216150034,            5107148371
          -3216150034,            5107148371
          -3216150034,            5107148371
          -2733118476,            6886669204
          -2603268457,            7696418441
          -3167405850,            7702235548
          -3167405850,            7702235548
          -2886780557,            6530182121
          -2942180145,            5511377753
          -3049889585,            5050388880
          -3240392259,            5264357626
          -3240392259,            5264357626
          -3240392259,            5264357626
          -3240392259,            5264357626
          -1468143245,            4204483764
          -1026947397,            4858882717
           -880226680,            5144920700
           -777463097,            5382013152
           -316507419,            5655641653
           -316507419,            5655641653
            201061903,            6103265113
            890113938,            6147318435
            890113938,            6147318435
            890113938,            6147318435
            890113938,            6147318435
            890113938,            6147318435
           2280749728,            4674408691
           2280749728,            4674408691
           2057502746,            5546221919
           1682560576,            6035212118
           1682560576,            6035212118
           1682560576,            6035212118
           3564819043,            5725306735
           4402828115,            5617039869
           4306413565,            6166398438
           4048273458,            6600704466
           4048273458,            6600704466
           4239553198,            6255402957
           5148442429,            5963330437
           5659802813,            5812740761
           5659802813,            5812740761
           4917131003,            5637293610
           4917131003,            5637293610
           5453017283,            6014718205
           5548207336,            6557802952
           5594327787,            6753609007
           5594327787,            6753609007
           5594327787,            6753609007
           5594327787,            6753609007
           5594327787,            6753609007
           5594327787,            6753609007
           4009158744,            7968339945
           3272980224,            8405368240
           3272980224,            8405368240
           3272980224,            8405368240
           4076733950,            9957093458
           4328670739,           10609223285
           3818198480,           10700156206
           3863127891,           11181129575
           3220360433,           11356623318
           2792582294,           11170317655
           2792582294,           11170317655
           3313302324,           10042477564
           2873310844,            8762446214
           2873310844,            8762446214
           2873310844,            8762446214
           4333299746,            6953384599
           4333299746,            6953384599
           4333299746,            6953384599
           4333299746,            6953384599
           2270565468,            7131330117
           2925997161,            6381307888
           3348873727,            5924928753
           3348873727,            5924928753
           3178888794,            6650576442
           3178888794,            6650576442
           3178888794,            6650576442
           1666182921,            6708757186
            922313867,            6588199658
            922313867,            6588199658
            598519677,            5927300856
           -326549550,            6341971339
           -326549550,            6341971339
           -421172073,            5421119464
           -510779155,            4370403303
          -1029796306,            3718290855
          -1029796306,            3718290855
          -1029796306,            3718290855
          -3060486721,            2833648015
          -3060486721,            2833648015
          -3060486721,            2833648015
          -4643709367,            1588997403
          -5413971256,            1544019977
          -5711688995,            1751560134
          -5844357456,            1440142118
          -5267754911,            1247708240
          -5267754911,            1247708240
          -6428505267,            1502829155
          -6428505267,            1502829155
          -5363999790,            1557022914
          -5363999790,            1557022914
          -6457438291,            1351892822
          -7185011964,            1661958757
          -6782913135,            1875107647
          -6180946045,            1748048202
          -5600460280,            2152897505
          -5514915502,            2851800648
          -5514915502,            2851800648
          -4952192135,            2420051584
          -4952192135,            2420051584
          -5961257672,            2617507078
          -6869732747,            2694012827
          -7432266440,            2632573261
          -7238773784,            2029216855
          -6594760204,            2159964441
          -6786110818,            2845135348
          -6927125709,            3499651928
          -6563350277,            3987801785
          -6563350277,            3987801785
          -7025745439,            3581385141
          -6391459669,            4332240695
          -6066792407,            4867635323
          -5276686708,            4926464415
          -4973869635,            5388087498
          -4767255165,            5874115354
          -4583135424,            6389940778
          -5144503813,            6372906818
          -5194056209,            6923442882
          -5194056209,            6923442882
          -6003351606,            6549034364
          -6003351606,            6549034364
          -6584422752,            7166711160
          -7354296609,            7162485724
          -7580311939,            7351325320
          -7875579985,            7412948877
          -7875579985,            7412948877
          -8508706001,            7601799989
          -8508706001,            7601799989
          -8508706001,            7601799989
          -6191860517,            7244896970
          -4879774689,            7127235088
          -3909670392,            7119649481
          -3054568570,            7155241115
          -3822925967,            6891713061
          -4395124604,            6448830143
          -4395124604,            6448830143
          -3762970891,            7214500587
          -3762970891,            7214500587
          -3039205186,            7930402484
          -2482931961,            8632828142
          -2482931961,            8632828142
          -3376117266,            8829959419
          -3906438911,            9285804998
          -3906438911,            9285804998
          -3906438911,            9285804998
          -4562339858,           10811117113
          -4822216576,           11378953774
          -4822216576,           11378953774
          -4822216576,           11378953774
          -6094889288,           12583773388
          -6524617754,           11688621418
          -6107334645,           10969417993
          -5434530229,           10762920285
          -5434530229,           10762920285
          -5434530229,           10762920285
          -5434530229,           10762920285
          -3338759037,           10440032676
          -3314231786,           11311594288
          -3877960541,           11526617989
          -3877960541,           11526617989
          -4273374958,           11076666006
          -4920935256,           10218133339
          -4543170720,           10690454336
          -4117271374,           11068089661
          -4117271374,           11068089661
          -4117271374,           11068089661
          -5153394404,           10091801875
          -5531237110,            9446101275
          -5350699938,            8988503894
          -5545311504,            8303524141
          -5545311504,            8303524141
          -6180254581,            8334106103
          -6180254581,            8334106103
          -5714639594,            8525633796
          -5714639594,            8525633796
          -5714639594,            8525633796
          -4125861198,           10073751047
          -3249748878,            9279594892
          -2705260723,            8740547106
          -2705260723,            8740547106
          -3788149362,            8988961498
          -4800178805,            8961818250
          -5360720127,            8736684367
          -5090200558,            8094934912
          -4711054638,            7337941478
          -3862508087,            7628736049
          -3128068364,            7799065125
          -3128068364,            7799065125
          -3938521871,            7123768530
          -3938521871,            7123768530
          -4748602084,            7589033481
          -5534882778,            8017190951
          -5264328038,            8448094324
          -5264328038,            8448094324
          -6123731586,            8612699976
          -6123731586,            8612699976
          -6123731586,            8612699976
          -6326566696,           10415903280
          -6466375606,           11227619588
          -6929133213,           10999747324
          -7346841988,           10886105176
          -7526175717,           10436235419
          -7253721938,           10733735306
          -6774052988,           11163708664
          -6195369124,           11452954707
          -6195369124,           11452954707
          -5712279276,           12073037665
          -5413222361,           12703792132
          -5413222361,           12703792132
          -4496235173,           12456489992
          -5406727473,           12187135222
          -5893688622,           11834228276
          -6082940203,           11543916399
          -5751159572,           11308676830
          -5211473285,           10697014268
          -4185492865,           10432973118
          -4185492865,           10432973118
          -4711138604,           10864686774
          -5289886817,           10555487888
          -5282518180,           10117051871
          -5245074582,            9885417410
          -5245074582,            9885417410
          -5214440228,           10853537122
          -5212631212,           11597616435
          -5222076868,           11988446700
          -5222076868,           11988446700
          -4808189109,           10866970966
          -3745420585,           11274265945
          -3745420585,           11274265945
          -3745420585,           11274265945
          -3504208949,            9518698757
          -2790470675,            9047726789
          -3038259030,            8382962878
          -3777962419,            7934111753
          -3204918688,            7819090049
          -2603895574,            7933884291
          -2290036392,            7843091655
          -2290036392,            7843091655
          -2290036392,            7843091655
           -288600016,            8380893019
            630480952,            8789977659
            630480952,            8789977659
            630480952,            8789977659
          -1063470724,            9814768518
          -1347713893,           10447043626
          -1237826864,           10761672513
          -1096830370,           11036936038
          -1640251622,           11011103643
          -1572929857,           10215063787
           -887233399,            9618788967
           -253883274,            9586729641
           -289822486,           10104940855
           -289822486,           10104940855
            483322894,           10412646641
            483322894,           10412646641
           1245474418,           10755959766
           1258877016,           11404462022
            913904807,           11419606383
            614297967,           11447888684
            399075812,           11545298863
            425376483,           11296028321
            392370367,           10755691808
            293748493,            9790989369
            293748493,            9790989369
            293748493,            9790989369
            293748493,            9790989369
          -1518950228,            8724165573
          -2353761361,            8084143205
          -2353761361,            8084143205
          -3111507279,            8655802613
          -3608884132,            7692540588
          -3776314752,            6924788463
          -3534148256,            6511380836
          -3285036985,            6107607880
          -3285036985,            6107607880
          -3285036985,            6107607880
          -3186485876,            3733946320
          -4116241983,            3472133106
          -4116241983,            3472133106
          -4947249632,            2954557330
          -5751574334,            2273757821
          -5272040104,            1687812505
          -4717653768,            1192615039
          -4717653768,            1192615039
          -4717653768,            1192615039
          -3029935927,             254893454
          -2640546583,            1241648261
          -2640546583,            1241648261
          -3606370644,            1272420496
          -3519110806,             292903059
          -3322511558,            -388763107
          -3210688680,            -675136839
          -3302236033,           -1004554173
          -3397599250,           -1447437999
          -3397599250,           -1447437999
          -3397599250,           -1447437999
          -4584161463,              13324350
          -4584161463,              13324350
          -4271360146,            -898383388
          -4271360146,            -898383388
          -4829560927,            -757308825
          -4829560927,            -757308825
          -5861308131,            -608756547
          -6383262716,           -1337562967
          -6419687895,           -1797405766
          -6341806524,           -1965154245
          -6217616714,           -2149924783
          -6235284756,           -2758844164
          -6509965104,           -2431546999
          -6509965104,           -2431546999
          -7097655209,           -3164871644
          -7097655209,           -3164871644
          -7225112223,           -3733106316
          -7002261947,           -4049756258
          -7002261947,           -4049756258
          -6965258321,           -4328977543
          -6781838837,           -5189209244
          -6181518100,           -4951494810
          -6181518100,           -4951494810
          -7054037498,           -5335606267
          -7791293624,           -5585840088
          -8191628749,           -5703607860
          -8191628749,           -5703607860
          -8065547408,           -4780564790
          -8617157775,           -4287068511
          -8421886459,           -4903976269
          -8099443219,           -5370556442
          -8099443219,           -5370556442
          -8386975493,           -5720459547
          -8683720023,           -5232730750
          -8248032450,           -4814359611
          -8248032450,           -4814359611
          -8606439767,           -4932404775
          -8606439767,           -4932404775
          -8606439767,           -4932404775
          -8606439767,           -4932404775
          -6802058346,           -6072922822
          -5646146176,           -5627227800
          -5401101708,           -4971558888
          -5217036655,           -4303677886
          -4973463956,           -3450535895
          -4737198438,           -2580038491
          -4593920232,           -1735656009
          -4540839718,            -916605001
          -5001847461,           -1551705731
          -4414390115,           -1743893794
          -4055888491,           -1524558426
          -3379820382,           -1544487229
          -2967203661,           -1079645941
          -3395465927,            -733979228
          -3395465927,            -733979228
          -3395465927,            -733979228
          -4066696064,           -2644695137
          -4066696064,           -2644695137
          -4066696064,           -2644695137
          -4066696064,           -2644695137
          -1754261859,           -2565354283
          -1923832606,           -1436209534
          -1170528442,           -1229850646
           -898739835,            -511947566
           -805700654,              99469023
           -805700654,              99469023
           -805700654,              99469023
            -72860030,            -612184653
            265453982,            -817597497
            265453982,            -817597497
            265453982,            -817597497
            265453982,            -817597497
            386339381,            1139665712
           -622747619,            1013522041
           -468473136,             390417566
           -762849513,            -240147105
          -1019558890,            -625598441
          -1019558890,            -625598441
           -586186569,            -595600305
           -153074808,            -583375120
             69692284,            -725089931
            330108665,            -261152327
            368411831,             446329961
            331868264,             910303694
            371534911,            1105158518
            195557308,            1538509597
             14988914,            1979101629
           -185074794,            2282725497
           -522142729,            2281574953
           -680622958,            2361354529
           -876272738,            2564067224
          -1206844460,            2643478431
          -1438798026,            2687155673
          -1555451860,            2843706140
          -1530119358,            3139129568
          -1463520291,            3377899882
          -1308551017,            3530099676
          -1183068091,            3674056135
          -1066502337,            3754500960
           -937310518,            3812346377
           -838888474,            3867475999
           -797584285,            3923285384
           -775893243,            3948727986
           -754678855,            3952307722
           -735901254,            3960987034
           -708960543,            3976129436
           -676836572,            3995099210
           -655198851,            4008935234
           -630929963,            3999574830
           -608024202,            3984481221
           -589130416,            3967123368
           -574850135,            3951447930
           -562093335,            3945764463
           -545006475,            3937771258
           -521381483,            3920779242
           -486671620,            3898610009
           -458059429,            3879660290
           -428925818,            3875923213
           -389893041,            3869924380
           -356871771,            3864464002
           -334288301,            3864822407
           -316647783,            3866066865
           -299405616,            3873859951
           -277204210,            3893184283
           -261526363,            3902649023
           -247756521,            3902357683
           -235168852,            3909976314
           -222592703,            3918589444
           -210214728,            3926607161
           -197914624,            3932852194
           -183697726,            3943929586
           -168020453,            3955594026
           -153847758,            3962568635
           -137554180,            3973948073
           -121645525,            3981894405
           -107484424,            3986481390
            -83392235,            3997387825
            -56886555,            4005568165
            -33905146,            4014234113
            -14238038,            4013588866
               841359,            4008036347
             14574811,            4004633483
             28172564,            4007226347
             51558765,            4012896686
             66537391,            4011194555
             80195963,            4002712115
             96083829,            3991926352
            113918109,            3980867051
            129967460,            3968128671
            137043281,            3966314416
            147497860,            3976795075
            157585704,            3985084326
            164562875,            3982935340
            171825527,            3973453996
            183199723,            3956352190
            188167872,            3939434239
            187762318,            3931361558
            187144882,            3921866910
            185607710,            3915400217
            185732027,            3905859291
            187851638,            3890864140
            193742354,            3875928940
            201512907,            3858368861
            208979111,            3844892025
            214145365,            3834583631
            226091713,            3825757716
            247818440,            3811871436
            261561592,            3802048728
            269197478,            3799642692
            275382012,            3795544839
            279645336,            3790616801
            280848359,            3784232205
            289977340,            3768176267
            299845311,            3747757182
            298075998,            3742862430
            296623797,            3746845268
            295719203,            3742282575
            298012360,            3731578977
            298354927,            3726479104
            300667903,            3724136146
            309362353,            3710159808
            312142125,            3707859319
            321632718,            3718371526
            327449187,            3720077017
            330827808,            3719206592
            334628552,            3721063410
            341447596,            3716055685
            345996122,            3712007185
            353049037,            3720307150
            359022245,            3726481507
            365328190,            3723176141
            370927216,            3721592033
            374424555,            3724280051
            379997029,            3722273422
            383104537,            3721299452
            389082807,            3715538323
            396428064,            3705392545
            395438015,            3705491358
            393888727,            3713758683
            401874723,            3733380201
            421022924,            3758488484
            432927852,            3776958923
            438365173,            3790405071
            439292097,            3798919072
            441222617,            3798324142
            441619429,            3805145956
            441069814,            3818619795
            446136014,            3810432577
            446004295,            3802910274
            442764261,            3807118991
            440826097,            3802236238
            442714989,            3789762581
            446807508,            3775425212
            450042846,            3762487465
            446807750,            3761037563
            451723116,            3776328910
            457376094,            3789703076
            454313328,            3796027332
            451129460,            3792952529
            465274566,            3772854789
            467481072,            3761422226
            470886168,            3770878165
            472005876,            3779766521
            477982245,            3769000578
            484604782,            3753292340
            486216750,            3754509413
            490637555,            3753462653
            492491207,            3753947745
            505730666,            3768295622
            507320415,            3779543363
            522953861,            3766496221
            540238255,            3757118267
            556493450,            3745539303
            562964774,            3736427851
            564140995,            3742809752
            568817037,            3758093631
            581650649,            3777335900
            592655131,            3790988240
            617906838,            3803708994
            643408746,            3818645027
            648433734,            3828836069
            654813983,            3818781989
            656918036,            3813710914
            664382220,            3823958197
            689038505,            3839774488
            695690383,            3846464187
            695130927,            3841648216
            693415189,            3841335764
            695468187,            3848533555
            698085436,            3858834240
            696478312,            3861849519
            697566380,            3851410059
            703785290,            3837355445
            708960777,            3823899699
            708785066,            3821360842
            710242924,            3826599845
            712027176,            3823823641
            713888327,            3818065585
            714508160,            3817494835
            718721070,            3826551340
            725249494,            3835868125
            725414593,            3835204530
            730866695,            3826071495
            735526012,            3815251865
            736497471,            3820171238
            739228305,            3828295507
            740155516,            3832983922
            741531286,            3836908227
            743883100,            3847772489
            746752346,            3852206048
            748858439,            3846594536
            748900855,            3844967486
            748557713,            3840306880
            759643722,            3826230641
            766958279,            3811111048
            765250751,            3804025845
            762381421,            3796468635
            764797022,            3784414415
            770258901,            3767853307
            768364908,            3762446067
            766811165,            3760448918
            768625978,            3753184620
            768087165,            3745344042
            767624214,            3751231999
            767828764,            3750871049
            781964735,            3738820995
            791125664,            3727056905
            791189078,            3727707742
            790427280,            3731072299
            788423304,            3732733702
            786478115,            3732273438
            785009193,            3729294375
            783174238,            3725679899
            780136883,            3722695714
            777226931,            3718995942
            779595076,            3708593424
            783465825,            3695960883
            786812188,            3688019028
            797611355,            3674531056
            802891726,            3666384398
            803208806,            3670284868
            804727707,            3668280025
            809790637,            3661559969
            810810626,            3659887698
            809194868,            3666856053
            806716430,            3671626041
            807880837,            3666668968
            805623691,            3663003453
            803816417,            3677224737
            802071394,            3686096849
            800284429,            3684599470
            797461467,            3684920299
            795232691,            3682274943
            791540240,            3680608103
            791652938,            3674579355
            794949293,            3664142996
            794906600,            3663182866
            795609624,            3670052388
            802817195,            3685459144
            801053864,            3697562569
            808057935,            3688033809
            819029200,            3673194517
            820410534,            3675118533
            825508074,            3686475956
            828552120,            3696873497
            829406586,            3701873525
            829466334,            3701841877
            834149998,            3711367148
            843519266,            3724261382
            852911843,            3737607912
            853522980,            3748310234
            853995874,            3744029762
            857036692,            3735111045
            857636425,            3729715888
            858531850,            3735395171
            863851901,            3749604851
            864992411,            3754384529
            862945723,            3751028261
            866150960,            3762106037
            869894385,            3771405400
            868913262,            3771737169
            867294882,            3773119599
            864673444,            3775007252
            869221525,            3766692700
            878006348,            3755156787
            881734885,            3748436919
            882959496,            3745268602
            884426171,            3741819184
            887192901,            3735540817
            886799043,            3736494798
            885251569,            3740528448
            884673893,            3739625866
            883446866,            3744444648
            885013450,            3754068531
            883524401,            3764581454
            882490433,            3763329562
            890636266,            3750549317
            888475086,            3747416609
            888828955,            3759709195
            888637733,            3767300754
            886124042,            3770902220
            886465252,            3782845917
            885495638,            3784650616
            883183710,            3781680576
            881141919,            3780118960
            878065220,            3776070426
            876486775,            3774424095
            877823155,            3766204777
            877586988,            3769616570
            888138740,            3783244164
            900848695,            3798695348
            900004649,            3806545286
            902500983,            3799027702
            910820909,            3783143046
            907696141,            3782536164
            916034860,            3794911941
            919000894,            3803427185
            918617061,            3809573650
            917410532,            3808844118
            917393941,            3802440527
            917388420,            3797025450
            918949429,            3791397902
            917013009,            3790039165
            922408637,            3803002410
            926444545,            3809604901
            925670873,            3808455693
            927261264,            3816705381
            927276787,            3825339204
            931010835,            3817746045
            939157962,            3803713089
            941591297,            3797294564
            942411812,            3796563430
            942976722,            3797303102
            947892061,            3808167089
            955023800,            3816379252
            955206127,            3818370475
            954966989,            3818057418
            957497436,            3809233254
            957260057,            3808037709
            958856149,            3809756332
            960471408,            3805987332
            961249367,            3805395544
            962761772,            3807275357
            965111245,            3815152844
            967530760,            3822540557
            971406160,            3816471934
            979747396,            3808052401
            989540124,            3797927370
            992019328,            3790896254
            991285462,            3790367836
            991222187,            3787545648
            989896165,            3787161458
            992665359,            3797470070
            997985532,            3812892972
            999063325,            3816238551
            997343655,            3816739417
            996250828,            3813713108
           1009472005,            3803951150
           1024683616,            3786173019
           1023488073,            3782981244
           1024120448,            3791147442
           1023637955,            3791679219
           1022057633,            3788887070
           1020949187,            3794812283
           1020663064,            3797773828
           1022311049,            3792193486
           1026617755,            3783443679
           1025526888,            3779914907
           1023927276,            3786077211
           1029928905,            3780036681
           1035341441,            3770165299
           1037292191,            3773955166
           1039269630,            3782187770
           1039785448,            3788534298
           1043401431,            3783577221
           1046423071,            3776039648
           1047175324,            3776819823
           1047316771,            3782045112
           1054923556,            3799813722
           1055386592,            3805116803
           1063290589,            3795085065
           1065956141,            3787903884
           1065722881,            3784204428
           1063662112,            3780364289
           1063762390,            3790669537
           1061093985,            3799963705
           1067044215,            3791602811
           1070879361,            3775995297
           1070134480,            3777804796
           1070484033,            3777928543
           1068350060,            3784737576
           1067029231,            3790872359
           1070078483,            3781436835
           1071238567,            3778045033
           1071744575,            3773169328
           1071693700,            3774538088
           1073576277,            3777254107
           1074975350,            3782553937
           1077694914,            3794919055
           1079575405,            3794037710
           1079161120,            3790343832
           1081526186,            3795383765
           1082016919,            3800756285
           1083421421,            3799955728
           1083019952,            3798690225
           1083561716,            3801715464
           1084740927,            3799294917
           1084497724,            3800693103
           1085726277,            3809215594
           1088019146,            3809167289
           1089699424,            3814391784
           1099679705,            3825357509
           1102984311,            3831020172
           1101915864,            3831895874
           1101177961,            3833064119
           1103276930,            3826447176
           1105292762,            3820436900
           1104603640,            3822079174
           1105988911,            3830838212
           1108110524,            3827670490
           1106573676,            3828283094
           1110152906,            3835928613
           1111065353,            3834820756
           1113804505,            3829043791
           1118200648,            3822212448
           1117494150,            3817023781
           1118495844,            3826380865
           1120597076,            3831691539
           1122898274,            3826798252
           1122900275,            3823211846
           1121529205,            3824998605
           1121238321,            3827323413
           1119594228,            3828938263
           1118554791,            3830214672
           1116973101,            3829402890
           1115215580,            3830093894
           1113781695,            3828283902
           1112244497,            3831823304
           1113813127,            3839988604
           1113011566,            3847776776
           1111526278,            3846525558
           1119096149,            3836033152
           1122296310,            3823147778
           1121523119,            3828117486
           1129167994,            3839387843
           1130592216,            3847937433
           1129197688,            3848133937
           1127396441,            3845935789
           1129616337,            3838174658
           1130492646,            3829002073
           1130082784,            3831945178
           1136532769,            3841462957
           1139382639,            3853321057
           1139366680,            3850587148
           1146434125,            3838869173
           1150661648,            3830086120
           1154520301,            3822409274
           1156044692,            3816029358
           1156793563,            3818991186
           1156750846,            3825267748
           1160427776,            3820865872
           1161995390,            3814889895
           1164758411,            3820013204
           1169407016,            3826756253
           1170575749,            3832070536
           1171652970,            3831317431
           1176253180,            3825490658
           1181335014,            3818091181
           1182523528,            3814585521
           1182215759,            3816839000
           1180874996,            3818172375
           1182311588,            3813746895
           1185941025,            3806698146
           1189566970,            3798945269
           1191796324,            3790722430
           1189303798,            3788416669
           1188342919,            3792073495
           1186437421,            3793044799
           1185757839,            3790777583
           1186377512,            3786427634
           1185553802,            3784503123
           1189165932,            3792799136
           1196195798,            3803530936
           1197892648,            3808461576
           1199763411,            3818072606
           1199041560,            3823849115
           1199086340,            3818645420
           1197071800,            3817515977
           1196471691,            3820831862
           1195347582,            3819707985
           1195873841,            3814809735
           1198460068,            3808578274
           1200246145,            3802391021
           1201736975,            3800863124
           1202097262,            3800356194
           1204910206,            3805288015
           1205129338,            3811403712
           1208051813,            3808972001
           1210595887,            3801788922
           1212375040,            3805674517
           1214724290,            3813894723
           1215920296,            3815577932
           1218316626,            3812028359
           1218346495,            3810276884
           1218731779,            3814509365
           1219697835,            3814537644
           1220353382,            3818232710
           1219736338,            3823661087
           1221055702,            3821063217
           1226003010,            3813271699
           1226985606,            3808734764
           1227136463,            3804136904
           1225521550,            3800200155
           1223851572,            3803058535
           1222208388,            3808825563
           1220589931,            3811456112
           1219796113,            3809287109
           1217501431,            3808399467
           1220562192,            3819844024
           1221820146,            3830214069
           1222635707,            3825622404
           1224102618,            3817622612
           1223649455,            3813775421
           1223594488,            3810736968
           1227514260,            3805044198
           1234963189,            3796119307
           1238993561,            3792027455
           1246230445,            3787327237
           1254841113,            3778506006
           1254909974,            3777833096
           1253864125,            3777027833
           1254558639,            3773530806
           1260195477,            3766803808
           1269857081,            3758363942
           1274448764,            3749989126
           1275087518,            3748398849
           1276044417,            3750420092
           1279391393,            3760889493
           1276532100,            3768976800
           1289357170,            3762485889
           1299797958,            3752564539
           1301757066,            3755601654
           1308632622,            3765763182
           1315184624,            3774522109
           1318691417,            3780235711
           1323531024,            3787435734
           1329149556,            3793301792
           1333333445,            3803408999
           1338067361,            3809013263
           1336825240,            3814557019
           1336631013,            3819476832
           1334253923,            3814599701
           1337503804,            3822611473
           1341561578,            3832427604
           1339383142,            3832413462
           1345956204,            3822934718
           1346063120,            3814469548
           1345954301,            3820533608
           1347781066,            3823527673
           1346914349,            3823446025
           1347959701,            3826672096
           1347532322,            3830515260
           1347037026,            3829923594
           1347578554,            3829100062
           1346021030,            3830222903
           1345857463,            3836293284
           1348028485,            3830857798
           1347053864,            3829106360
           1351126662,            3832778297
           1359743301,            3838617479
           1374697195,            3847248235
           1379607869,            3853227070
           1379614213,            3858764953
           1382340672,            3866281860
           1383987219,            3872468869
           1389039553,            3880214171
           1395540728,            3887115850
           1402648634,            3897955834
           1405580176,            3902310096
           1404833323,            3903911404
           1406734991,            3909113695
           1407484479,            3911179743
           1407196085,            3911850409
           1408628523,            3915461010
           1407921500,            3918118582
           1408843022,            3915488196
           1414008299,            3907492909
           1415913882,            3899904373
           1415034295,            3893587387
           1411839284,            3892799568
           1410137182,            3895584766
           1408177355,            3894254539
           1405876418,            3895863277
           1405311113,            3900609153
           1404577824,            3901623816
           1402642221,            3907429148
           1402104766,            3909720265
           1400515653,            3904021409
           1398905263,            3903183516
           1397170648,            3900278122
           1398599616,            3894045913
           1402797207,            3885107228
           1408774168,            3878749990
           1419286666,            3869137371
           1421179130,            3860070555
           1422232155,            3863745725
           1423305763,            3866328135
           1426282014,            3861344639
           1425514874,            3859661735
           1431842592,            3865929035
           1437258070,            3870449315
           1441515282,            3874587357
           1444253251,            3878001147
           1446252696,            3882728450
           1447348893,            3882147504
           1445987512,            3879933407
           1447128171,            3877952718
           1456375742,            3871474516
           1464231889,            3865468889
           1465275337,            3857954188
           1466008943,            3862538150
           1470797860,            3867738615
           1477979331,            3873435817
           1485214978,            3880711245
           1487972364,            3885596446
           1488274916,            3883487015
           1489108673,            3881104036
           1488667032,            3877648105
           1487595197,            3880525536
           1488196610,            3879963765
           1487611346,            3875359512
           1487418687,            3878449055
           1487780111,            3882391731
           1487844204,            3884073315
           1488347097,            3886574027
           1489569955,            3892431673
           1489096754,            3895653214
           1489522472,            3892091887
           1487530659,            3890584709
           1487231262,            3892915906
           1485847378,            3892634533
           1484779710,            3891205693
           1482601178,            3889093363
           1479887929,            3889356782
           1481875084,            3884012667
           1489660207,            3877419035
           1500722267,            3869581098
           1505720573,            3857363958
           1506766598,            3855852040
           1506769547,            3853721570
           1506867378,            3853511853
           1508249438,            3850564320
           1509844516,            3847729877
           1510689513,            3845350842
           1510853503,            3847992008
           1516131724,            3852769716
           1521331417,            3856736513
           1531015111,            3863322514
           1534796886,            3867376090
           1534859481,            3867815553
           1534003479,            3868462487
           1533837367,            3867436019
           1533220398,            3866034941
           1533988003,            3866455859
           1536651360,            3870490798
           1541738460,            3875198354
           1543080371,            3879378909
           1542356432,            3885647720
           1541128479,            3883292276
           1541089267,            3876718584
           1541862431,            3872131574
           1546630481,            3866760436
           1555414555,            3859547874
           1557113208,            3851738987
           1556294077,            3854681181
           1557698523,            3854878639
           1555798830,            3855197586
           1556744168,            3863572958
           1558036059,            3862827994
           1560468753,            3858712499
           1560198693,            3854745202
           1558346886,            3857215986
           1557215250,            3860792560
           1556011433,            3861747706
           1554777102,            3863967646
           1557661886,            3868333313
           1560891338,            3876462743
           1564492666,            3882679723
           1564896340,            3883585153
           1570499658,            3887161812
           1580450731,            3891263598
           1588817887,            3894560536
           1592487491,            3896589648
           1594511323,            3901747191
           1594502934,            3900665291
           1592807733,            3898147296
           1591902756,            3899417116
           1592143863,            3904380853
           1590709187,            3904912545
           1593009362,            3898698357
           1597308186,            3889359745
           1597171780,            3882908297
           1597263196,            3882169654
           1596933475,            3882771106
           1596834118,            3885996224
           1598042344,            3882936221
           1596188737,            3880453641
           1598378761,            3883877380
           1598257147,            3884092241
           1599312069,            3888105967
           1599573736,            3888363748
           1598698558,            3888252885
           1597080653,            3887490849
           1596028069,            3886756714
           1599655622,            3880189711
           1601038274,            3873149976
           1601687602,            3871733881
           1600682916,            3871169251
           1600453981,            3873568080
           1601770949,            3871096709
           1605052067,            3869503742
           1613854819,            3866880505
           1623749823,            3859840243
           1623272279,            3852189215
           1621756456,            3856761567
           1627020746,            3865534645
           1624436633,            3870590000
           1623365315,            3866234797
           1620000965,            3864806141
           1620064562,            3869799935
           1620804207,            3872811234
           1625034821,            3878993519
           1632586397,            3885511426
           1636045483,            3890980998
           1637440058,            3894299445
           1639110036,            3898325360
           1639267144,            3900496109
           1638346773,            3902564446
           1638789633,            3900157631
           1640463290,            3895525270
           1638696147,            3891754940
           1644783866,            3896567740
           1659734474,            3900122033
           1663527886,            3905759567
           1664214496,            3903335371
           1664148604,            3902096098
           1664471029,            3905597178
           1664708493,            3907891071
           1664972766,            3902885678
           1665918936,            3903634474
           1671992801,            3904224619
           1683283679,            3902134769
           1690865397,            3908190547
           1691467066,            3906398059
           1688626689,            3901849150
           1687906460,            3899703089
           1689995916,            3892851565
           1691673773,            3887588949
           1693483536,            3882785579
           1694945062,            3878825399
           1695398016,            3875244345
           1696742223,            3878052223
           1706825182,            3884596959
           1708868607,            3885035413
           1708196788,            3882772231
           1707508583,            3881827122
           1707879977,            3880030935
           1710016224,            3876220526
           1710977880,            3870415475
           1709733742,            3869704222
           1711591299,            3871180845
           1712916946,            3875245609
           1715518565,            3883177044
           1716636773,            3880252545
           1716238135,            3877282399
           1715290121,            3878119527
           1714315198,            3878517775
           1715546612,            3874517025
           1713886836,            3870971044
           1711846189,            3872194586
           1711113277,            3869084278
           1707732902,            3872129962
           1709401539,            3881668376
           1708542286,            3881911101
           1710310296,            3878915549
           1716603736,            3874603437
           1725408145,            3867522531
           1730589033,            3860086066
           1730293868,            3853287024
           1730476435,            3853803788
           1737548593,            3856030530
           1740719477,            3861936674
           1737424920,            3865715055
           1739702662,            3857926198
           1738064696,            3852159881
           1735813704,            3853889337
           1736790473,            3857820524
           1734498369,            3859386926
           1732444336,            3859126436
           1732798682,            3854649224
           1729613637,            3850210631
           1732120085,            3852690473
           1734849530,            3859789531
           1732590891,            3862278782
           1732706205,            3853053695
           1730156432,            3854026035
           1735801634,            3857479680
           1736650876,            3863120385
           1737632922,            3867515984
           1735724973,            3868266725
           1735984773,            3869485242
           1738929974,            3873356665
           1748374178,            3877969049
           1752996660,            3882961075
           1754342295,            3885578506
           1753045890,            3886793623
           1752313431,            3888051587
           1754096750,            3883316322
           1752837756,            3881413680
           1752315099,            3879307667
           1753805226,            3872968816
           1750972043,            3868499638
           1749363557,            3870314200
           1749873066,            3873730111
           1749867523,            3875928966
           1750637983,            3880004598
           1750813367,            3885816363
           1749937750,            3886137879
           1747813057,            3882943986
           1746158829,            3883950068
           1744914539,            3884780942
           1742314365,            3887594187
           1742359190,            3885383844
           1742951184,            3877873231
           1740974925,            3875719856
           1739131131,            3876208908
           1737060391,            3876871364
           1737413572,            3872926388
           1736686497,            3867434741
           1736473304,            3866156675
           1738243233,            3860354697
           1736515936,            3856491195
           1737665169,            3859445798
           1738223309,            3859721494
           1738524691,            3856441255
           1738325719,            3855755068
           1740991204,            3855653516
           1750068592,            3852711348
           1755514552,            3849005108
           1754249286,            3846298919
           1759256954,            3852004888
           1761671200,            3859189675
           1763147761,            3858624767
           1763769106,            3856815649
           1763729104,            3857061641
           1763958472,            3851804639
           1761147549,            3852804789
           1760536465,            3855448290
           1758598932,            3855106809
           1757024196,            3856171167
           1753960911,            3857547876
           1755241748,            3852479173
           1751144953,            3848159430
           1751683804,            3852815886
           1750514365,            3851556907
           1749223581,            3854551019
           1748046593,            3856213992
           1747542796,            3853478574
           1746156204,            3850184501
           1746001341,            3849593700
           1746437584,            3851981412
           1746858472,            3858074493
           1745975478,            3858735096
           1746706356,            3853721667
           1744993701,            3851183045
           1743731625,            3852368559
           1744879515,            3849215667
           1744506754,            3844645700
           1744820060,            3844383933
           1745177150,            3843359789
           1746250470,            3843799012
           1747376059,            3845428019
           1747241334,            3851213850
           1747978000,            3849707903
           1750706024,            3845182724
           1753337442,            3842581128
           1754587413,            3837417658
           1755552388,            3838427301
           1757575147,            3839167970
           1758699859,            3836339768
           1761247967,            3837117097
           1766252625,            3840839231
           1768421384,            3842728860
           1768662772,            3841791302
           1769530235,            3840220998
           1769138312,            3842448276
           1769891876,            3844569797
           1771307150,            3841795084
           1772915031,            3838833990
           1773762578,            3837374821
           1775754079,            3835996934
           1775758108,            3834828479
           1778684801,            3836758790
           1779418337,            3838733188
           1781255243,            3841682612
           1781679628,            3839522342
           1782244228,            3841591784
           1783018055,            3843154165
           1784990602,            3841056427
           1785093792,            3839134131
           1786652847,            3842041770
           1787643639,            3847135048
           1788960803,            3846129737
           1789137206,            3845728912
           1789489523,            3847357720
           1789274769,            3849498124
           1788707108,            3851764721
           1789214403,            3851083852
           1788936162,            3847021641
           1787321742,            3846465581
           1785797056,            3845907886
           1783669080,            3844883364
           1781288192,            3846097420
           1780015183,            3846378247
           1777598801,            3843620893
           1775610446,            3846054600
           1774350315,            3846433894
           1773132003,            3842938411
           1770747326,            3842933981
           1769632250,            3843944264
           1769227022,            3841472341
           1769383209,            3839239930
           1771009211,            3837421105
           1774810185,            3833377734
           1777572882,            3830946109
           1779549371,            3829045961
           1779884661,            3828361227
           1780460472,            3830401442
           1781244137,            3829139507
           1781004214,            3831301347
           1781051950,            3833881990
           1780304935,            3834937499
           1779250822,            3836270380
           1781517803,            3833343057
           1784474512,            3828564200
           1783824841,            3824821734
           1782811680,            3823713128
           1781507040,            3822516094
           1781005532,            3821941299
           1781335720,            3819523258
           1780746979,            3818428231
           1781538915,            3819173422
           1781762190,            3819679198
           1782812928,            3823648613
           1783860319,            3824514801
           1781899744,            3825786094
           1781706557,            3828673474
           1781209657,            3827524438
           1783213443,            3826502916
           1789112957,            3821821293
           1791038988,            3818235256
           1792092728,            3818560831
           1793751372,            3820124574
           1794947501,            3821041866
           1796995593,            3823948226
           1798525622,            3825753881
           1799972491,            3826268549
           1801528349,            3826095834
           1804988826,            3828382509
           1809694971,            3830910279
           1811717882,            3832029286
           1814193301,            3833108125
           1817379760,            3836267153
           1818691555,            3841795394
           1816579057,            3843850729
           1816566822,            3840122033
           1815210819,            3835541768
           1814229579,            3835480737
           1812834878,            3838696395
           1811274187,            3840352777
           1814676539,            3836494994
           1819360792,            3833595614
           1822003085,            3827599892
           1822345861,            3826662013
           1825023258,            3828919340
           1825882954,            3833393249
           1826190390,            3835171128
           1829587675,            3829967668
           1830076382,            3829270704
           1831298586,            3830591218
           1831464132,            3833856198
           1831001114,            3837023175
           1832351251,            3835127460
           1833126267,            3834700082
           1831511954,            3832282840
           1830940594,            3834939621
           1830035379,            3837799376
           1829859523,            3840497292
           1829038319,            3842378948
           1828621206,            3848151275
           1827541160,            3850844866
           1826330177,            3850252695
           1826038730,            3849726664
           1823142991,            3842829326
           1822233638,            3848196948
           1824786092,            3855116507
           1823387524,            3854308250
           1824521789,            3857557372
           1827021597,            3863516447
           1826338969,            3867484602
           1824829325,            3869121779
           1827296151,            3865094867
           1822937041,            3861507891
           1827045009,            3868615330
           1829496349,            3875728649
           1828795582,            3875415378
           1828058965,            3874152942
           1829058731,            3871123019
           1832069007,            3865918906
           1833194384,            3860897733
           1832651910,            3857148566
           1831834755,            3856835639
           1831945280,            3856323936
           1831365229,            3856474669
           1831814794,            3857441367
           1837826796,            3856390631
           1842978084,            3849266952
           1842712945,            3850706306
           1843355716,            3853462771
           1843860146,            3850770036
           1843733419,            3852257626
           1843479247,            3853601612
           1842774561,            3854408654
           1841182865,            3859200832
           1841102081,            3858808434
           1839661386,            3856054658
           1840798600,            3857107134
           1844331111,            3859613867
           1850791782,            3864028404
           1852159437,            3871386836
           1853176696,            3870682754
           1852681169,            3869561308
           1851700841,            3870852060
           1851546286,            3871765151
           1851124503,            3870465535
           1854889152,            3873977836
           1859204135,            3880568190
           1859905190,            3882808832
           1859196327,            3879892549
           1859260710,            3880949316
           1858868023,            3882527622
           1859845561,            3883747021
           1860477263,            3884326174
           1863193170,            3887655736
           1864595905,            3891323452
           1864168182,            3893124586
           1866055245,            3892069690
           1868434976,            3888508819
           1868600693,            3884474335
           1864893367,            3881486922
           1862766250,            3885374131
           1861518039,            3885797718
           1860145074,            3881799044
           1858239350,            3880549888
           1857822590,            3879845803
           1856872370,            3881523412
           1856704673,            3888775033
           1856313355,            3887950408
           1854400184,            3882924714
           1852745920,            3882983213
           1852260897,            3881006995
           1850438610,            3876802687
           1849141163,            3877033517
           1848596638,            3877040755
           1851378283,            3874050847
           1854592955,            3868360241
           1855786169,            3868494846
           1858967969,            3869585928
           1865560631,            3867325773
           1867074773,            3864651118
           1866140377,            3864493153
           1864788576,            3866780811
           1863567471,            3868110732
           1865458881,            3863967946
           1863405228,            3858953573
           1862718338,            3860863631
           1861963914,            3864411143
           1860692495,            3865900041
           1859625862,            3864269133
           1860144874,            3862265018
           1861117124,            3858707553
           1863784308,            3856984040
           1861317521,            3849426245
           1863667746,            3851913296
           1865531550,            3856423962
           1867146986,            3854818753
           1868479152,            3850010707
           1869305257,            3850590307
           1871338916,            3848201520
           1870892581,            3846991730
           1876119238,            3848981027
           1877219382,            3847925452
           1881820345,            3850601593
           1881999608,            3853892315
           1882914697,            3851891599
           1879797637,            3849047179
           1878668944,            3853949004
           1881603679,            3854001867
           1887913958,            3851500988
           1890349874,            3849447674
           1891864268,            3848420749
           1892181600,            3847987801
           1896207320,            3852334550
           1897212896,            3857867077
           1898183990,            3858385023
           1898909062,            3856859986
           1898932395,            3857626178
           1897576110,            3858518652
           1895395435,            3862155726
           1894833354,            3860458853
           1893950016,            3858734995
           1892647202,            3860383040
           1894766881,            3864953923
           1894342402,            3868701965
           1894080999,            3870618650
           1892990865,            3871655742
           1893801346,            3874133344
           1893980748,            3876238193
           1893945771,            3881356477
           1893303913,            3881876670
           1892590040,            3881941862
           1891306770,            3882159688
           1889887751,            3884811319
           1888425062,            3885776261
           1887695435,            3884062070
           1886907044,            3881535203
           1887131413,            3879504950
           1888823025,            3874786923
           1890669121,            3871309737
           1891519814,            3866634058
           1892704383,            3864737345
           1892427594,            3862425784
           1894168712,            3864805232
           1895371409,            3866346124
           1894958218,            3864264895
           1894776993,            3864861374
           1896803581,            3862153885
           1896301553,            3858533599
           1896272010,            3862037789
           1898396883,            3862441022
           1901437048,            3858530688
           1901636771,            3857946734
           1902898320,            3861253408
           1904119374,            3861114718
           1903706930,            3864734372
           1904447363,            3866920877
           1904853238,            3865657827
           1904766868,            3866685044
           1904136919,            3868296610
           1902486052,            3871837202
           1902178778,            3872035597
           1901097460,            3867545055
           1900296258,            3868459931
           1899874403,            3871976383
           1899948125,            3875914057
           1898531647,            3876362240
           1897377456,            3878712074
           1895791527,            3879522840
           1894959819,            3878767936
           1893023619,            3877234624
           1892125006,            3879614291
           1889927067,            3883862109
           1889530076,            3883409331
           1892343459,            3877872861
           1890694653,            3871977562
           1889460996,            3873005999
           1888537623,            3875961014
           1889105787,            3874324235
           1890006560,            3867476979
           1890209719,            3864890121
           1891274724,            3865355055
           1893504957,            3867194947
           1891673494,            3869954798
           1891121929,            3870732780
           1894758754,            3863490526
           1894096472,            3860004554
           1895093983,            3860324300
           1895681199,            3859305585
           1895480736,            3859610857
           1896161489,            3860268862
           1898060742,            3856798952
           1899488667,            3855201382
           1900277635,            3854789522
           1901905849,            3854449521
           1903152136,            3854889008
           1905090332,            3856311806
           1906287203,            3857951171
           1907047385,            3858084976
           1907300160,            3859966335
           1908920945,            3860127455
           1909611064,            3858101765
           1909470257,            3859757513
           1908919460,            3859325672
           1908927494,            3859605476
           1907334890,            3865038242
           1905924603,            3868433955
           1906225461,            3865938325
           1904384086,            3864298853
           1902454616,            3865245716
           1900894779,            3863346472
           1899535579,            3862453180
           1898073787,            3862153229
           1896547633,            3866027116
           1895267172,            3867156890
           1894914476,            3865467764
           1896633268,            3862783275
           1898157630,            3857766758
           1899018485,            3856206933
           1899826370,            3854418716
           1900984552,            3853715754
           1902882611,            3851249659
           1902854583,            3850517723
           1906339732,            3853515265
           1907119746,            3851697176
           1907104874,            3853652800
           1908258085,            3854399320
           1908718692,            3852079063
           1909381691,            3852340312
           1910203468,            3851167616
           1910816557,            3851421218
           1911561949,            3852183343
           1912811677,            3852187778
           1913045716,            3850649196
           1913395554,            3853610802
           1912642413,            3857881887
           1913137177,            3857630501
           1912881173,            3856974612
           1911739218,            3856864928
           1911125233,            3855399524
           1911500627,            3853194150
           1912633962,            3850666590
           1915050951,            3849756755
           1918911297,            3844803808
           1919523599,            3842002483
           1920664831,            3843190280
           1921131159,            3844727757
           1921632710,            3846359451
           1922848159,            3846647803
           1923906739,            3845913510
           1923921221,            3846209719
           1923309242,            3849824490
           1923693400,            3850741141
           1921157815,            3851896105
           1918622866,            3859057169
           1919682968,            3856564970
           1918231739,            3854735691
           1917744174,            3855497955
           1917066266,            3856825446
           1918572682,            3860862765
           1917907119,            3866184334
           1916507181,            3868062296
           1915112881,            3865717531
           1913729806,            3866818581
           1913099357,            3866554373
           1911596902,            3870718415
           1910390441,            3874932725
           1909624253,            3873580042
           1908359647,            3871444262
           1907830873,            3870142309
           1907214181,            3866602805
           1906553571,            3865147110
           1906408585,            3862892224
           1906262454,            3860657227
           1905953461,            3859557658
           1905803708,            3863179657
           1905056601,            3865100428
           1906836711,            3859872624
           1907584423,            3856464951
           1907091058,            3856337573
           1906501720,            3860091675
           1910979670,            3861196458
           1916537292,            3857443500
           1917759267,            3856199819
           1919280086,            3856733749
           1922661411,            3858667433
           1925872466,            3858833149
           1927567345,            3863322395
           1928541131,            3865960443
           1929912401,            3865161094
           1930817700,            3864176226
           1929804819,            3865712246
           1929371806,            3868947758
           1929275914,            3868000052
           1928199179,            3868314339
           1926584424,            3870909123
           1926101677,            3870098621
           1925331903,            3872042476
           1927311061,            3875645923
           1928214147,            3876023929
           1930678196,            3878953657
           1934278924,            3880960317
           1935346466,            3883328422
           1936561801,            3885610752
           1936908459,            3885713449
           1937336283,            3887338408
           1937802858,            3887682299
           1938617266,            3887689396
           1938741339,            3888969017
           1939406161,            3892211995
           1939375426,            3892145675
           1940630223,            3890875126
           1940820017,            3891369476
           1947068971,            3893046719
           1948939516,            3891441446
           1952488805,            3891128293
           1954161086,            3892412239
           1954417790,            3892757220
           1955396067,            3891462347
           1955559342,            3886853707
           1955589484,            3886551918
           1955961427,            3888021998
           1956415631,            3886286484
           1956178975,            3886204612
           1956612387,            3887154753
           1957790444,            3885923899
           1958147767,            3884391149
           1957281684,            3883330164
           1956132807,            3884304837
           1954697538,            3886574121
           1953129617,            3887222694
           1951473166,            3887102285
           1950445272,            3884925977
           1949990215,            3884185362
           1952332775,            3880185531
           1953888985,            3874622016
           1954040588,            3873350081
           1955822479,            3872137571
           1958108055,            3868650142
           1958384565,            3866990542
           1958517810,            3868638982
           1958802128,            3868997641
           1959017476,            3867537858
           1958002996,            3868310288
           1956723619,            3871323192
           1956651135,            3871293368
           1955815653,            3868183524
           1954187687,            3868411420
           1953228931,            3872726678
           1950544845,            3876002245
           1949559234,            3872328611
           1948001152,            3871583418
           1946211133,            3869253435
           1943528974,            3869384062
           1942212746,            3869427042
           1942195444,            3866359792
           1942085961,            3862876165
           1941781136,            3861692513
           1943470161,            3859883445
           1942816068,            3855811077
           1943158363,            3857886936
           1944407392,            3858904058
           1946727147,            3861043041
           1950148353,            3863164326
           1952673430,            3863342905
           1953843148,            3861489755
           1954239250,            3860913514
           1957197771,            3859388672
           1960919135,            3853570393
           1960452171,            3849719893
           1959530803,            3852714820
           1960595287,            3854003543
           1961994638,            3848174862
           1961976844,            3846956116
           1965299826,            3852729028
           1966796210,            3853643614
           1966749517,            3848923872
           1967685443,            3847618885
           1974967720,            3846059323
           1976649803,            3848735849
           1977148792,            3849593824
           1977317597,            3852907896
           1980330683,            3857745122
           1979692285,            3859637671
           1978376518,            3864858435
           1977233226,            3866346050
           1975746673,            3865487868
           1974128966,            3867126550
           1973468061,            3870407504
           1972680334,            3870676486
           1972211071,            3872946572
           1970133882,            3878560048
           1969186092,            3879009476
           1966970862,            3873348081
           1964218567,            3875208075
           1962726612,            3874835396
           1961397241,            3872032399
           1959180763,            3870713651
           1957610086,            3872897371
           1956089993,            3873804016
           1956559906,            3869708875
           1954576323,            3866412429
           1956644175,            3865944828
           1962266252,            3868541183
           1962597873,            3872890584
           1961272737,            3875108638
           1960004461,            3873379975
           1957588742,            3874273037
           1955242900,            3876746896
           1955661658,            3874244200
           1956275263,            3870103892
           1954649998,            3866582381
           1954042829,            3867181742
           1954542075,            3870140181
           1953262046,            3871234209
           1952117123,            3869256805
           1950642363,            3867505739
           1949177215,            3867139463
           1949167389,            3867829106
           1948259739,            3866440706
           1949437420,            3868980889
           1952974365,            3869434764
           1955054128,            3870465255
           1961038974,            3873946660
           1960760921,            3880596811
           1961024060,            3881957700
           1962097839,            3878160722
           1959962970,            3876986884
           1959125473,            3879662679
           1957888206,            3880848969
           1956578226,            3880423915
           1956481806,            3878031340
           1953209533,            3875690746
           1951886630,            3877808806
           1952669169,            3873257042
           1952072899,            3869957688
           1951982296,            3868620178
           1951166047,            3868526328
           1950651329,            3870159992
           1953002260,            3867669548
           1954186116,            3862145551
           1954415883,            3859798180
           1956709793,            3858906089
           1957712097,            3861044834
           1957701773,            3861951510
           1958715670,            3859451453
           1957792154,            3855965616
           1957802366,            3856537933
           1957697442,            3856758530
           1957844284,            3857438446
           1959780499,            3853446618
           1959320511,            3849527461
           1960347611,            3849889706
           1960712125,            3854039528
           1961626839,            3853678866
           1964027165,            3852143344
           1966537004,            3850093462
           1967322137,            3847990201
           1968752849,            3849235851
           1970182829,            3851286960
           1971881238,            3850852397
           1972043977,            3849947754
           1973363202,            3852505453
           1974320586,            3853875477
           1975358206,            3853114294
           1975873488,            3854095991
           1976531496,            3855805389
           1976078319,            3858178030
           1975881160,            3860261560
           1975987178,            3858864004
           1974466933,            3859724754
           1972506743,            3862068930
           1971959741,            3862224816
           1973780731,            3858243960
           1974432433,            3854755442
           1974344103,            3852226718
           1974177994,            3850775190
           1975001339,            3848479389
           1974320102,            3845483248
           1973774719,            3849073042
           1975491361,            3850093510
           1976073356,            3844248968
           1976434358,            3843078121
           1977530128,            3847782389
           1977694456,            3850843632
           1981543040,            3851883121
           1984559828,            3851219650
           1985025607,            3851801292
           1984625773,            3850720120
           1983932748,            3851202315
           1983852388,            3854544767
           1982593601,            3859819036
           1981854455,            3860735511
           1981113992,            3857988951
           1980138313,            3858685387
           1982537690,            3860634779
           1984625061,            3863026433
           1986184344,            3866782814
           1987464211,            3868445627
           1988329170,            3867801684
           1991693354,            3867922715
           1996260006,            3866806120
           1998385996,            3868167324
           1999914354,            3869972852
           2000823371,            3867057392
           2000559673,            3865469826
           2001566741,            3868428894
           2002765268,            3867035168
           2002015778,            3864743448
           2002541409,            3865298832
           2002512089,            3865260003
           2002723693,            3866371853
           2004022397,            3865507084
           2004945649,            3866807775
           2005628480,            3864903833
           2004223512,            3864907431
           2003236226,            3866990196
           2000842331,            3868990213
           1999359201,            3868678772
           1997509963,            3867090584
           1995538122,            3866743271
           1993251142,            3865427251
           1991021170,            3866527655
           1990097886,            3866936801
           1987745430,            3867721291
           1987600955,            3869813319
           1985621799,            3870122800
           1983572070,            3873657816
           1981401526,            3875303625
           1981808220,            3872739811
           1982327934,            3870426942
           1983620993,            3870412965
           1988187554,            3870146142
           1990283844,            3863138618
           1990346711,            3863992870
           1991029069,            3867348987
           1992511428,            3866321731
           1993178732,            3865005629
           1993539845,            3864579509
           1994211104,            3866696778
           1994804334,            3870166533
           1995772078,            3868544368
           1995626897,            3869293193
           1996516024,            3873340755
           1996488433,            3874603569
           1996393507,            3875830725
           1995634232,            3875360494
           1994856602,            3875801220
           1993641414,            3874422413
           1992075654,            3876914829
           1990777513,            3879914871
           1990005610,            3879371205
           1988058979,            3877371884
           1987410120,            3880899901
           1985969830,            3886212075
           1985292403,            3886350127
           1985590691,            3883582136
           1983636606,            3880144296
           1981083742,            3880968318
           1981620009,            3879590164
           1982453775,            3873565261
           1982109997,            3870284237
           1980855042,            3870047836
           1981250076,            3873272074
           1981040225,            3869772310
           1979466286,            3868420956
           1979647639,            3868700170
           1978608466,            3868166577
           1978140839,            3867725431
           1976628696,            3866326413
           1975754858,            3868020233
           1975652699,            3865541565
           1973710329,            3863726274
           1972619860,            3867819206
           1972937131,            3866856307
           1970200703,            3864479725
           1969829951,            3865568502
           1969291407,            3866584950
           1967457407,            3865189816
           1966486826,            3866185754
           1965045510,            3865709708
           1964238000,            3865726522
           1962744444,            3864317600
           1961960356,            3865253714
           1961664739,            3864582439
           1961914806,            3863436168
           1963250334,            3863991825
           1966466093,            3863226318
           1969750861,            3862678302
           1971670470,            3860380326
           1972102036,            3860836831
           1973368839,            3864229723
           1974640843,            3863577246
           1975937581,            3864558890
           1978380711,            3863731803
           1980538881,            3865928573
           1982786946,            3870483982
           1983825130,            3871102501
           1984876694,            3871386276
           1985110004,            3870801365
           1984955170,            3873510182
           1985132436,            3875922108
           1984341034,            3875561952
           1982944448,            3879210869
           1982782811,            3878627193
           1981717488,            3877268879
           1980139979,            3877316769
           1979492139,            3876208862
           1979600705,            3873042730
           1979067532,            3870492887
           1979572951,            3868012448
           1978701996,            3865075570
           1978441630,            3865776285
           1979460977,            3864313187
           1978332750,            3862431543
           1978154245,            3865831141
           1980884462,            3867514834
           1984640614,            3862796784
           1985609473,            3864050874
           1985476874,            3866926408
           1985389868,            3868095247
           1984620164,            3866451298
           1983662464,            3867790863
           1982362976,            3867459273
           1981401399,            3869270911
           1981981733,            3868530512
           1982641209,            3871371878
           1984678526,            3877990692
           1983741770,            3880179791
           1983655097,            3879571680
           1981764116,            3877469932
           1980850273,            3878752779
           1981065790,            3879028380
           1980335873,            3880072446
           1980019210,            3884972644
           1980826291,            3886307134
           1977519657,            3885161929
           1976043299,            3890526434
           1975185033,            3889400134
           1973598727,            3889632467
           1972863212,            3889607828
           1974300304,            3888125705
           1974923859,            3882500124
           1975232616,            3881332782
           1976039991,            3881080903
           1978677811,            3879323567
           1977920316,            3874940878
           1978537620,            3878519378
           1981299810,            3878925550
           1982640146,            3875315492
           1983995489,            3876011466
           1985714027,            3875584065
           1986003954,            3878747272
           1985718307,            3883319362
           1987344354,            3885126168
           1989552623,            3882374237
           1985488345,            3881067355
           1983603698,            3886920568
           1982767248,            3884096735
           1980477762,            3884109542
           1979622425,            3884993961
           1977511979,            3882625950
           1976247111,            3883821193
           1975962070,            3881359869
           1974502176,            3881067732
           1976188212,            3884259629
           1975456278,            3885717007
           1975139995,            3886762683
           1973990102,            3886623028
           1973425493,            3890025147
           1972106194,            3892424466
           1971863448,            3889435696
           1970054619,            3887522392
           1969483528,            3888962796
           1968569504,            3891085315
           1967998766,            3889883208
           1966053117,            3888778906
           1965346988,            3889731108
           1963985481,            3889504439
           1963180763,            3890191515
           1963925876,            3885159677
           1961212925,            3882667999
           1963919203,            3881903942
           1964341659,            3880950592
           1967719497,            3880983367
           1970224397,            3884344459
           1970445278,            3887446646
           1970312638,            3888534344
           1969261134,            3887751195
           1968804481,            3889527238
           1968508269,            3890603090
           1967175273,            3891759984
           1965299986,            3894378461
           1966777132,            3891977765
           1967734252,            3887441656
           1967540287,            3884675831
           1967252334,            3883317408
           1966890856,            3883059397
           1967804443,            3882348104
           1969355313,            3877883274
           1969527894,            3875358843
           1970558460,            3876261875
           1971282565,            3877125110
           1973214091,            3877499340
           1975534314,            3875026089
           1977712856,            3875712225
           1978983765,            3874707546
           1980604104,            3875620604
           1981475955,            3878064783
           1981020989,            3882439716
           1982767163,            3883010292
           1982883455,            3879219375
           1981551779,            3880669315
           1979552748,            3886215861
           1978560173,            3887431587
           1980004514,            3882638399
           1979519956,            3881044156
           1979423102,            3878207550
           1978836936,            3875793083
           1978759106,            3874092922
           1981702306,            3876516867
           1983531652,            3877668080
           1982915887,            3880122545
           1984824324,            3880345046
           1985031436,            3879855965
           1990423842,            3884574889
           1992249965,            3888126402
           1992054668,            3889362748
           1991821341,            3891094561
           1991553816,            3887932935
           1989942234,            3889470933
           1989947583,            3893782393
           1989058352,            3894043595
           1989254135,            3892593539
           1987198576,            3892426092
           1987351670,            3898158772
           1986378493,            3900525668
           1987096662,            3899664416
           1984599498,            3895498755
           1985733001,            3896470043
           1986144171,            3903270036
           1984654158,            3906558055
           1986655990,            3906421527
           1989192966,            3899147247
           1985721209,            3896577943
           1987982664,            3898047429
           1990212884,            3901531024
           1988144145,            3900036797
