                    0,                     0
                    0,                     0
                    0,                     0
                    0,                     0
          11596411701,          -16750372457
          11596411701,          -16750372457
            599147937,          -23440857763
          -4577039274,          -15951615915
          -7739284108,          -12626650876
         -11080238102,          -11836809208
         -14536856397,          -10585202400
         -14536856397,          -10585202400
         -14536856397,          -10585202400
         -14353658862,           -1986166721
         -13236401461,            8358740764
         -13236401461,            8358740764
           4907911056,           -7033783356
           4907911056,           -7033783356
          -3651158301,            8605498635
          -3651158301,            8605498635
           7942498485,            3606028967
          20056691198,             -17190521
          20056691198,             -17190521
           9367079832,           -4570829985
           6360021771,           -8582327625
           6360021771,           -8582327625
           6360021771,           -8582327625
          14759936751,           12031233308
          14759936751,           12031233308
          14759936751,           12031233308
          12862984973,            4666234991
          16415710156,            1829114564
          21351394404,           -4014991293
          21351394404,           -4014991293
          14944165444,            1371249233
          12298099259,            6153645188
          10025584670,           10200797567
           6872832454,            5427175589
           4597791277,            -317419690
           4657370914,            1915498151
           3977816118,            9758530651
           3977816118,            9758530651
            318956595,            1651868400
           -257533061,           -5334701570
           3913347336,           -8340732589
           9808941318,          -11798900612
          10705675244,           -8164555557
          11621583368,            2506015844
          11621583368,            2506015844
          10131934370,            9091525665
           2801130107,           10349695738
          -1185389647,            7348911718
          -6022480675,            2833161475
         -11017907285,           -2665397765
          -5371088583,           -6997447344
           5285748283,          -13648356131
           5285748283,          -13648356131
           5285748283,          -13648356131
          -1778573415,          -16539264008
          -5272984080,          -20260970545
          -5272984080,          -20260970545
           8487931677,          -17779688430
           3425026473,          -10541554938
          -4404517357,          -12675042306
          -7515642250,          -10985614494
         -15015996196,           -6360850026
         -15015996196,           -6360850026
          -1416695227,           -3753415524
            361980425,            -299965992
           1572161681,            4760899897
          -1749355676,            7597928470
          -7345966770,            6507400942
          -6593129241,            1930811459
          -3368663423,            8879712968
           1094599327,           10183376105
          -4758396612,           17554720084
          -4758396612,           17554720084
          -4758396612,           17554720084
          -4758396612,           17554720084
          -4758396612,           17554720084
          -4758396612,           17554720084
          -9702641692,           24411650203
         -13804378584,           19865448861
          -9388268130,            8332477433
          -9388268130,            8332477433
          -5977259475,            8601748483
          -6103183118,           18666841141
          -9820397192,           13541741263
          -9820397192,           13541741263
         -10261645036,           14605760917
         -10134191485,           13934432023
          -7635422165,           15352879763
          -4320316331,           16885725653
          -4320316331,           16885725653
           4842532435,           16290031268
          13358280982,           18388392574
          13358280982,           18388392574
          15699214044,           16309468485
          17087915627,           15573393138
          18810524531,           13193792059
          19055799038,           10138981861
          20999418412,            7560557214
          22359951973,            7044150149
          25190077292,            5603593874
          23082033017,             972635763
          20993969740,           -4552677019
          22124751646,           -8945950345
          17859682274,           -9874350593
          23003897750,          -15392759836
          23003897750,          -15392759836
          13050981400,          -12739272743
           6867791357,           -6048449594
          -1518460146,           -1595056534
          -6371930309,           -4395934256
          -9130150859,           -7629465245
         -12508400528,           -7651457203
         -13028910998,           -6395146921
         -19803695167,           -5044146597
         -19803695167,           -5044146597
         -19803695167,           -5044146597
         -13392258125,            1594257961
          -1867414563,            8312460739
          -1867414563,            8312460739
          -1867414563,            8312460739
          -7171193779,             559187953
          -8365211239,           -5525650176
          -8342030002,          -11073527055
          -7466809677,          -14957040870
          -5995161990,          -18104997270
          -5883389751,          -18374568457
         -10570132162,          -20290692959
         -10570132162,          -20290692959
          -3125546424,          -13790352792
           1298438771,          -12026091582
           8501620735,          -10430369425
           9290046589,           -6391483118
           9290046589,           -6391483118
           9290046589,           -6391483118
          14233973745,           13564824463
          14233973745,           13564824463
          17839092358,            9503107424
          18286844588,            1812332224
          18286844588,            1812332224
           5138569932,           -1823671334
          -3617805699,           -5193592464
          -9128748720,            4944805548
          -9128748720,            4944805548
          -9128748720,            4944805548
          -5442352737,            7991187540
           1145882435,            2649624536
           2882485396,           -1686310117
           9761854272,           -1429110763
           9761854272,           -1429110763
         -12494054846,           -7442828480
         -12494054846,           -7442828480
           5427553687,           -6498470125
           5427553687,           -6498470125
          -1152169273,          -12343130067
          -6629321322,          -17116617565
         -14305930051,          -10703089220
         -14305930051,          -10703089220
         -11002922956,          -11728221421
          -6094255001,          -14998525150
          -6094255001,          -14998525150
          -1493763366,            -504191495
          -5582613939,            3462203881
          -4377803004,           10956532903
          -1904192759,           13491466788
           1753211797,           14177256568
           7128549381,           15651438174
           7128549381,           15651438174
         -14337368269,            9667516532
         -14337368269,            9667516532
            271763724,          -12560091264
            271763724,          -12560091264
            271763724,          -12560091264
          14363626685,            7958308572
          14363626685,            7958308572
          14363626685,            7958308572
          17856830988,           12275205748
          20063717241,            9178766986
          14364045573,            3642873327
          12367550644,             125396098
          12551854982,            1108670220
          10029498194,            3511964708
           9350430157,            6743216266
           8317554514,            9874854755
           4825394332,           10832820511
           2484093263,           12071604088
             65056888,           11513709155
          -1529276567,           13429083192
          -1529276567,           13429083192
          -1529276567,           13429083192
          -1529276567,           13429083192
          -1529276567,           13429083192
          -7311053223,            6799503892
           2290379374,            8949803090
           7042683536,           10166622860
          10162678946,            8121791232
          15150930454,           15533106146
          15150930454,           15533106146
          -8721701518,            9584684112
          -8721701518,            9584684112
          -6800871756,            2735627932
          -7957953398,           -5354734509
          -1402140736,          -12105157555
          -1402140736,          -12105157555
            988705805,            -790803169
           2213546765,            6762221657
          -3869058380,            6988321431
          -2991062134,            1064148412
           2684245765,           -3401204604
           7542823824,           -2038624251
           5023112254,            4278103108
          -1493951780,           -1439399996
          -8016574969,           -5499875537
         -11293921013,           -8771705145
         -15032762028,          -15923343582
         -15032762028,          -15923343582
         -29850286254,           -7280869940
         -29850286254,           -7280869940
         -29850286254,           -7280869940
         -29850286254,           -7280869940
         -29850286254,           -7280869940
         -29850286254,           -7280869940
         -29916663913,            3848642932
         -23248626847,            5534054312
         -26370076920,            7595261286
         -24760711051,            5382054987
         -24217529113,            4633711651
         -23407581351,            8372368995
         -23407581351,            8372368995
         -23407581351,            8372368995
         -23407581351,            8372368995
         -13164081473,           19389805280
         -13164081473,           19389805280
         -13164081473,           19389805280
         -13164081473,           19389805280
         -13164081473,           19389805280
         -29830700055,           18726824451
         -29830700055,           18726824451
         -27726781471,           18455223004
         -29902269627,           19769142490
         -27505051509,           16201715170
         -19876366996,           19702830320
         -16363383362,           21983284347
         -16301562815,           18675952095
         -17902163937,           23247295888
         -10868870610,           16960854365
           -997683145,            9103111591
          12334369416,            5034890798
          12334369416,            5034890798
          19178724499,             757565348
          12821843207,            2908555988
           1526871982,            2657415979
           1526871982,            2657415979
         -12460336598,           -2649524477
         -12460336598,           -2649524477
           3518421177,            3943538716
           3518421177,            3943538716
           3518421177,            3943538716
           3226511065,            4243167955
          -2271414916,            9229384432
          -4188466026,            6841186458
          -4188466026,            6841186458
          -4188466026,            6841186458
          12529956049,           -9384561559
          12529956049,           -9384561559
          11734444368,           -1100316792
          11441428247,            3613097032
          13438772998,           13228172938
          11070863990,            4281481945
          11339587172,           -3189751325
          20401768230,            2553107096
          20401768230,            2553107096
           9276360073,           -4082938362
          13215817100,           -8221867902
          17623725972,           -9331399094
          15970806421,           -5966675857
          18306229016,           -2858459512
          15289718306,           -5252131780
          13055125219,          -10339725255
          19152665950,           -6801378214
          11940684097,            -613165204
          11940684097,            -613165204
          11940684097,            -613165204
          11940684097,            -613165204
          11940684097,            -613165204
          11940684097,            -613165204
           6018015153,           -7226087069
           2284949058,          -18744136415
           2284949058,          -18744136415
           2284949058,          -18744136415
           9364969948,          -26734741134
           8243888379,          -15765764532
           5026664099,           -2879668675
           5026664099,           -2879668675
           5026664099,           -2879668675
           5835351331,           -3265230852
           6344256402,          -10870184204
           6344256402,          -10870184204
           6344256402,          -10870184204
           6344256402,          -10870184204
          21191351938,            1410302380
          21191351938,            1410302380
          29007338434,          -14474670603
          29007338434,          -14474670603
          29007338434,          -14474670603
          24836456042,           -3706404603
          22221274460,            2287460692
          29483460585,            4431219225
          29483460585,            4431219225
          24775733296,            -918375205
          23635170071,           -7130634857
          23263458215,           -9565443602
          23263458215,           -9565443602
          23263458215,           -9565443602
          23263458215,           -9565443602
          20005327799,           -1739457676
          14944306165,           12157116718
          14944306165,           12157116718
          13221776515,            9597238480
          12993172205,            9510910891
          12336891768,            9483771694
          13658475599,            6463794389
          13788721556,            5598081172
          11477622077,            6157544686
           8361123545,            7725010581
           4319838460,           10947454502
           3431337995,           11819252203
          12265322840,           11937665690
          12265322840,           11937665690
          12265322840,           11937665690
           8976711203,            9604817183
            -19959212,            7140736539
          -7372114753,            6536362892
           1121855569,            6103044886
           2461538962,            7869302485
          -3163104684,            4691778706
          -1234448032,           13816318320
          -1234448032,           13816318320
          -1234448032,           13816318320
          -1234448032,           13816318320
           3091067521,             952968013
            424402839,            9012089693
          -1346729388,            9291997692
          -4746024020,            9670099315
          -7796418713,           11829462479
          -7796418713,           11829462479
          -8240625869,            1912640108
         -10201042359,            3130033878
          -9870455142,            5783082699
          -9508775775,            5260280547
          -9318514903,            6933142703
         -10466308131,           10926564948
          -5868982814,           15510340547
          -2002566136,            5325314236
          -2002566136,            5325314236
          -2002566136,            5325314236
          -5267266863,          -15599632871
          -5267266863,          -15599632871
         -11312993006,          -13785098565
         -18819626229,          -11674365277
         -16798985173,           -8163539328
         -16142931222,           -5306034798
         -18476803348,           -7281699117
         -12492582897,          -11425674421
          -7431569851,          -15694040239
          -2497152028,          -19835896105
          -2497152028,          -19835896105
          -7136993572,           -8029713258
          -6028337264,           -2527146092
          -7540348911,            8614462908
          -7540348911,            8614462908
          -1078131318,             999569184
          -3267420690,          -12659525621
          -3267420690,          -12659525621
         -10421279805,          -12791557601
          -9309880629,          -14676589524
          -4049381210,          -18107507568
           -847228242,          -16736061737
           7629199934,          -11151657588
           7629199934,          -11151657588
           2996541714,           -1650980380
             46824651,           -6504970142
          -1862579334,          -16983930697
          -1862579334,          -16983930697
          -1862579334,          -16983930697
           2367764307,           -6359612672
           2607449708,            1152672953
           4748377118,            8463389736
           9807883398,            7361550781
          11989288163,            5503059782
          17047525524,            8382384362
          17047525524,            8382384362
          10222994758,             309935269
          -4880711778,             459445998
          -4880711778,             459445998
          -4833380129,           -3673236527
          -4339824219,           -6913761143
          -4850503489,           -9315247879
          -6669384411,           -9370136928
         -10300914997,           -7393013335
         -12903379915,           -8493924465
          -7878029251,          -12728193204
            673481991,           -9486594737
           3398035345,           -1090874965
           3398035345,           -1090874965
           3398035345,           -1090874965
           1688771878,           -7086596352
           1655967894,          -15060978421
          12246411318,          -14419502870
          12246411318,          -14419502870
           5084351091,           -1031455199
           7279331931,            2717596419
           4899328192,            5956611450
            272318829,            7954435365
            272318829,            7954435365
            272318829,            7954435365
           4818431798,            7997058681
           8649179493,           11747869372
           4669091254,           10408349861
          -1259249109,           13022559216
          -6107837327,           17492578285
          -6107837327,           17492578285
          -6107837327,           17492578285
         -18448878208,            9667824420
         -18448878208,            9667824420
         -18448878208,            9667824420
         -18448878208,            9667824420
         -14199999339,           12807927952
          -6247820935,           12395142515
          -5059674206,            7144380113
           -592186432,            -475127012
           3408048953,            1273018595
          -1077242426,            4576450671
          -4854233261,            2322090071
          -2121368842,           -3725402825
           1011064964,           -8996824301
           1011064964,           -8996824301
           1011064964,           -8996824301
           -261287824,            -365972021
            247305312,            3089782980
           3687287422,           12716812013
           3687287422,           12716812013
           3687287422,           12716812013
          -7726820317,           -6560113860
          -7726820317,           -6560113860
          -7726820317,           -6560113860
          -5696729032,          -12506914119
          -1687256467,          -12746950453
            416108032,          -17165918574
            416108032,          -17165918574
            416108032,          -17165918574
            416108032,          -17165918574
           7558573432,          -16466998721
           8644805075,          -10091194538
          12266666328,           -3263551841
          12266666328,           -3263551841
          11909825983,            9361364281
           9374358522,           14869756173
          17849033163,           16918955883
          17849033163,           16918955883
          18369772588,            3643307784
          14324833042,            3076571754
           6237148574,           -1997567392
           5107843888,           -6520342670
           3862662689,          -12204671300
           7029014510,           -8980915733
          -2899531485,           -7064002592
          -1392063870,            1965946950
          -2871647457,            7096552425
          -6599646592,           11308269799
          -9762892455,            7930554295
         -12274833130,           14016714864
          -6107942062,           15669187397
          -3525169667,           16195362132
          -2529801465,           17944564863
           -930177181,           20895631592
           -930177181,           20895631592
         -10314800445,            6251755884
         -10314800445,            6251755884
           5020296484,           -2710466921
           5020296484,           -2710466921
          -8082204163,           14853045612
          -8082204163,           14853045612
          -3409194216,           14488334109
          -3443340813,           15839239074
          -6936600675,           16699703530
         -11144632055,           15731975183
         -10116809431,           10639594450
          -6178607559,            -379121762
          -3631425731,           -5452620543
          -9358294199,           -8144278722
          -4477773039,          -11013499120
           -819909116,           -4019085886
           6642812346,            6015175116
           6642812346,            6015175116
           3202046163,           -1939619734
          12921197948,           -5437826969
          12921197948,           -5437826969
         -10282514273,           -5094969068
         -10282514273,           -5094969068
           -979306708,            -219095286
          -7767088156,              68452325
         -11512178224,           -4400218379
          -5177672445,           -7833812101
           4059473715,          -10347240783
           4059473715,          -10347240783
           4059473715,          -10347240783
          15180354316,           -8706293661
           7057240624,           -7001583424
           4099064849,            2355431245
          -3188887526,           -1686295364
           1587970591,           -7951477827
           8449213004,            -438571851
           8449213004,            -438571851
           8449213004,            -438571851
           4096447948,           -5916682670
          -1708903155,          -15205411288
          -1708903155,          -15205411288
           8467444209,             308378705
           8467444209,             308378705
           8467444209,             308378705
           8467444209,             308378705
          11953091527,            1827902844
          13068753065,            3678916497
          13493412772,            7046526366
          13493412772,            7046526366
            533766300,            6395242413
          -2974777563,           14660190068
          -6942329234,           19541961487
          -6942329234,           19541961487
          -5691962099,           13142814099
           -381512816,            4118733909
           -381512816,            4118733909
           -381512816,            4118733909
           -381512816,            4118733909
            479165986,           10130301469
           -288501454,           17731736571
           -288501454,           17731736571
           6153128086,           13926320988
          13412956542,           13892992411
           6197332144,           10984176832
           6197332144,           10984176832
           7134541756,            7146482684
           6975382050,            1934721126
           8199909519,             -27529127
           8199909519,             -27529127
         -12298925984,            3846200178
         -12298925984,            3846200178
         -12298925984,            3846200178
         -12298925984,            3846200178
         -12298925984,            3846200178
         -12017346594,            1579995814
          -8595759432,           -2705393055
          -5786049209,           -3919451432
          -6113764228,           -1553110690
            378632372,            3915998552
            378632372,            3915998552
         -13644896448,            6172834196
         -25057309553,            3097112356
         -25057309553,            3097112356
            498745960,           11187409972
            498745960,           11187409972
          -7805832666,            1686078902
         -13714520395,            7386264833
          -5955965028,            3769099691
           2215361858,            1305272402
           5361024709,            9952391527
           5361024709,            9952391527
          12247485516,           14241993103
          13572905039,            8617620704
          13572905039,            8617620704
          13572905039,            8617620704
          13572905039,            8617620704
          13572905039,            8617620704
          16833226855,            8728136235
          15874866274,            8109925716
          20324430618,            9318052081
          20324430618,            9318052081
           6088580757,            4379075261
           2702065550,           14007199164
          -3883105241,           18824135011
          -6837553242,           19154356630
          -8436708386,           17157180216
         -10558333046,           14838439710
         -12330670347,           12197196561
         -14803548282,            9900939840
         -13955224148,            6486881525
         -11848212822,            5158910057
         -10591207265,            4931538723
          -9825197072,            4492428595
          -9500191923,            4053466405
          -9294941519,            4198085864
          -8779561385,            5030397754
          -8445923012,            5620960809
          -8048641799,            6137273636
          -7622575251,            6492461340
          -7612055198,            6703955989
          -7915695400,            6695733041
          -8429391854,            6656008223
          -8954930686,            6491298329
          -9059283133,            6507384831
          -8515613506,            6973366638
          -8476386207,            7025250741
          -8723772715,            6976261022
          -8570376049,            7018587683
          -7861648970,            7255073465
          -7404061647,            7237676610
          -7616928089,            7024927141
          -7880416913,            6777004251
          -8102669592,            6789629482
          -8393142127,            6667660200
          -8566857792,            6613619489
          -8759158932,            6569203068
          -8921984701,            6387388754
          -9008681842,            6469260207
          -9173318354,            6333246616
          -9202009276,            6444625303
          -9358453284,            6262650764
          -9299438463,            6488841015
          -9524961669,            6662569458
          -9745501655,            6512311398
          -9569370392,            6900235649
          -9828871398,            6870344736
         -10056318006,            6914472837
         -10441494775,            6545071972
         -10257520405,            6615270779
          -9412747748,            6978839348
          -9148539173,            7244714980
          -9426607367,            7236056596
          -9722657799,            6976470533
          -9981818842,            6809732303
         -10083661024,            6681250108
          -9997511340,            6764753665
          -9744383823,            6876958518
          -9776869043,            6842157374
          -9929470839,            6682906718
          -9923412628,            6565735918
          -9735864682,            6744193416
         -10020851375,            6269700129
          -9928256350,            5722549527
          -9634024493,            5724628072
          -9463002333,            5784769612
          -9056306473,            5983536672
          -8924685079,            6060546315
          -9016202517,            6005436392
          -9054464444,            5981740821
          -8883911189,            6128348126
          -8915007037,            5845023473
          -8629586403,            6004404103
          -8227208696,            6264826323
          -8567753068,            5968713182
          -8745207945,            5736571440
          -8683715997,            5889014145
          -8678140301,            5901194794
          -8724853237,            5724009503
          -8867946030,            5703006269
          -9076843431,            5691241707
          -8926807257,            5972112707
          -8355286891,            6279329688
          -7872194067,            6434769939
          -7731696415,            6630667244
          -7863164255,            6610539378
          -8046809866,            6627548149
          -8284943885,            6352890371
          -8126759753,            6493600699
          -8012896820,            6580265413
          -8002521650,            6570520880
          -8068246482,            6541329008
          -8041663557,            6706080524
          -8149742658,            6577591092
          -8203379623,            6544901249
          -8068003681,            6810231161
          -8279318420,            6461219214
          -8309839479,            6357599514
          -7929198445,            6460092341
          -7744164642,            6473143237
          -7581122048,            6468037008
          -7594765071,            6358940460
          -7545749714,            6451309363
          -7728447834,            6227247231
          -7784816791,            6219798698
          -7839040977,            6043718192
          -7774867572,            6202680009
          -7902151254,            6005502490
          -7907880794,            6063386094
          -7892043553,            6124887649
          -7961729643,            6095616217
          -8066789354,            5865969082
          -8035595852,            5983120170
          -7847730879,            6174726615
          -7912381749,            6096899465
          -7903379768,            6215054552
          -8022770763,            6158101195
          -8058896565,            6108947628
          -7805949355,            6176356887
          -7700917919,            6174367661
          -7598904273,            6190948062
          -7645836292,            6075804039
          -7601228974,            6274661235
          -7629432405,            6288567869
          -7734714068,            6144622291
          -7884340891,            6028377891
          -8130812085,            5854276077
          -8074344214,            6046503876
          -7973650221,            6168550148
          -7910227586,            6329841654
          -7899513080,            6469894616
          -8074029028,            6329010900
          -8222583601,            6262245736
          -8411753688,            6075221793
          -8480092760,            6114913874
          -8336816709,            6297278327
          -8480655729,            6056872134
          -8612389535,            5830447255
          -8441287235,            6040186123
          -8369454402,            6098564776
          -8411827246,            5903127261
          -8444793577,            5678500133
          -8401354850,            5522616041
          -8400842578,            5371946643
          -8170876515,            5456272370
          -7935505923,            5766478527
          -7982828674,            5767150617
          -7854507340,            5643898754
          -7677209500,            5508895028
          -7623264123,            5254092241
          -7688637500,            5260941788
          -7599152239,            5629813528
          -7648242713,            5750616262
          -7825078663,            5659397121
          -8029195616,            5526982806
          -8022766591,            5659986142
          -8091081416,            5582535915
          -8155992327,            5378008508
          -8162323952,            5309983861
          -7886541084,            5557784063
          -7846324922,            5581431037
          -7945607343,            5360471026
          -7740405379,            5524747528
          -7617004048,            5683841271
          -7654694650,            5750450620
          -7689241563,            5817114514
          -7766032043,            5809438429
          -7839359789,            5712995849
          -7851316115,            5681431387
          -7623165625,            5933540259
          -7581949980,            5987482847
          -7714060554,            5613746361
          -7694186043,            5557710642
          -7577239457,            5534012490
          -7497832409,            5397840712
          -7337638786,            5326002347
          -7329267033,            5305304119
          -7372969772,            5283645526
          -7401186551,            5407454977
          -7441635150,            5444615187
          -7501997142,            5401840466
          -7372126266,            5450807234
          -7279140492,            5388419276
          -7079453823,            5337697737
          -6933279384,            5313101205
          -6812524395,            5413513244
          -6736889073,            5633785441
          -6935706841,            5263686427
          -6995300851,            5147879204
          -6787616323,            5278719437
          -6876080731,            5126067070
          -6857734947,            5259221379
          -6873791201,            5289086825
          -6953233411,            5176550337
          -6962498441,            5053505009
          -6867282320,            4989304885
          -6803210332,            5015573757
          -6800380633,            5101691324
          -6896855603,            5050024663
          -7017658025,            4987169578
          -6963668926,            5131019118
          -7000045889,            5144374783
          -7013025446,            5184917946
          -7060764603,            5134795911
          -7087938076,            5122540145
          -7090013512,            5138433225
          -7086853656,            5132876478
          -7003451753,            5226087463
          -6983372206,            5266592512
          -6967800637,            5300140914
          -6994886765,            5283382375
          -6628374060,            5538538895
          -6600051869,            5429474131
          -6826822438,            4922473624
          -6990889897,            4861942772
          -6925330124,            5026831850
          -6852840188,            5233723916
          -6737916940,            5328646293
          -6657767018,            5165007718
          -6569734899,            4916512540
          -6634103913,            4687526954
          -6629411444,            4279357367
          -6494358572,            4285798558
          -6265520533,            4477098044
          -6289323149,            4669534496
          -6324252051,            4710748983
          -6454061094,            4506687178
          -6417576595,            4343031316
          -6254825380,            4201860599
          -6133608547,            4362914984
          -6188181065,            4301981623
          -6227162542,            4138002182
          -6144364211,            4278444829
          -6086911364,            4573659507
          -6288182181,            4546687642
          -6380194151,            4483058106
          -6299342905,            4584696016
          -6203917644,            4502606720
          -6141436797,            4481432972
          -5904234429,            4754058272
          -5951284184,            4840352332
          -6077825811,            4622116472
          -6071890942,            4713361895
          -5875214639,            4954823519
          -5814048854,            5050080807
          -6027377347,            4731708795
          -6168785999,            4647920938
          -6067729084,            4700349724
          -6157380295,            4646583098
          -6047326658,            4816936811
          -6108288357,            4724194162
          -6097147890,            4467799151
          -6017338126,            4451951382
          -5835837512,            4453325621
          -5799354885,            4525009043
          -5818491042,            4464268496
          -5774642722,            4463969975
          -5726207677,            4376067257
          -5689566889,            4372292414
          -5630640481,            4444149604
          -5651846804,            4479930590
          -5725702857,            4396633564
          -5745434266,            4425488593
          -5724903023,            4371933950
          -5766910275,            4323528994
          -5680776292,            4444739428
          -5593631727,            4587720151
          -5659970277,            4487458301
          -5763959239,            4373530043
          -5698237473,            4502092205
          -5691354830,            4479418573
          -5738888728,            4280495675
          -5658987888,            4295576802
          -5582678928,            4324089034
          -5474625357,            4506844700
          -5434291454,            4575015580
          -5474886392,            4542780978
          -5617467723,            4255298786
          -5635065851,            4247458460
          -5418073744,            4492693385
          -5468017821,            4506163599
          -5541347710,            4474973626
          -5502729763,            4600231041
          -5557620213,            4585170052
          -5674892496,            4483811939
          -5653529796,            4578815274
          -5645072217,            4578175502
          -5563750089,            4557572046
          -5630176666,            4386376872
          -5621383177,            4296313829
          -5500068606,            4372216630
          -5555609934,            4128784444
          -5598991016,            4009577835
          -5400099585,            4178685637
          -5380449793,            4187016641
          -5446624756,            4079673722
          -5340325875,            4213441921
          -5379776068,            4173700290
          -5391563823,            4107150577
          -5356353257,            4089505968
          -5229507910,            4252601263
          -5270403240,            4220486925
          -5229012703,            4285606285
          -5093627300,            4418021730
          -5253865524,            4184011752
          -5338442581,            4152908011
          -5259943606,            4234614224
          -5345947231,            4164581428
          -5299903302,            4246777054
          -5330481318,            4189189391
          -5353133801,            4152950550
          -5308211696,            4217645416
          -5280770373,            4212551976
          -5342784481,            4091161852
          -5089836759,            4362692697
          -5170557571,            4242412524
          -5272099803,            3988772845
          -5138938180,            4080876434
          -5000176919,            4241732771
          -5027367210,            4233463803
          -5096639674,            4123947494
          -5056307992,            4144287373
          -5120554225,            3960741635
          -5176762006,            3628219205
          -5085091057,            3672157091
          -4971045725,            3799293830
          -5064010117,            3703884243
          -5015822000,            3808320834
          -4846710461,            3945748781
          -4773755471,            3905335496
          -4832504802,            3626720883
          -4818356835,            3415144152
          -4725772528,            3361919854
          -4667757163,            3311026189
          -4642127166,            3474131443
          -4631836755,            3593763425
          -4669645703,            3629819354
          -4669848662,            3688183119
          -4684202616,            3645734482
          -4738574146,            3548931363
          -4704185741,            3592771524
          -4684011000,            3555161223
          -4704093902,            3505757690
          -4680684771,            3445120219
          -4635978828,            3537812501
          -4609258568,            3617131905
          -4623048819,            3631813884
          -4661875677,            3600942085
          -4650316387,            3597863843
          -4662906380,            3508489902
          -4640034774,            3518332425
          -4580991600,            3533732135
          -4659848083,            3467547205
          -4551176527,            3597546672
          -4559779030,            3609949015
          -4620911844,            3518450014
          -4603083898,            3407915676
          -4597107266,            3451237288
          -4439188433,            3618779894
          -4542400679,            3462155544
          -4525053204,            3506945665
          -4507879128,            3533326184
          -4495404356,            3553369245
          -4530938573,            3425492242
          -4504529794,            3483754499
          -4394916921,            3602153987
          -4370576795,            3616900561
          -4439059443,            3509700574
          -4425264064,            3450203186
          -4406883582,            3370214046
          -4338220652,            3408669808
          -4332978431,            3458460974
          -4267418385,            3579428992
          -4286454688,            3570070157
          -4346035326,            3516103535
          -4231470178,            3651644741
          -4138495450,            3737470380
          -4134683064,            3711547024
          -4245302654,            3650607813
          -4342850854,            3641528388
          -4320177503,            3729546779
          -4305802559,            3725835647
          -4319163147,            3650024745
          -4380319519,            3517947679
          -4381964133,            3490854523
          -4389823737,            3419565451
          -4430803771,            3380011625
          -4319076637,            3490337212
          -4262975911,            3521463722
          -4264244469,            3496432638
          -4279857605,            3479156556
          -4179778561,            3586686193
          -4182708560,            3597972774
          -4154541090,            3653394370
          -4167303625,            3692854517
          -4277095603,            3571980939
          -4376250069,            3496645220
          -4341113603,            3569402004
          -4364690582,            3582600235
          -4372163237,            3636308052
          -4401737405,            3611961987
          -4428352100,            3577712645
          -4380626496,            3654113586
          -4397705338,            3614809087
          -4464717925,            3455946517
          -4442945213,            3455282481
          -4425048023,            3439769725
          -4448461491,            3345300200
          -4441527343,            3332021231
          -4322203398,            3480178523
          -4296985537,            3501185962
          -4380540292,            3339470229
          -4356207091,            3352963012
          -4357298225,            3322362852
          -4363570853,            3276446262
          -4341529942,            3280924723
          -4363513112,            3251014178
          -4317479557,            3318997850
          -4318293123,            3342517860
          -4329606908,            3375246451
          -4274871484,            3445513960
          -4246098291,            3448896543
          -4309362142,            3325035873
          -4246320786,            3374780415
          -4175660747,            3393828483
          -4069183637,            3385711950
          -3949875648,            3414934322
          -3901553121,            3397733409
          -3890357976,            3441851162
          -3925138927,            3483651034
          -4018905604,            3472765852
          -4096492210,            3465494241
          -4162438403,            3436397485
          -4220505564,            3390573443
          -4212593050,            3422852603
          -4135938161,            3467271019
          -4156810276,            3359643196
          -4123717715,            3319833228
          -4018597149,            3377073029
          -4015427843,            3335274987
          -3931391785,            3409144580
          -3943418742,            3411118493
          -4006999906,            3359192808
          -4067157481,            3352866021
          -4042681063,            3434288600
          -4031391718,            3505899485
          -4005382464,            3559051380
          -3972358070,            3598750610
          -4106704864,            3351982264
          -4146297273,            3311106519
          -4119264164,            3340482671
          -3989151168,            3483948175
          -3914865241,            3440671763
          -3821622959,            3326114735
          -3746461230,            3252801236
          -3790540447,            3165772647
          -3841151718,            3079477651
          -3776783335,            3183506684
          -3754579763,            3267590773
          -3734640772,            3319013227
          -3810434913,            3247493721
          -3846003182,            3183660127
          -3778621521,            3142603524
          -3723526991,            3089803771
          -3652748734,            3082550003
          -3623851456,            3141750493
          -3583102960,            3236816014
          -3657613293,            3105897625
          -3678000661,            3041336063
          -3585596777,            3138346092
          -3600236796,            3152071033
          -3650422134,            3110599888
          -3654523043,            3087610298
          -3628681251,            3001499605
          -3606700144,            2944439519
          -3550040213,            2989803621
          -3553842094,            3013301851
          -3613070351,            2968323523
          -3605250656,            3027815802
          -3628298454,            3034824321
          -3649210698,            3049860016
          -3588401609,            3136134641
          -3593512950,            3157117784
          -3624470359,            3160181676
          -3633320753,            3199097131
          -3684261552,            3190875765
          -3665666712,            3266765129
          -3732536003,            3214466737
          -3757076264,            3146543600
          -3745959592,            3172087488
          -3587950538,            3340936714
          -3663493340,            3269829367
          -3739906579,            3164353742
          -3767300025,            3086974101
          -3777591550,            3068387763
          -3687517741,            3191071478
          -3648764578,            3245086219
          -3586557315,            3261057164
          -3525213836,            3160414385
          -3503664239,            3057898030
          -3552226637,            2819389708
          -3557349976,            2778747463
          -3433194861,            2885186275
          -3407441851,            2931317740
          -3397142035,            2933102322
          -3423752590,            2890975425
          -3449682915,            2827839908
          -3381316593,            2779077112
          -3343474510,            2816440351
          -3172738196,            2991500888
          -3260954479,            2896170869
          -3311951523,            2864775824
          -3292592291,            2841168032
          -3291604193,            2870633125
          -3218498753,            2979790832
          -3188173035,            3051563283
          -3214427086,            3045998282
          -3326670009,            2923865722
          -3388909435,            2892865357
          -3292829369,            3037543064
          -3330800176,            3035072098
          -3408282004,            2953834440
          -3417060435,            2962711400
          -3371975802,            3010369046
          -3371114421,            2963089511
          -3378253614,            2867418311
          -3337280323,            2856088433
          -3294525824,            2806447015
          -3286969170,            2775417126
          -3240852551,            2792891416
          -3264029990,            2752436704
          -3220066440,            2795366383
          -3225101644,            2733263057
          -3171696438,            2654293988
          -3091681748,            2526293345
          -3032828887,            2504195720
          -3018905532,            2489948085
          -3078624480,            2409073931
          -3087938827,            2495631940
          -3037570925,            2647630367
          -3135252152,            2589102306
          -3126792270,            2623195110
          -3095710521,            2655743054
          -3150671876,            2538759989
          -3140516644,            2570162675
          -3062781532,            2649883935
          -2971947789,            2723599161
          -2959077705,            2743834938
          -3009883609,            2712148217
          -3065864948,            2726132222
          -3081497698,            2788216685
          -3098857721,            2825821588
          -3146615764,            2788510359
          -3183497006,            2800491295
          -3165319041,            2839048962
          -3180870269,            2837948743
          -3201985171,            2829163484
          -3195221223,            2858923171
          -3194554411,            2888228011
          -3205082048,            2895209797
          -3218140000,            2896203624
          -3230713157,            2862502822
          -3256741273,            2795077870
          -3284299465,            2719954020
          -3249422613,            2746487771
          -3188011674,            2775800122
          -3218893119,            2621533335
          -3159163043,            2629469785
          -3111399268,            2637146395
          -3136129130,            2543902653
          -3083088342,            2549647624
          -3020563544,            2608056217
          -2986671086,            2642568225
          -2970123613,            2663080638
          -2976253093,            2671594589
          -2997249943,            2677449498
          -2921589062,            2777827374
          -2959567514,            2782389037
          -3049614398,            2744491081
          -3023092328,            2822458386
          -3063466170,            2805254296
          -3125006109,            2740057752
          -3153508631,            2707503003
          -3162621301,            2699736922
          -3139401302,            2746159449
          -3177827625,            2706206945
          -3174971767,            2710566198
          -3156975686,            2713229005
          -3141049168,            2688043101
          -3106716977,            2664902934
          -3108821463,            2572542696
          -3095847455,            2525294585
          -3069396554,            2520414970
          -3000189161,            2567370088
          -2984013759,            2565534749
          -2968849687,            2563439974
          -2918548103,            2614103907
          -2908405263,            2643726885
          -2915210383,            2676105861
          -2955308910,            2616578199
          -2960249004,            2563357584
          -2891867557,            2623503205
          -2778932550,            2745297944
          -2805874769,            2736733150
          -2899360539,            2645094999
          -2898484523,            2689012463
          -2923389776,            2693121539
          -2902852415,            2748557031
          -2955113209,            2713473553
          -2943053081,            2759441068
          -2989819323,            2729943807
          -3037196317,            2647965959
          -3079970154,            2587544784
          -3060958329,            2606103008
          -3043914293,            2615203633
          -3055173068,            2571145503
          -3062075894,            2528376623
          -3030239302,            2534222723
          -2982745820,            2534887351
          -2973852168,            2473562228
          -2969182106,            2425661269
          -2939941899,            2381644376
          -2896163809,            2427415491
          -2843042807,            2467265882
          -2891018427,            2342694349
          -2827316917,            2330721194
          -2826905108,            2321509983
          -2768905641,            2392267473
          -2807124448,            2325361940
          -2814421352,            2331787255
          -2720799079,            2441657752
          -2739406039,            2400418040
          -2771395595,            2335268427
          -2748630362,            2364784615
          -2712849036,            2419850316
          -2665651035,            2474117052
          -2636729887,            2511664925
          -2613329955,            2552317383
          -2647436088,            2565060659
          -2740338552,            2481443838
          -2785448713,            2515632191
          -2724455407,            2631033810
          -2778466754,            2594732316
          -2764714140,            2653670914
          -2783391640,            2635778641
          -2819421260,            2559562999
          -2832948533,            2506377437
          -2768743222,            2497343497
          -2663411114,            2468816094
          -2649357987,            2359527415
          -2671682780,            2283509512
          -2625508407,            2317392209
          -2581804672,            2373842402
          -2555936989,            2422064383
          -2537710288,            2464960346
          -2605820587,            2404547171
          -2590579797,            2450395733
          -2593563606,            2446590403
          -2610876843,            2458077092
          -2560832461,            2553957165
          -2586038006,            2562298285
          -2659090888,            2506205170
          -2645853976,            2560038795
          -2693465065,            2455735574
          -2722821375,            2380551992
          -2576889270,            2526463371
          -2574584682,            2549381272
          -2646722134,            2346688366
          -2652671631,            2344740869
          -2629498036,            2355935005
          -2641105409,            2359899719
          -2636707415,            2371658578
          -2668914345,            2306517897
          -2657884028,            2309791964
          -2662329862,            2295532165
          -2649062393,            2321166657
          -2621786904,            2381736064
          -2595722605,            2408917870
          -2591662752,            2345314847
          -2604225333,            2253485094
          -2573347433,            2237428947
          -2540574587,            2216341695
          -2535780640,            2166714815
          -2492128390,            2187620490
          -2485536994,            2126879252
          -2464324855,            2125577286
          -2406169616,            2181573268
          -2410148060,            2151211203
          -2420129109,            2105938815
          -2373604407,            2147631825
          -2342242269,            2183518682
          -2352078348,            2171397744
          -2363383664,            2122493787
          -2344509746,            2161406552
          -2279914646,            2236658932
          -2277377548,            2263280871
          -2302760831,            2267334540
          -2336691359,            2276292693
          -2340244364,            2327038978
          -2313658632,            2402142497
          -2354669391,            2399619164
          -2398186667,            2391394516
          -2465246424,            2343480780
          -2517964446,            2284776137
          -2541024333,            2266361975
          -2518335416,            2305756670
          -2484529084,            2323435783
          -2500597506,            2273249940
          -2486297608,            2210197245
          -2486415794,            2139895703
          -2461456481,            2129225057
          -2424696660,            2134185305
          -2382132147,            2150873622
          -2289166485,            2200527497
          -2246436848,            2215356890
          -2254043790,            2237997115
          -2318791824,            2229022157
          -2296923327,            2336978193
          -2316422841,            2373162019
          -2399584417,            2284238097
          -2445965837,            2240413491
          -2461686618,            2246223621
          -2372462433,            2357359193
          -2382076191,            2328182675
          -2409640998,            2212335258
          -2422440659,            2131011888
          -2419091115,            2060279440
          -2422749455,            1976531857
          -2416406763,            1980966694
          -2339786801,            2084581997
          -2350177685,            2083983852
          -2372849658,            1999693100
          -2369634605,            1975764028
          -2334163955,            1959693120
          -2352171519,            1946311972
          -2306774869,            1993886070
          -2347486568,            1918934213
          -2331547321,            1959389970
          -2324979039,            1993220968
          -2337688889,            1995004298
          -2332149503,            2036913275
          -2269723375,            2079083792
          -2280633504,            2001109536
          -2229810719,            2019056936
          -2106169110,            2067250441
          -2007009992,            2089119604
          -2063239447,            2029692221
          -2116552135,            2089351782
          -2124204132,            2165763951
          -2191195456,            2097578679
          -2219874271,            2083309634
          -2165918295,            2152298311
          -2176135005,            2164913480
          -2198350094,            2172117740
          -2204694347,            2165822515
          -2248589429,            2098973579
          -2219774635,            2145180023
          -2207138449,            2165740391
          -2246274100,            2135500101
          -2252583759,            2138806154
          -2245506041,            2123680084
          -2265453232,            2045083774
          -2258502335,            2020683125
          -2207453619,            2027775200
          -2196307460,            1948823200
          -2201304102,            1833583886
          -2121614674,            1830320583
          -2112072822,            1764381239
          -2085120042,            1824257287
          -2087919638,            1858032857
          -2082206369,            1904552462
          -2101695065,            1878544258
          -2131279448,            1811076682
          -2093988462,            1799985030
          -2077396649,            1787070917
          -2081778747,            1752810166
          -2071295123,            1791305854
          -2073816787,            1839524877
          -2098503080,            1853645846
          -2127158939,            1880058518
          -2115835435,            1885666764
          -2161029741,            1847314093
          -2098328879,            1882661955
          -2103802745,            1818085910
          -2087282742,            1733736687
          -2064500940,            1718452346
          -2000409528,            1822653054
          -2019771540,            1886944434
          -2030193571,            1932491176
          -2048083110,            1947176016
          -2089491515,            1904316415
          -2089672289,            1911178459
          -2074800203,            1910424765
          -2072198514,            1896892365
          -2046198706,            1898615769
          -2031658347,            1886489271
          -1952739251,            1920075519
          -1909914702,            1901891873
          -1900176519,            1879442040
          -1889064643,            1886516216
          -1848447579,            1901847829
          -1841432619,            1882709214
          -1794489127,            1877301607
          -1783899910,            1850188392
          -1763280646,            1862645376
          -1786107950,            1838632509
          -1790663748,            1857117656
          -1796322503,            1879575065
          -1791606103,            1905436292
          -1800445375,            1906987079
          -1808669197,            1892216397
          -1802635632,            1928373528
          -1781635768,            1968757706
          -1795598167,            1981149271
          -1788422768,            2021067316
          -1830304182,            2010114087
          -1843019016,            2036865326
          -1860992346,            2061464045
          -1859988983,            2109371102
          -1881299442,            2123055987
          -1939440988,            2084493013
          -1962836477,            2073478884
          -1984025741,            2034542772
          -2023871030,            1935011315
          -2014626481,            1899255294
          -2014828256,            1866119550
          -1956108717,            1903824149
          -1899457389,            1893795520
          -1904033714,            1795140355
          -1882317967,            1771335535
          -1830778665,            1807477468
          -1797337889,            1834282386
          -1773273218,            1858356842
          -1741137999,            1899282457
          -1758699749,            1905493990
          -1737418252,            1968564687
          -1768669345,            1959134088
          -1784556308,            1917707879
          -1771783970,            1954880846
          -1737698632,            1996366320
          -1737043482,            2015730389
          -1772223380,            2016292870
          -1784759362,            2051413599
          -1809546730,            2075705370
          -1809046789,            2105070746
          -1860320990,            2031509740
          -1914640874,            1923129774
          -1943508765,            1864981587
          -1928838612,            1893249721
          -1910810833,            1913294716
          -1920042566,            1869202310
          -1919938927,            1777726154
          -1920678617,            1732760967
          -1883232928,            1728515093
          -1901238525,            1732888664
          -1862350027,            1816350686
          -1836112830,            1860736822
          -1876592917,            1804316381
          -1873240176,            1804800882
          -1816753453,            1820110088
          -1811056514,            1762560072
          -1727330446,            1784340201
          -1671900167,            1801867510
          -1637210180,            1803972683
          -1689099558,            1749376861
          -1625885293,            1817303972
          -1616741323,            1813418093
          -1604737121,            1859304261
          -1582732440,            1874339410
          -1615109919,            1856298109
          -1529327459,            1952466202
          -1549257209,            1948767789
          -1584079868,            1829841060
          -1555761580,            1779957623
          -1467187551,            1775916320
          -1381791818,            1829549310
          -1439536127,            1744016276
          -1461645245,            1771287201
          -1434397484,            1788034853
          -1466480754,            1752971690
          -1446167189,            1792221737
          -1442569600,            1814683903
          -1461639309,            1791477057
          -1503988797,            1759642128
          -1475465644,            1782533386
          -1451962160,            1759059990
          -1442122506,            1707193353
          -1396615498,            1746335710
          -1334162559,            1801365404
          -1345953329,            1805873634
          -1378296701,            1821848665
          -1394424918,            1855345245
          -1466597155,            1798494039
          -1554663811,            1682912241
          -1586667359,            1653560676
          -1600830509,            1628389223
          -1622953779,            1631996342
          -1587420305,            1700883058
          -1598465447,            1699669248
          -1641067203,            1649085536
          -1626453788,            1651347328
          -1667709711,            1608977937
          -1645703537,            1639453529
          -1653607939,            1646116325
          -1629659633,            1679759155
          -1620093770,            1668380933
          -1636144883,            1596069731
          -1638960473,            1566516568
          -1617704365,            1566276052
          -1602895178,            1575911155
          -1561209422,            1583343265
          -1561507795,            1532160322
          -1549933402,            1493118926
          -1523884616,            1470541084
          -1515570147,            1464866489
          -1505177823,            1487503120
          -1470172594,            1511264333
          -1435722031,            1513037259
          -1384639161,            1528847798
          -1374054504,            1525171565
          -1362453269,            1535449086
          -1370745477,            1526557186
          -1337127225,            1557071569
          -1325102693,            1579422159
          -1307489391,            1606177836
          -1307635070,            1596936769
          -1303909531,            1561562336
          -1270886209,            1523192171
          -1258027938,            1541241526
          -1218576716,            1588445191
          -1221784506,            1583094712
          -1270692344,            1562790449
          -1264277394,            1629795642
          -1273280369,            1667026298
          -1318928936,            1653303882
          -1362898378,            1651026585
          -1369644498,            1706696063
          -1370253969,            1738692302
          -1409393901,            1700325069
          -1451293803,            1677329996
          -1460458070,            1674528523
          -1471850764,            1671733701
          -1456160398,            1712579387
          -1409914826,            1751605407
          -1423777579,            1669971932
          -1437360335,            1561804503
          -1411963611,            1538573050
          -1370641943,            1517571366
          -1318356054,            1501586334
          -1288449939,            1510792327
          -1241375806,            1567128178
          -1242190787,            1588778789
          -1282778331,            1537915272
          -1262319506,            1523603078
          -1189446521,            1582378839
          -1127814356,            1638322343
          -1159996752,            1621003106
          -1230375149,            1599651852
          -1283195854,            1588002105
          -1300247085,            1614217051
          -1316694964,            1644087257
          -1307010632,            1666625940
          -1336699449,            1577088241
          -1390490379,            1457939073
          -1387843630,            1445095202
          -1379618162,            1454630237
          -1372342051,            1462999611
          -1329255401,            1450911215
          -1300276520,            1397013915
          -1256343507,            1349845631
          -1235008272,            1311312702
          -1192531962,            1330512483
          -1149555721,            1339301892
          -1171199666,            1323473973
          -1105833934,            1385072882
          -1097374866,            1393892997
          -1113664871,            1382344844
          -1102413300,            1416962268
          -1089137142,            1439773339
          -1086213069,            1457395530
          -1073761795,            1503634029
          -1077233253,            1548897159
          -1117325778,            1541161454
          -1160254412,            1486196806
          -1167407330,            1487446346
          -1113871900,            1541955320
          -1123582019,            1544548438
          -1150130701,            1538513055
          -1155575984,            1559404454
          -1177043115,            1555126465
          -1210203805,            1523831532
          -1218481788,            1512288580
          -1195490340,            1506085759
          -1185156119,            1484471169
          -1165120500,            1484400059
          -1128439649,            1505266907
          -1114086977,            1500438947
          -1100231741,            1514688798
          -1087122768,            1520125033
          -1095163540,            1539247350
          -1081492993,            1581977646
          -1099649197,            1584346117
          -1128711136,            1554767040
          -1189220287,            1417663121
          -1229545251,            1365066461
          -1235309323,            1372246335
          -1218800047,            1401746315
          -1212077238,            1383745166
          -1163736086,            1356947625
          -1119508999,            1297183678
          -1098698036,            1201841462
          -1065405933,            1172864556
          -1042675311,            1170777010
          -1012715705,            1211307231
           -991793096,            1240631682
           -932417317,            1273422440
           -907226860,            1311337645
           -935681518,            1334395602
          -1000365081,            1368313595
           -988784965,            1441172493
          -1054902269,            1426616662
          -1080019202,            1436175353
          -1129349258,            1397006639
          -1139079608,            1381873600
          -1144924266,            1373222194
          -1134109335,            1338965156
          -1133038828,            1360907838
          -1054696932,            1394883839
          -1044131607,            1373123393
          -1000382013,            1383559115
           -965945598,            1348522648
           -930617761,            1363141764
           -869070404,            1393517100
           -856897412,            1406481763
           -879070634,            1402791346
           -934825606,            1360934057
           -949611935,            1412119752
           -942870876,            1442283586
          -1006384107,            1397382827
          -1020482333,            1403827408
          -1053377463,            1380185346
          -1060324364,            1376351370
          -1086593862,            1341552895
          -1101912029,            1323323224
          -1107036116,            1299955318
          -1103471721,            1284382769
          -1080480174,            1308709586
          -1040252316,            1333463983
          -1025813407,            1349602189
           -995901567,            1369492205
           -984101426,            1357808559
           -961160462,            1360982138
           -922816549,            1394295494
           -896522930,            1410168585
           -923607616,            1376802252
           -935340360,            1365693008
           -936197976,            1359369178
           -906043277,            1375694208
           -891052117,            1395954078
           -865116465,            1431821704
           -902291521,            1424107359
           -921672578,            1430498386
           -942349639,            1386035434
           -982013735,            1278221154
          -1006742510,            1225551875
          -1008395701,            1195435057
          -1008337986,            1191303743
           -970194185,            1176800730
           -975095961,            1096180134
           -975183501,            1070240280
           -973300963,            1048460713
           -982422145,            1063397624
           -976949876,            1067891301
           -984663714,            1073592729
           -962779895,            1090532551
           -948296673,            1089081569
           -909135461,            1088686137
           -882852508,            1093420994
           -827841227,            1120749762
           -799328153,            1142538342
           -787229750,            1163433794
           -791108024,            1175287023
           -779781760,            1201719593
           -748085075,            1252284079
           -732122919,            1287756340
           -765924461,            1290925553
           -832270074,            1266341550
           -861852532,            1296979438
           -850187204,            1341874819
           -866642308,            1329536677
           -910356966,            1288802078
           -926844204,            1311667520
           -926317590,            1314624292
           -964032225,            1273850761
           -980050115,            1255346634
           -998013910,            1233105245
          -1007810290,            1214336479
          -1009986616,            1204995117
          -1002512587,            1203140529
           -996096349,            1188660023
           -959451094,            1164653982
           -943793341,            1114939156
           -890213628,            1105753003
           -842940490,            1083309440
           -834891042,            1049114144
           -799879665,            1052847174
           -789767888,            1027524173
           -798482416,             992999373
           -807632688,             982063387
           -842210491,             982821059
           -844434994,            1032150610
           -837367611,            1045792139
           -837097208,            1030204130
           -821415428,            1037500875
           -792767234,            1056792389
           -752193201,            1090274757
           -711879992,            1130851082
           -705665884,            1166871361
           -736554669,            1198863438
           -779442012,            1226446535
           -796033531,            1279538684
           -805473363,            1308707152
           -848286971,            1270691566
           -890697829,            1225609604
           -912534587,            1197659464
           -932924040,            1177968044
           -937967005,            1178568490
           -939925627,            1176945383
           -933771902,            1151248020
           -922168889,            1127420497
           -890860537,            1097650898
           -871777982,            1046749793
           -821190320,            1059758273
           -763329158,            1071180730
           -742973704,            1071003013
           -724934615,            1101492411
           -702503483,            1120843046
           -690939937,            1150577412
           -648378661,            1208417528
           -662534318,            1217863125
           -714918886,            1200340737
           -732953051,            1222677457
           -726895606,            1264603657
           -739200335,            1275135462
           -772208962,            1271247082
           -798904466,            1281532438
           -813183381,            1292502184
           -833298084,            1239345269
           -854344160,            1119738500
           -879023334,            1094082402
           -849752998,            1133565552
           -831812173,            1149900239
           -851437650,            1107035798
           -860667278,            1081582685
           -837776309,            1110273532
           -818436698,            1126545063
           -821967891,            1145041064
           -801633452,            1190406465
           -811236791,            1185510133
           -830788189,            1146446331
           -829846143,            1098126771
           -834820614,            1083555084
           -807203294,            1118865347
           -801100718,            1146874830
           -808947195,            1145526608
           -803873045,            1111861553
           -792916444,            1064505117
           -757288629,            1035815459
           -710920201,            1021262009
           -670251101,            1019052790
           -633105593,            1018797147
           -607596341,            1025595260
           -569004538,            1045056955
           -566180744,            1052983792
           -555984916,            1077428729
           -548772521,            1105241325
           -557031263,            1148299570
           -567566611,            1195086406
           -629352902,            1184883205
           -680300515,            1191032353
           -714751044,            1173685476
           -759329012,            1155721072
           -753846029,            1153774224
           -743350243,            1107042312
           -707026004,            1051879783
           -668451898,            1019623898
           -620504020,             998143143
           -598184177,             982856796
           -538770481,            1004767575
           -525976303,            1003517195
           -536242984,            1010834445
           -500481142,            1049525978
           -491601423,            1077690719
           -515842823,            1066863678
           -507452465,            1093260285
           -491677128,            1089050749
           -478398130,            1070821502
           -465433479,            1076284946
           -430800149,            1107645972
           -459867744,            1083077000
           -487746588,            1078117903
           -488732896,            1091405294
           -479166270,            1104078833
           -500629749,            1088206433
           -496283143,            1105394580
           -495203948,            1137917718
           -514571855,            1147151341
           -558702738,            1134656602
           -560842976,            1171154431
           -580409675,            1177777143
           -626273124,            1166596677
           -650433746,            1168348349
           -673546474,            1137627913
           -696691700,            1084086976
           -688586016,            1052315525
           -643913581,            1024408024
           -586465173,            1009034978
           -556312729,            1000945885
           -533543866,            1018260306
           -516502766,            1030066466
           -502607470,            1053887014
           -478191879,            1101386848
           -489984804,            1120542351
           -509439935,            1104860395
           -511231850,            1090993916
           -498126608,            1132005345
           -500255376,            1161791196
           -538110132,            1149716707
           -568242788,            1140766211
           -599437998,            1131291947
           -618111344,            1125197475
           -647014863,            1109013785
           -665076264,            1079520431
           -676581092,            1038271096
           -697868459,            1011270935
           -677988708,            1025196840
           -667754384,            1011922227
           -643321622,             978975935
           -606776661,             956332445
           -561416368,             955594154
           -521515898,             981793513
           -477076932,            1042914444
           -479616899,            1089572593
           -530706408,            1074317857
           -568163984,            1079450334
           -541521758,            1138607089
           -569857738,            1137096010
           -579114172,            1045384738
           -555740484,             985139163
           -515492053,             956475081
           -484840105,             930281773
           -447488291,             907098941
           -427994566,             884987563
           -402766073,             900802549
           -389846628,             922278986
           -391216859,             942489011
           -394513477,             963758461
           -383436405,            1011596613
           -380294183,            1068562840
           -428840915,            1094560393
           -473824902,            1110734566
           -525894970,            1085392811
           -559227870,            1032003285
           -566368031,            1002168770
           -561178359,            1000843829
           -536247666,            1027044865
           -527342122,            1057196293
           -538004522,            1070333824
           -563186518,            1070084552
           -577467421,            1070898220
           -605054060,            1049321402
           -593462608,            1010466128
           -572543516,             933344791
           -560893454,             884753654
           -522197820,             875820709
           -500155868,             854009373
           -475792438,             832421784
           -443156386,             818863418
           -422989142,             790123127
           -409698788,             760472521
           -409647727,             729786751
           -428848670,             699580703
           -462551360,             695174202
           -485629771,             757355078
           -482857162,             859081794
           -513357690,             912051859
           -551095413,             913974211
           -558937866,             918787023
           -569397493,             909740768
           -576994046,             899902585
           -566494916,             891734509
           -572718532,             879730808
           -559863846,             909783782
           -543074686,             947949417
           -554966713,             952000015
           -565034370,             947923293
           -565200383,             947897827
           -573759157,             942192309
           -576792683,             950251632
           -570829588,             946919183
           -558737581,             897203571
           -555688851,             854994703
           -533829783,             835263086
           -540625781,             845714787
           -532985111,             869406846
           -533189776,             872114893
           -512998953,             866375123
           -474751589,             853578092
           -424144201,             860063808
           -393149806,             894724964
           -360653169,             941019132
           -377629450,             971121489
           -375550845,            1009851820
           -398256498,            1044812523
           -430814397,            1054002303
           -474159718,            1035680036
           -489712821,            1005278030
           -495945380,             992923838
           -490026491,             989047526
           -471156046,             999036935
           -443302446,            1012150810
           -416536660,            1017067680
           -395841145,            1024531426
           -377530552,            1032234562
           -375507301,            1055876571
           -383852614,            1066670007
           -407664086,            1056666181
           -413578397,            1053004893
           -410799962,            1038244310
           -397031203,            1040468200
           -387859426,            1050485657
           -395344225,            1051809795
           -402236004,            1070715876
           -420438901,            1064606977
           -461345038,            1019270594
           -457305383,            1013489834
           -464834454,            1008698848
           -467076427,            1008710565
           -492013808,             987597582
           -508841794,             982736854
           -515437084,             946692134
           -519510739,             893209787
           -499297074,             851084763
           -492568971,             831411095
           -481675560,             810272591
           -489950190,             808765183
           -481590375,             808310952
           -493457345,             806296573
           -502267656,             815426819
           -483529738,             856125489
           -495246949,             875936645
           -492433753,             871888595
           -487478729,             837479415
           -485340667,             807292758
           -479570764,             812626935
           -468168628,             832712367
           -482340388,             838648746
           -491947267,             849596609
           -481161185,             868557270
           -473042083,             874335999
           -474964947,             879336200
           -443944886,             903013357
           -424322998,             930307137
           -401414591,             973223921
           -386346770,            1011948032
           -409916268,            1008724000
           -429536567,             974464170
           -416182492,             929140716
           -383832518,             884840315
           -337558682,             861640732
           -287329121,             861311008
           -257392326,             872946924
           -237448410,             893075985
           -214349833,             909500359
           -219643957,             922033146
           -208298941,             953883980
           -219976955,             977859722
           -248045682,             994487084
           -277450202,            1022696280
           -317890396,            1031901143
           -364210994,            1014648955
           -393004128,             975047180
           -416672202,             924692281
           -386809418,             867626227
           -388940836,             806903612
           -374830767,             766490642
           -393153337,             730600062
           -403834976,             741726474
           -412906942,             764694985
           -418609438,             820459378
           -405624768,             860440971
           -434770635,             859531148
           -434538105,             846895999
           -431536427,             835336349
           -424802013,             820798348
           -410082174,             809269619
           -381148308,             802779404
           -353044090,             788044098
           -310212578,             772427979
           -258896567,             744850926
           -246384806,             694611727
           -265054047,             690933346
           -261769413,             716985677
           -288458852,             701925366
           -287497264,             689946607
           -288701319,             693277880
           -281098167,             714413311
           -287586568,             719566146
           -279761801,             724381686
           -257287576,             722230477
           -250865968,             720164243
           -231544386,             733276913
           -206291763,             758395011
           -161999880,             792734591
           -151798476,             844242670
           -163497384,             910331469
           -194094980,             953701183
           -249696352,             920279324
           -297511467,             851417322
           -329766764,             829647966
           -361660195,             825229597
           -356677668,             842360090
           -368331882,             837748880
           -387132115,             849935480
           -363751430,             869353988
           -368273538,             896984672
           -335454527,             923595145
           -314307336,             944279921
           -300107680,             961369163
           -292362871,             975650083
           -308011502,             987649831
           -316959408,             977483349
           -333004639,             916216476
           -360776772,             872467304
           -363699456,             853056221
           -361912782,             845482980
           -369018260,             835629651
           -380009134,             838392409
           -359300133,             852409880
           -361708537,             845817407
           -374930545,             844831573
           -352912408,             866448468
           -319102746,             881765479
           -269309223,             909569086
           -227437164,             929335103
           -231374246,             936083808
           -223113860,             952216058
           -225775460,             973778610
           -239574976,             978206894
           -277599054,             940444426
           -300453197,             895740219
           -317439536,             861115999
           -322369204,             845056683
           -326160014,             845245522
           -315268133,             861957543
           -295334324,             882824506
           -290080262,             889217554
           -272471787,             896729320
           -230350246,             908660736
           -185595671,             892931665
           -146241929,             872825379
           -110894040,             855991651
            -96938908,             835834996
            -72347549,             829519210
            -50709839,             841590904
            -44788346,             859768755
            -44265023,             871768692
            -59421146,             877178379
            -69202357,             898555767
            -73683984,             929219770
            -77235289,             945107790
           -128548086,             915377692
           -187685614,             923404924
           -198808824,             940519628
           -207668321,             914424024
           -206128729,             853553392
           -202880559,             797625990
           -182254068,             756142950
           -180900748,             708370926
           -175552777,             678295769
           -195237288,             654867368
           -193373499,             647967966
           -204195728,             637586543
           -208547830,             630106216
           -233965836,             616643681
           -268599734,             627619789
           -232979175,             664144515
           -204276833,             659083206
           -149752763,             654627953
            -90500987,             663754110
            -74074663,             675445056
            -45012122,             681283572
            -33141568,             681586652
            -28019341,             670347787
            -34324495,             634470171
            -75507266,             615572234
           -118520437,             617298048
           -149221005,             642408979
           -163589446,             655590843
           -187498133,             656360463
           -195965139,             668986088
           -181191777,             683146010
           -168428948,             670637539
           -160376394,             658864138
           -116596920,             653162179
           -108091666,             625173179
           -124683954,             613175883
           -116882188,             631619448
           -112074148,             630096160
           -114632510,             625174768
            -96364730,             618997171
           -118638599,             604286926
           -128038482,             635980147
           -127880598,             643017933
           -150898297,             631731275
           -151388814,             636743579
           -133677124,             642391623
           -111780939,             636639757
            -97034218,             643207889
            -66109551,             648237824
            -49692764,             654074438
            -32641554,             657604724
            -34448626,             672046943
              5593894,             679577209
              9643911,             683746127
             18179714,             718785748
             47922748,             739913718
             45543157,             748992469
             56593461,             744220093
             63846886,             740358799
             59371227,             739438338
             55280691,             729849302
             51488122,             714210873
             48450910,             691193498
             36354858,             678470489
             31633900,             683826442
             43031750,             680830497
             30924275,             679583253
             41906808,             695197740
             54323531,             709385338
             51256557,             727314711
             48682549,             743181465
             60878004,             751522385
             51439134,             758951864
             87793607,             784877107
             84659608,             796845242
             47304750,             808377179
             29160807,             833279293
             10274956,             855726641
              2514727,             882182654
            -21885135,             900254734
            -63653155,             896445552
            -97009316,             871162704
           -127979816,             840694313
           -150624126,             831828644
           -146903456,             842397917
           -154948919,             850688690
           -152685924,             864547767
           -149166111,             861461669
           -165932965,             840815866
           -174325160,             833916706
           -164543833,             832592374
           -163670808,             841714432
           -149505623,             849016005
           -142412789,             855045669
           -136416249,             866762972
           -137802545,             863721802
           -155321648,             844530804
           -166147728,             840474322
           -167336812,             843062816
           -175504581,             834438582
           -185552479,             804959228
           -190318550,             768653332
           -196242800,             755681301
           -192902284,             751344427
           -201352924,             758683275
           -197501382,             775403356
           -185221557,             781495295
           -197173673,             777450025
           -195416270,             765592856
           -183385362,             733638662
           -148984435,             697109482
            -96169803,             678754533
            -35671023,             675401932
             -1755731,             685730281
             30999611,             699768761
             44030613,             713517512
             61130135,             749040069
             72537703,             784806527
             47513911,             800354330
             72881443,             806778550
            103257196,             770460041
            113737072,             748374876
            127095430,             751781128
            114725515,             765352167
             85573197,             783938656
             64864230,             799689242
             56266410,             812289319
             48232964,             816773271
             57841274,             826756876
             55107721,             825242725
             35094466,             837314477
             31010255,             858536213
             10308327,             859621853
            -21221226,             850619240
            -45851914,             853430819
            -54820084,             856911188
            -80438709,             836418482
           -122198371,             814713976
           -133531975,             802670203
           -147243472,             773486066
           -163273374,             761418702
           -160218865,             758309172
           -160711010,             757235690
           -169707888,             752285686
           -170412313,             731364332
           -164828296,             693467857
           -145326628,             654707896
           -137476177,             628835338
           -117336730,             607763160
           -110540463,             595111191
            -77906335,             581320448
            -56421416,             576254141
            -13317336,             586907201
             20286967,             600121304
             43385595,             622823216
             70458620,             646563312
             81627530,             660746111
             86472792,             674852369
            104779533,             687367720
            106132630,             693787158
            103117028,             702755547
            111245660,             727129204
            102385343,             751410180
             63970738,             762764846
             52242432,             790956143
             40875999,             818749543
              -448382,             830311169
            -46984652,             789530221
            -93293000,             750529696
           -107092953,             718946790
           -112984754,             676847308
           -109197234,             643215044
