                    0,                     0
                    0,                     0
             25125558,               8332236
             68790068,              28204430
             11473170,             166891813
             31670458,             393377521
            134401889,             305607018
            111530134,             338098745
             55238718,             445028983
             40116533,             512842617
           -119068355,             670385059
            182437017,             646814600
            376688638,             694513121
            646998151,             809069196
            708226159,            1401628640
           1436188576,            1038404674
           1486400146,             917911179
           1294093568,             972491019
           1210771406,             801993509
            994581717,             836956137
            844894782,             773996580
           1009969198,             893184339
           1193932877,             781429496
           1180260179,             464755901
           1079684532,             599490245
            952886310,             377764950
            778944053,             274849159
            773663353,             127626586
            741664207,             -95648556
            548195990,            -460986437
            515574654,            -456689731
            433076306,            -281322026
            333160262,            -349966138
            494480719,            -393543407
            439156393,            -224827079
            508492284,              47362045
            505042716,              43788456
            335440937,              37201970
            335246666,              56847302
            310377390,             -38890025
            320528610,            -145027104
            -51707821,               4570926
           -668785955,            -210026628
           -884073235,            -490856268
           -697294057,             -74925319
           -771911413,            -282842553
           -708672444,            -271648283
           -618521885,            -109974108
           -432574334,            -232628833
           -358635049,            -191238606
           -241839050,            -206344223
           -275169335,              45732320
           -205391790,              15163027
           -190163895,             163914957
           -447538689,             348011566
           -382720419,             408257381
           -497540996,             358698032
           -344754123,             334024749
           -128399768,             470282432
            451349694,             746224878
            587131128,             740166468
            549532701,             840733025
            564483745,            1050858200
            875690449,             971903964
            940220062,             891256848
           1006196623,            1167280011
            333540736,             159781875
            233470413,             192275881
            158037701,             209456787
             -8374735,             154593249
            -96481915,             217221370
           -214539197,             215992936
           -336880163,             349451553
           -362278153,             382362192
           -327935885,             526834904
           -194654038,             727448734
           -364488613,             786725031
           -300151313,             818180206
           -307577215,             923915803
           -207112380,             965548828
           -357683281,            1020659152
           -290217244,            1338875012
           -233785800,            1328841822
           -169872550,            1148927139
            -58361604,             961507801
            -91940953,             790891316
           -166247297,             900924617
             92972952,             986024377
             91075951,            1028862954
            158712788,            1052859213
            106780624,            1132633653
              -984169,            1139330969
            182408626,            1171164052
            653330680,            1150460354
            625286959,            1194683694
            503461178,            1221195487
            191218890,            1367502350
            557281290,            1169905580
            289175011,            1439152409
            216447427,            1454839424
            258360341,            1622521920
            129244164,            1883019481
            148137855,            1892976984
             52254595,            2013925402
            -64690574,            1862035502
            126769155,            1966767491
            185022429,            1935800274
             75497568,            1814605325
            -58237424,            1884454798
           -199230438,            1922948448
           -279750565,            1696881256
           -243860297,            1697869911
           -379972301,            1692677260
           -510976755,            1396918563
           -618152450,            1199037743
           -606081222,            1079235442
           -694024382,            1057880069
           -839435207,            1195965569
           -890954082,            1292978187
           -664623795,            1207634358
           -363154250,             976938028
           -466973171,             808774787
           -323049756,             694358255
           -136871769,             588569115
            132225672,             491803939
            208268421,             425971154
            -32267659,             443789951
            257737191,             339958466
            751127463,             598257869
            719167995,             615380766
            776257805,             746100821
            774332684,             429794874
            811761861,             423211097
            891930701,             314569968
            740965022,             417765400
            782431468,             416199206
            658549317,             552760987
            331352526,            -172532334
            298929733,            -169565326
            365144781,            -132970781
            195320574,            -189341353
            238713604,            -106235296
            395622059,             -14200408
            334367919,              17872835
            367513556,             119462706
            372821351,             201124536
            230101074,             106637627
            315056173,             -13799878
            349974813,            -266046369
            903533641,           -1016329095
            931241170,           -1021385014
            833616021,            -884298643
            987029650,            -978305346
           1037634567,            -753103210
            990209063,            -737260638
            924059870,            -850951665
           1143037506,            -851278001
           1037548945,            -933155488
            940614968,           -1046516650
            759913300,           -1226213435
           1024774457,           -1504078578
            894316408,           -1590884746
            813964134,           -1701585672
            872110744,           -1871350076
            826960722,           -1926176184
            970780495,           -1909324385
            978004933,           -2139457497
           1054197247,           -2148117334
            983013581,           -2228405220
           1134154538,           -2203230156
           1071143199,           -2110184342
            871725706,           -2092193127
            650577596,           -1663029344
            710659576,           -1830959018
            834900104,           -1910362711
            705039605,           -1848668759
            693857456,           -1737627885
            730028993,           -1806479219
            627101976,           -1985318144
            588904693,           -1952565972
            692402045,           -1960561523
            707784643,           -1938720224
            562691194,           -1783358434
            523230249,           -1800593183
            672174371,           -1690249083
            527226985,           -1526018101
            606233993,           -1142737848
            400078602,           -1085148289
            174210098,           -1142767014
            215953469,            -989795125
            199994639,           -1077285836
            148261517,           -1224551023
             37572990,           -1153392608
             27362967,           -1271337143
           -104594295,           -1090367897
           -120812808,            -907143419
           -316509834,            -903949365
           -375462669,            -836204560
           -506352406,            -796304583
           -511449625,            -980324192
           -468058802,            -797482726
           -542352783,            -899048037
           -330594812,            -952392921
           -144509424,           -1015619401
           -174543092,           -1166122760
           -245800082,           -1259133250
           -356379652,           -1287235863
           -318699628,           -1456543295
           -421049847,           -1369910147
           -262403948,           -1289467555
           -266234630,           -1161490983
           -292294356,           -1238203820
           -207876203,           -1318203027
           -329474087,           -1339237284
           -551959593,           -1428168010
           -525947498,           -1403425950
           -586790074,           -1181014890
           -754306949,           -1170803227
           -854407206,           -1037833675
           -795318467,           -1142210123
           -902969661,            -912929522
           -643223707,            -746731313
           -854142709,            -787457979
           -875977917,            -624375839
           -862521579,            -704150237
          -1011950429,            -643827943
           -844319390,            -382983286
           -741097495,             -24812910
           -500876936,            -293124519
           -811428854,            -301761138
           -811906075,            -163426831
          -1031466642,            -310869009
          -1051726666,            -269608786
          -1215885586,            -232606054
           -907841906,             -91374817
           -829003637,             -70414833
           -649504927,              25430764
           -714216712,             -34183351
           -883229555,             100990119
          -1057450572,              46900792
           -867848408,             232556122
           -774013982,             496256629
           -847783774,             727941133
           -494943982,             567589293
           -527882987,             635872926
           -718030712,             616628268
           -829574663,             563653612
           -894769671,             791034770
           -887239563,             810752776
           -814426378,             653180648
           -855219032,             629396535
          -1050079669,             541150833
           -900690250,             433535511
           -511677578,             356857115
           -563447669,             359665608
           -683964980,             425139635
           -590053806,             254911943
           -729874445,             152191250
           -671046192,             216282127
           -514348641,             259193798
           -496466041,             179736226
           -606686464,             201494570
           -584152293,              58173536
           -557508992,            -267258246
           -511260135,            -197956464
           -400671513,            -369120874
           -112150175,            -220863725
            -27395860,            -402934619
             11136496,            -394609222
            -69579616,            -296291980
           -151601162,            -365547408
           -132607819,            -239768950
            -14003010,            -333700404
           -139663368,            -238608667
           -290040990,            -202520764
           -322420303,            -414104483
           -269636464,            -147105580
           -260449136,            -211872946
           -131379173,            -115214467
           -195408803,            -140088612
           -130405122,            -281924219
            -34736562,            -338741877
            -65170888,            -389150134
            -35727346,            -262758173
             99125867,            -455174026
             68838704,            -524890773
            111488740,            -555465602
            -13040366,            -415817999
            179962178,            -366663356
            201595252,            -104438660
           -131461734,             107467354
            -48833057,            -319786058
            -94908199,            -291531803
           -235615153,            -274962858
           -319872001,             -80390394
           -180701241,             252500299
            -84197611,              62363552
           -109419477,             225801217
             37669585,             145065752
            222718370,             -23324504
            171118172,              89912753
             34484661,             -51979657
            276397910,             162768401
            267871280,             183074875
            285053661,              93865977
            231457123,             -75506813
             61496146,            -327337907
             14992444,            -219006937
           -116901848,            -232655271
           -114614697,            -459741917
            189035931,            -609316755
            100027637,            -766655498
             77712748,            -690202212
             -3747826,            -653504720
            -96365238,            -764947459
           -506602014,            -953772726
           -707237383,           -1179933530
           -547300565,           -1002649499
           -144687529,           -1108919326
           -117726549,           -1140345090
           -132739582,            -889278744
           -146894048,            -820078533
            -91857340,            -721803516
            -86161980,            -509854269
           -127229320,            -629344468
            -47996214,            -482244447
           -108715107,            -602386374
             12312513,            -405645390
            264288597,            -444796237
            339790373,            -494167103
            322480641,            -586685561
            472688222,            -523959270
            260805575,            -784194396
            274022800,            -820131630
             10106048,            -743627423
           -127591701,            -938570275
           -107618548,           -1034090868
             48968326,           -1165735843
           -188474376,           -1201155597
             71469510,            -965858194
            -92455548,            -940600059
            -59639437,            -591394164
            -55908342,            -688388073
           -296130980,            -810620169
             97385988,            -803338891
             14811388,            -933706078
           -136508285,           -1062202826
            122387217,            -957770929
            294868269,           -1121778408
            345046976,           -1173526000
            517027452,           -1284240674
            206678550,            -713007158
            209424951,            -682725998
             81137023,            -689008454
             17761677,            -614149627
            187335979,            -600544179
            285650346,            -888889416
            799773946,            -948576411
            918106513,            -890397860
            996266316,            -853060974
           1079742532,            -730553667
           1470621146,            -686955562
           1433432344,            -589315239
           1360796911,            -698853598
           1447301507,            -776453588
           1350248532,            -647174446
           1462947922,            -459330281
           1163626967,            -518818093
           1212470008,            -633504244
           1264983123,            -345310111
           1213774281,            -355519836
           1322690696,            -251827799
           1347716547,            -329512622
           1475161779,            -329051582
           1259041630,            -409950305
           1141041268,            -582342270
           1091846006,            -481048335
           1032097863,            -566137381
            970081490,            -672714425
            939783684,            -565906841
           1030702981,            -419955296
            767755086,            -251745871
            875780552,            -185831774
           1127167354,            -353934952
           1064967153,            -195696785
           1162029716,             -58039933
           1172651592,              64874146
           1042242145,             199177661
           1168059362,             266528477
           1257871791,              35073753
           1324478345,              34895240
           1165509315,              18705264
           1278798987,               -849794
           1087186068,             -46624118
           1147306359,              42433392
           1102793212,            -129995081
           1154045720,             145188417
           1648108486,             647524227
           1733652348,             274516488
           1682515446,            -170466165
           1984499635,            -262743340
           1929912160,            -217196871
           1857903745,             -82813955
           2024776596,             -29063684
           2368592316,             -86104279
           2095855531,             210819894
           2404195896,             118130500
           2493929950,             -72772978
           2661986921,               1279824
           2490520634,             -33517366
           2397035175,             210054148
           2523188498,             141763554
           2492317055,             195492572
           2419503249,             289556831
           2455047937,             393323513
           2559378566,             514553417
           2589623992,             425705853
           2636059810,             602602286
           2928851943,             795429508
           2981145909,             778757036
           2987775628,             939387652
           2861255908,            1169840360
           2750256803,            1176717118
           2841745052,            1082848244
           2701041544,            1040125956
           2681744627,            1153230798
           2440014059,            1250909266
           2640487276,            1205349244
           2684783381,            1292152871
           2541722438,            1342960916
           2490549220,            1150429276
           2534671993,             953930843
           2368540962,             764943239
           2425042923,             798703279
           2307338941,             586524746
           2187967298,             594547457
           2161705348,             841553774
           1731443457,             645477517
           1781066019,             182550605
           1817406805,             188467025
           1780721420,              40932641
           1989063209,             -80513654
           2135514161,              38783891
           2024743208,             111776449
           2126867098,             -81093570
           2021473818,            -167535479
           1931922786,             -95624244
           1989962977,              95295645
           1962059358,             222664899
           1709482687,             253253935
           1817725395,             544645756
           1847665201,             645351659
           1782330180,             524458948
           1780223488,             289795687
           1757030043,             265011313
           1625345925,             258486114
           1729334500,             270175310
           1742274424,             113003477
           1644492814,             441759122
           1496569627,             447146616
           1218883233,             630067408
           1196006042,             563716165
           1019378095,             661624681
           1021548360,             262203062
           1380112436,             193833995
           1242876289,             287557274
           1126143514,             198078959
            952545546,             202970994
            838996628,             138810089
            887769037,             280202361
            993374357,             301351259
            814695062,             226136663
            880550226,              19188441
            744505235,              39674140
            794531312,              91131346
            751252108,             215078164
            855649033,             167669121
            844079760,             349358387
            931526393,             550527737
            838173902,             577969122
            897091514,             697297718
            866104452,             470714509
            964070825,             334480094
            857501848,             511411198
           1031771160,             652879036
           1123107571,             385053493
           1241528255,             312674323
           1112390780,             512157122
           1097596188,             457899828
           1228186087,             481751674
           1285243081,             460332275
           1244901461,             630091878
           1279618891,             604704891
           1404693060,             791950695
           1537311970,            1076513116
           1769771715,             958500800
           1721499127,            1155824672
           1801997144,            1241555012
           1739369009,            1310750273
           1608398520,            1426194797
           1225078441,            1309994941
           1103102718,            1388791909
           1042318439,            1161894991
           1168468421,            1044350878
           1134577396,            1094774784
           1224776655,            1189162149
           1190106412,            1264771170
           1132286145,            1051018985
           1020856826,            1053849387
           1121057495,             910340963
           1358182833,            1196621181
           1130120003,            1565322685
           1003315566,            1588943564
           1104302586,            1433281631
           1258047018,            1375071508
           1399609528,            1433844756
           1242711795,            1284223409
           1152689459,            1178649945
           1219964895,            1008848667
           1310990040,            1012848092
           1268335972,            1126780604
           1397004118,             970757715
           1096297152,             874026475
           1140878396,             876249574
            979865942,             798838325
            721401728,             977353307
            793840886,             911817650
            847520173,             817445700
            745609781,             797647476
            847318821,             683370701
            988302023,             772161079
            820014175,             697435556
            863007586,             773993966
            641592677,             761621038
            376665912,             639924896
            384124655,             683842903
            526985303,             611098559
            161287614,             808330211
           -122047169,             865936898
            -80938548,             917333271
           -213838248,             810572380
           -634074458,             807471962
           -631547896,            1006081947
           -896282209,            1131167036
           -857608859,            1393098125
           -687613943,            1290402675
           -670585920,            1132198998
           -786109999,             951151549
           -237096867,             678065769
           -529984520,             155750980
           -612089498,            -135309683
           -468835247,             -39329367
            -76640051,            -129059758
           -853671809,             317634491
           -767988080,             580295146
           -835943242,             682582348
           -869874444,             657373996
           -871703666,             538237106
           -829600335,             590243230
           -660520321,             770264833
           -655104193,             751544562
           -738390947,             753483253
           -550229307,             639871187
           -809433052,             404076191
           -659416712,             295458503
           -754796973,             273568411
           -811417403,             316131735
           -706127585,             269838113
           -822230924,             176725620
           -653686373,             237095498
           -400915613,             142811766
            -27781783,             410421175
             84990596,             543000243
            -31483024,             646573966
           -177710958,             832535431
           -361339618,            1075626840
           -427026166,            1016142410
           -532505368,             822951221
           -512744308,             840227581
           -519648261,             909978654
           -416134826,             964545999
           -189936050,            1099661937
           -186866678,             946819697
           -422483689,             803559959
           -360116522,             902383130
           -404174373,            1083391386
           -254312949,             855425155
           -427274799,             385390693
           -416972437,             385938274
           -496277415,             249406183
           -695802114,             297320442
           -710898398,             115058613
           -842126266,              41803216
           -571733512,              29559997
           -523497638,              43846589
           -646132589,              48666289
           -802424223,              60969637
           -656300903,             175465561
           -560245411,              47672794
           -482607060,             150417890
           -509534453,             365719862
           -292818643,             422971446
           -227573969,             156147503
           -212441938,             201811575
           -129078231,             110821020
             80762145,             241538904
            -90269866,             295115925
           -158610504,             529691752
             13072035,             838457994
            -26949006,             748987252
           -190328945,             725548423
           -249731743,             601947822
            -85298868,             667369122
             14272302,             643016600
           -128051411,             705059513
           -113730461,             516827869
           -385793953,             782585057
           -424098916,             736084790
           -564511608,             773507941
           -567562152,             952667112
           -581387419,            1041442043
           -752540856,             878141509
           -987206828,            -526676021
          -1013333786,            -646460264
           -458493455,           -1122942235
           -507239562,           -1142965512
           -686423472,            -970970898
           -744977545,            -967330586
           -918364315,            -938424691
          -1005619013,            -982317351
           -877884310,           -1123129234
           -614334858,           -1065216677
           -913839939,           -1231223631
           -541218435,           -1075853737
           -881777329,            -658919427
           -961024177,            -675580422
          -1159471840,            -571129384
          -1108774086,            -416398192
          -1069655064,            -513231266
          -1052382546,            -345562967
           -967088399,            -335712406
           -928555328,            -163895290
           -851054897,             -28788368
           -921241551,            -106799395
           -930281710,             125019902
           -936073800,             -33411220
          -1022359817,             167950945
           -920698225,              38483759
           -858745831,              78301313
           -959945511,             151496501
          -1089553227,             -70922781
          -1180878352,            -167601358
          -1099341576,            -130287078
           -949111751,              20098647
          -1414468055,             451086196
          -1420126818,             565697632
          -1126960692,             848984164
          -1157772925,             829490004
          -1052861799,             869535514
          -1121280257,             967149740
          -1184421685,             920245644
          -1239365449,             832515331
          -1365638549,             828134424
          -1438264182,             739373073
          -1575281348,             939841568
          -1346832024,             710983556
          -1569774497,             462018616
          -1520221629,             494509581
          -1330355754,             407081987
          -1444194976,             123040947
          -1330452436,              54603531
          -1138858672,            -190139381
          -1134381120,            -267376603
          -1161796265,            -464151732
           -987710104,            -377106418
           -905246641,            -288936854
          -1066353868,            -138740875
          -1020596610,             -22127337
          -1061301900,            -355896828
           -922832814,            -284918436
           -483530529,            -383565392
           -377821364,            -396687409
           -564709884,            -291126373
           -422034102,            -562425136
           -618802865,            -492031810
           -589412235,            -247993410
           -385018066,            -444914040
             -9709303,            -564592753
            -82002345,            -583544302
           -118770895,            -711123842
            126466814,            -575217426
            178486492,            -654710963
            277430341,            -505140739
            321961139,            -554893076
            212150428,            -663737120
            344781305,            -688921782
             17698602,            -702147012
           -452407963,            -920807274
           -165120299,            -531925296
            107570231,            -728441969
            222122830,            -783831545
            502475030,            -785921177
            888340236,           -1041210088
            280670682,            -867545737
            236212053,            -796309739
            120312073,            -574585462
             38052694,            -671063634
            180571279,            -759356931
             28979293,            -561455821
            -47036456,            -640868933
           -100449249,            -714510118
            -92681829,            -615904881
             27091552,            -465841578
           -222712723,            -513254352
           -415384822,            -630788157
           -280881626,            -424623904
           -356938716,            -383497251
           -302948791,            -325888608
           -173973397,            -363933542
           -288772375,            -382664354
           -263605020,            -172946412
             31873638,             -66441542
             27091293,            -162705037
            256804173,            -186232200
            297245418,            -183804687
            257613639,             -98133729
            250326590,            -237758757
             39198999,            -193223031
            236907014,            -182599460
            209081407,              63016497
            468085563,             133579130
            941795166,             232903896
           1112337609,              11387199
           1135710788,            -122120226
           1178211432,            -289379845
           1050014849,            -474065849
            919037315,            -234877494
            586512604,            -299086196
           1128169903,              36270425
           1137139662,              50736962
           1291246862,             114098119
            835833313,             151958117
            924680270,             466068956
           1022852002,             549576964
            983843665,             464424182
           1088572082,             376665483
           1231530301,             308461466
           1117381627,             577347767
           1112606362,             336549523
           1069465347,              69335120
           1203101186,              60013955
           1164557867,             310358088
           1283732854,             265461270
           1047391560,              41093528
            927538160,             147398047
            742915797,             -15137204
           1160248851,             -19057769
            967098230,             -84970004
            804028326,             256115627
            845030800,             333681943
            636906602,             557110224
            870838647,             805196791
            832378139,             815777771
            877646569,             641903882
           1125855541,             731505750
           1181842054,             650117487
            919585521,             510932826
           1016784280,             646377315
            837934123,             557055301
            721570039,             551364093
            837707044,             566072147
            892704714,             566078267
            775348225,             625532343
            961666175,             705646886
           1027713685,             586761164
            962360144,             694819060
           1090823087,             669341677
           1334577024,             597594356
           1312103193,             651713747
           1055952489,             667829916
            970436639,             816500913
           1250303894,             359539839
           1283069063,             309331225
           1351936065,             106674900
           1272821332,             495738421
           1304489710,             476636610
           1412683881,             544772466
           1290831658,             840807031
           1336955549,             830379132
           1464500243,             787471155
           1753465975,             655493723
           1702428601,             701555263
           1726468031,             790116981
           1573296685,             799594971
           1614179113,            1032035070
           1475298801,             884893526
           1641464736,             982198377
           1571187340,            1056235863
           1717046279,            1180798084
           1789406218,            1355866783
           1341438612,            1422466651
           1345136593,            1436933235
           1313367696,            1232147708
           1104655466,            1474068113
           1186939824,            1578438052
           1106304959,            1862194886
           1350388790,            2084061645
           1590413127,            2260060219
           1549751022,            2359221686
           1695869396,            2377188404
           1428223160,            2359309816
           1372418216,            2581524922
           1402593179,            2419618181
           1396447641,            2353906023
           1514095319,            2256521913
           1386003665,            2177337288
           1371666490,            2289120526
           1349407212,            2371903995
           1146294762,            2429671760
            818567353,            2388080204
            472401325,            1787239101
            369588561,            2125640737
            465983716,            2312192371
            784185606,            2345636452
            623217444,            2165551633
            458574028,            2197678157
            379196818,            1924569391
            191224931,            1648422365
            191104042,            1750195763
            218472386,            1790705937
            321787037,            1652006449
            519201682,            1634067847
            851529934,            1514443502
            254394579,            1513391784
            141744539,            1501925627
            183388282,            1532517458
            229421282,            1558795827
            283402213,            1634994637
            403453479,            1567454083
            471293158,            1605781895
            723072281,            1640333180
            197215673,            1798152194
            107585079,            1847143851
            -27576521,            2039935401
           -273600116,            2152268464
           -376540116,            2070054252
           -277064233,            1887168606
           -120260708,            1795871707
             30545238,            1899687489
             22953119,            1665934108
            138235705,            1526871729
            207965585,            1664845772
            115414111,            1917439840
            199630668,            1866526155
             35977900,            1728356644
            326734213,            2403698329
            414397198,            2431575114
            447744425,            2239751384
            673604689,            2203823162
            303749763,            2168831929
            -39859611,            2324592819
            109421043,            1915595071
             34507828,            1854301240
           -161252033,            1734966614
           -188016190,            1659107107
           -175683434,            1759472998
           -322118719,            1747496827
           -353363487,            2055756660
           -345279681,            2124799831
           -325464189,            2185206000
           -183413826,            2060033947
             82158449,            2231941711
             91229901,            1990066215
             -1919810,            1995678531
            -10738390,            1865421002
            -44119324,            2012235828
            -42668978,            2074330992
             15227794,            1922006275
           -108337673,            1889098309
           -151099458,            2101723513
           -262787928,            2093203075
           -223684036,            2178572145
           -254263596,            2345327014
           -255639548,            2406869435
           -440263708,            2385601250
           -701335730,            2311143214
           -712570668,            2326768741
           -633168242,            2405917312
           -471382604,            2472025373
           -662971473,            2351010100
           -771263385,            2296678183
           -642436014,            2262571222
           -743169761,            2066117629
           -650333266,            1960406454
           -668888389,            2088682325
           -683102330,            2370995566
           -714952255,            2576472856
           -669907000,            2404038203
           -552498999,            2441573398
           -371947045,            2312591313
           -222643206,            2582541461
           -210003179,            2407350929
           -300938075,            2650479387
           -130316288,            2770992735
            -76204270,            2613456098
            -97167383,            2476307284
             20232430,            2535877404
            363588075,            2191979720
            367021402,            2173546947
            473060154,            2298888790
            521712152,            2311407889
            679750263,            2196371125
            650455010,            2162468752
            720784112,            2191223202
            808476216,            2142567541
            698069557,            2135036113
            759247754,            2273723531
            686844665,            2197409755
            676898750,            2342385107
            798478066,            1999326480
            856182598,            1951481866
           1043753147,            1979187479
           1016529485,            1781087569
            642735996,            1694689626
            597814472,            1814093309
            398014604,            1845103012
            121016766,            2033808046
            109871271,            2054753580
            271577536,            1949439837
           -285144373,            2176494870
            154696537,            2643383874
            150240351,            2591370766
            -33953993,            2376869793
           -463681775,            2248126400
              6483241,            1655210206
             47489285,            1721052831
            269294972,            1703092231
            347168555,            1563614510
            107631172,            1474752616
             97841286,            1548801853
             11094552,            1468582450
            -58933194,            1657676988
             24053731,            1456323998
           -248826293,            1686030180
           -269335401,            1599663974
           -106607451,            1415488957
            -45335134,            1452829988
            109767697,            1467128253
            107226262,            1340110131
            206074004,            1348141510
             89141015,            1472126433
             51304131,            1599929632
             -5529541,            1656658955
            182816157,            1579465891
            227139167,            1516249247
            354785102,            1571954254
            441976569,            1550561607
            462352922,            1653882648
            544689454,            1466852821
            978054439,            1611025091
