                    0,                     0
           1288490171,                     0
           2192715098,                769234
           2686503318,              35566298
           2936205064,              -5790059
           3261805325,               -814600
           3354313939,             -15200367
           3388150867,             -28024676
           3656041197,               7083885
           3719409661,              48159209
           3863262908,              15965383
           3946008644,             -17670562
           3980693532,             -11142298
           3987081521,               1891465
           3990271288,             -11846164
           4097121071,              -9449271
           4117515640,             -25161700
           4139390875,             -50522671
           4162299479,             -58088445
           4154517539,             -11854100
           4149074717,              23017366
           4197247826,              21831074
           4219927143,              44164325
           4217025099,              27785229
           4257629783,               1877368
           4253570845,              -9697722
           4281509850,             -13682255
           4286664589,             -35464470
           4284309111,             -37911745
           4288323255,              -6724185
           4256886310,              12049282
           4249754852,             -19701866
           4238084013,             -16311368
           4272292727,             -22557672
           4296963667,               7538201
           4298465658,              14441446
           4310079710,              42240361
           4289539290,              40607221
           4308984779,              40091781
           4301072207,              45385271
           4303346765,              66983070
           4340446308,              48963708
           4333449534,              42530206
           4356443739,             -18804477
           4341910355,               -520381
           4338137387,              66233071
           4322297391,             103444985
           4333421294,              69181375
           4308891740,              82734136
           4326899635,              85746064
           4342581276,              84095148
           4316917619,              61212356
           4283850439,              22261245
           4302129336,              -7716574
           4291501764,             -25882584
           4327477457,             -42876241
           4315970766,              -5146238
           4337878454,               1053599
           4314298154,             -17108765
           4309243519,             -23373790
           4244355373,             -19659388
           4284530809,             -32269061
           4304592018,             -49901680
           4252941786,             -56058382
           4200632017,             -57109081
           4214290125,             -85079481
           4198926406,             -63336119
           4218588706,             -49972783
           4207811387,               -468979
           4222595420,              11522544
           4199555091,              14447889
           4206438030,              39600287
           4252483252,              58393292
           4259566030,              39306056
           4275701666,             -11027350
           4275220049,             -34548312
           4297828620,             -37263274
           4228713688,             -22573245
           4268086958,             -47967704
           4290280049,             -42046766
           4266892291,             -35407190
           4249165923,             -55525213
           4256703067,             -62706736
           4213445984,             -36202322
           4260829734,             -14182497
           4238043196,             -36986626
           4251367074,             -33082070
           4235703074,             -63740205
           4228504665,             -81199791
           4274560396,             -14119018
           4244537038,             -63303087
           4230779910,             -37868281
           4184075520,             -80484583
           4237317043,             -67974807
           4227437653,             -39129059
           4226005885,                526990
           4229802284,             -24105456
           4229190207,             -14478904
           4224617517,             -56669566
           4235033819,             -62464125
           4201922178,             -41971058
           4210601551,             -79577661
           4240848441,             -78538762
           4275352981,             -78620903
           4272099300,             -69519869
           4280890865,            -113937921
           4284502885,             -91200103
           4292247770,             -10454653
           4333844374,             -10920561
           4360066632,             -10055137
           4337631553,              23647788
           4306563073,              18882983
           4311475539,             -14805819
           4318835660,               3573377
           4322852515,               3276794
           4324348787,             -72856743
           4311634413,             -96395240
           4268173487,            -126397937
           4273609653,            -138381070
           4278148478,            -134704028
           4273122876,            -115216216
           4277412569,            -121258401
           4342682745,             -20100200
           4387427484,             -11920970
           4392168304,               7790066
           4339427621,             -29355657
           4281956726,             -42721039
           4266315104,             -45084809
           4282534172,             -48683961
           4273137774,             -30736088
           4278071575,             -44437388
           4298002766,             -51727962
           4300565113,               2141567
           4331579390,               9427991
           4318832045,               9438312
           4319737305,             -16155630
           4324981911,              -6596338
           4306779469,              -7429333
           4308726262,             -42910823
           4316134545,             -13936121
           4346670040,              23064422
           4378375567,              14118564
           4404114093,             -29357157
           4342202318,             -41115895
           4360995247,             -15418981
           4363589065,             -42891559
           4351176279,              -8525448
           4359426479,               -461086
           4335183218,              58419238
           4370726141,              -9999960
           4394441470,              -3564192
           4388931133,               2657579
           4425345421,              -6277970
           4449667254,              28999442
           4385871661,              51452010
           4351018881,              61514759
           4351064831,              49883228
           4415193225,               5434325
           4399149352,              38719028
           4369116468,             -12867404
           4341569657,             -38579347
           4341891528,             -62926589
           4349943512,             -52788266
           4343369053,             -51487869
           4331009088,             -90494501
           4356701631,             -70273828
           4328901620,             -36619090
           4329905422,             -54091186
           4311922650,             -35732447
           4323101325,             -65223867
           4308564628,             -77586300
           4316120054,             -70950500
           4342781092,             -73363204
           4335863337,             -73987547
           4337541314,             -79332363
           4336762104,             -77719377
           4323403344,             -69663364
           4310738107,             -37243483
           4321884985,              -5016320
           4295998930,             -28158436
           4264013097,              -1481531
           4261132029,              29691723
           4249608260,              17714666
           4263243645,              18587640
           4234599376,              31878534
           4232403888,              13973615
           4233269638,             -15565450
           4250488280,              12592258
           4244779579,              -4735157
           4237399386,              25585300
           4293369964,              45655520
           4268176214,              63346732
           4240212894,              38105142
           4257145508,              62055637
           4268275548,               1740572
           4272571203,             -13752482
           4229339813,              23622253
           4217433658,              42233320
           4248939151,              34524998
           4278260165,              32079257
           4274333660,              54327148
           4311117956,              40588602
           4303074047,              35852227
           4310596023,                934265
           4303369535,              -1091281
           4302448717,             -28835705
           4301077874,             -37735993
           4283810262,               -551294
           4279009355,              17064730
           4313399609,              12387255
           4305861218,              18505334
           4295361488,                 57977
           4302573650,             -28541686
           4290699282,             -45500623
           4296250850,             -37575447
           4274598166,             -70153446
           4256062571,             -66869435
           4264608238,             -66984548
           4205598424,             -11397234
           4188506262,             -20066260
           4224871036,             -18066771
           4276786864,             -35538522
           4298393761,             -50507850
           4261643117,             -46884540
           4260424384,             -68392149
           4272687404,             -79810374
           4287591572,             -59986635
           4309510249,             -34968928
           4302460107,             -35204258
           4237675001,             -30141209
           4285369381,             -22845317
           4279954187,             -30088821
           4324575109,             -16410072
           4374764127,               5381424
           4348830369,              -4321071
           4375158429,             -59874859
           4391754959,             -63089068
           4380453772,             -73582303
           4362797454,             -30472459
           4372045446,             -18897945
           4361055423,              10973324
           4350777540,              22708202
           4353495577,              21713032
           4319124160,             -21278683
           4327797895,             -38603393
           4316864156,             -11379056
           4338107890,             -10537958
           4333922728,             -12013215
           4374314582,             -17365265
           4346036752,             -37968362
           4369672590,             -77899966
           4331132981,             -52394895
           4283610280,             -84504146
           4314811674,             -92912659
           4337354725,             -91282485
           4339436316,             -67469955
           4323948848,             -42518487
           4300872468,              -5897777
           4282207197,             -18058542
           4241641153,              -8053897
           4250590699,             -34603850
           4287316862,             -79992085
           4298217300,             -18434751
           4327134559,              -5290550
           4294869053,               4199604
           4271582936,              22661712
           4253659581,               5222930
           4240526361,              -4354237
           4241595333,              -8963488
           4325076543,             -40087902
           4284222566,               1331731
           4259390677,             -44456087
           4239384307,             -52503806
           4256038462,             -77759300
           4267460548,            -104215116
           4257006994,             -83429201
           4222518435,             -72467680
           4264610274,             -68276738
           4269755960,             -95662635
           4282946088,             -75496418
           4269440531,             -64308756
           4326680058,             -21560062
           4295380557,              -7103082
           4261941452,             -40671148
           4289829504,              -7907338
           4338259572,              25494058
           4285225060,              32697982
           4257104837,              21558380
           4280194936,              43490878
           4321556136,              24217598
           4289407739,              25469092
           4303820780,              26165257
           4315971793,              44176215
           4323940411,              38351169
           4333183131,              58305686
           4334876268,              65436644
           4306234041,              69878902
           4289774061,              66266842
           4307397106,              51743187
           4315092405,              58704514
           4337208849,             -13768151
           4303369645,              31286663
           4286574658,               8562327
           4323951473,               2028409
           4322640896,              35178555
           4372063537,              54892385
           4402491153,             -33601497
           4414029176,               -684036
           4401870497,              -8256390
           4408574730,              16831909
           4387699247,              10365875
           4404321127,              15057881
           4387358364,             -15252062
           4425982116,             -27707229
           4402762285,             -38635665
           4388414874,             -43689362
           4384303330,             -73368504
           4388039097,             -82127934
           4375138494,             -33745453
           4346142652,              -2614153
           4338716011,              19027910
           4314803838,               8253836
           4276897864,              31795793
           4267274694,              50631563
           4258703078,              49897870
           4274526313,              38449485
           4257536952,             -13248597
           4268605099,              18908721
           4282583397,             -23633685
           4282851820,               1109388
           4296309016,              34737044
           4295106815,              11051514
           4328743827,              22937822
           4323578163,              50234715
           4333809133,              53868804
           4338293499,              41615273
           4325446960,              71307025
           4384273315,             103071369
           4291415533,             144195821
           4304081042,             140286797
           4310840389,             131263020
           4308240626,             115976332
           4310723608,             103647277
           4266673688,              85098646
           4303837486,             104854640
           4333491311,              61205746
           4332547183,              69971022
           4323745183,              72210637
           4326468988,              73317090
           4338203534,              76684787
           4350654104,              73531218
           4318740428,              12040724
           4269365077,              12965964
           4239681347,              11569871
           4229517528,               5799914
           4224517863,             -42631206
           4229641761,             -58782530
           4293539050,             -73014326
           4326502178,             -45497378
           4296648986,             -26551493
           4332271531,             -40265545
           4347318866,             -35278386
           4330786424,             -45606541
           4297149800,             -32895917
           4301480617,             -23099391
           4310372132,             -44434115
           4309576584,             -29588148
           4278227063,             -32970586
           4254951305,             -20961331
           4262357148,              -3555922
           4206560063,             -27219554
           4218609025,             -54502475
           4205818457,             -29613563
           4209905999,             -18666509
           4241919019,             -24907188
           4276381104,             -11848597
           4279883185,             -11657203
           4314088948,             -12370781
           4312466101,             -21302144
           4309294322,             -28953937
           4309316546,               4779831
           4321162226,              19682364
           4334164440,              45197884
           4349162767,              40357450
           4335019284,              82290591
           4296665096,             154735533
           4327880469,              97905367
           4315381119,              72574518
           4344074422,              57403820
           4361762289,              24571179
           4366281435,               6784939
           4350774620,             -12889596
           4343241644,             -20782235
           4354625242,             -17644588
           4365715922,              -7638919
           4354233109,              -4103314
           4330806728,             -24581268
           4306272846,              -1316992
           4322079856,             -19648175
           4306511703,             -25709297
           4327317662,             -29485649
           4326169741,             -35362961
           4301773102,              -7033689
           4318546997,               9184282
           4310284163,               4609435
           4344670929,               4845982
           4314021572,               6328113
           4296913764,              22571752
           4291177077,             -25962490
           4307562000,                -60991
           4319485186,             -46325876
           4307918328,             -26472855
           4365337947,             -10974452
           4350839619,             -32864131
           4287535335,            -117398701
           4325605696,             -71939824
           4331205927,             -65373845
           4332769343,             -96723680
           4303695124,             -94509178
           4288976248,             -90051081
           4350499742,             -33969230
           4344430337,             -69688362
           4328979529,             -45522902
           4321519770,             -49356464
           4295750000,              14038771
           4272231692,              -3908257
           4275495601,             -11113530
           4310771232,              16480671
           4287564273,              36115557
           4301258576,              37517537
           4312147719,               7198568
           4294523832,              14114201
           4275138149,               2580021
           4270728660,               2415638
           4440206537,              56079747
           4397884909,              92099893
           4356857874,              76795877
           4348091551,              50939812
           4328647184,              18363227
           4332476707,              32410657
           4293659300,              42406683
           4279210909,              46099144
           4279452037,              35821640
           4267951487,              10661533
           4278052900,              14037955
           4252804305,              49044581
           4289155260,              70034462
           4252675975,              52936045
           4284589712,              47123224
           4290170383,              79004241
           4272468441,              91724644
           4278426490,              94952144
           4285599586,              71862022
           4293542433,              22673645
           4286469371,              34965291
           4260766747,              18314472
           4244836898,              19806225
           4250275541,              32977304
           4275195923,              19071173
           4263649440,               5957088
           4247354968,              27052408
           4285894026,              37440802
           4268595695,              22513669
           4278997765,              47266671
           4290498803,              33165310
           4281317633,              -7184965
           4259681086,             -15813242
           4288498322,              31689581
           4262181435,             -15605352
           4257935746,             -21972563
           4270678205,             -19837052
           4310703067,             -40409390
           4315723820,             -61681984
           4314846842,              -7123368
           4327428222,             -39015449
           4335475634,             -29386621
           4297675606,             -32528814
           4340805768,             -74937327
           4279831438,             -60975249
           4264009018,             -68583722
           4259037330,             -33466134
           4247392814,             -27587935
           4246521285,              -1475376
           4247280692,              62829774
           4279461640,              79093051
           4299158031,              21288779
           4290070145,              54778796
           4298886920,              20285162
           4302834096,              15427085
           4290872751,             -65238849
           4249027313,             -50815717
           4231019271,             -30982177
           4205500873,             -32971850
           4187686448,            -104489514
           4182141985,             -59478052
           4199019134,             -58886772
           4269909604,             -75805407
           4230581707,             -16702844
           4237934677,             -12052847
           4237956876,             -13689088
           4202169436,               4004969
           4203414847,              -6005131
           4236149456,              31770674
           4228969195,              44919736
           4228835286,              27427654
           4234500427,              30321311
           4232457089,              69506821
           4250016560,              35410414
           4282257690,              45758783
           4274323149,              56064230
           4264323024,              44838803
           4286225207,              16135185
           4272453711,             -17907545
           4273879803,             -36293551
           4262770711,             -35140698
           4272212677,             -28189020
           4248331376,             -44142944
           4254070434,             -52027100
           4278601144,             -41628393
           4271923994,             -58798982
           4303752398,             -13213223
           4312982009,             -42942396
           4348695910,             -50309542
           4328042088,             -17713933
           4344215214,             -30428494
           4320960050,             -43861805
           4293294193,             -22243414
           4317921294,             -28008058
           4321148255,              -8798278
           4296738836,             -10807313
           4315793400,             -22515111
           4319954294,             -44779302
           4305143591,             -50401204
           4303245441,             -58859808
           4330199023,             -56308984
           4329408736,              -2807559
           4295667250,             -28227948
           4267990871,             -19596382
           4264804915,             -10384480
           4308540521,             -35769970
           4291810196,             -57076914
           4310590129,             -51671095
           4314903974,             -26561185
           4326783363,             -41722576
           4340107452,             -33650009
           4347182476,             -36974709
           4308216750,             -58590677
           4325398948,             -62743893
           4325492809,             -63027957
           4194199661,             -72461921
           4190275965,             -26560437
           4235821494,             -13786362
           4264807219,             -31521839
           4264962263,             -26952719
           4311732416,             -38303141
           4302287007,             -16623637
           4319491147,             -34225318
           4322512317,             -42622232
           4319262342,              34484706
           4279137247,              57542615
           4307995289,              32949903
           4312229096,              30196781
           4315200311,              38365122
           4287346357,              34348506
           4304002974,              45130568
           4290576217,              40159654
           4261226379,              64755729
           4287389948,              74576779
           4264780943,              62929346
           4244580459,              53331502
           4261384053,               3809898
           4342246605,             -23028102
           4270342221,               9093852
           4282967874,             -42096097
           4288406716,             -42969885
           4256583921,               9113678
           4255995881,             -46974693
           4269683562,             -24836495
           4232359509,              -3761847
           4291052743,                152658
           4291738419,             -14945349
           4308204760,              12002978
           4332497232,              11546431
           4331313357,              15793301
           4343854304,               3115047
           4317246378,              35125708
           4273037819,              44312597
           4256409007,               9280985
           4245169663,               6703492
           4251177613,              -5727616
           4278888014,             -16571636
           4258975752,             -10751740
           4245272489,              -5221816
           4245249202,             -20118569
           4242610655,             -21969135
           4297464575,               8035399
           4307279333,             -20686959
           4311800632,             -16575826
           4288716988,              44315591
           4299035475,              -4847515
           4286881235,              42116949
           4284539716,              55427681
           4297039676,              43237092
           4197620319,              20334806
           4218745489,              72217530
           4226232958,              72641622
           4169444577,              24352610
           4183058345,             -44921714
           4154604337,             -23240077
           4153806483,             -51382415
           4225619998,             -47942363
           4265516964,              54872895
           4209442382,              65121817
           4210916863,              -7389032
           4205063326,              33518841
           4230855079,              47881612
           4230626456,              57831556
           4240476514,              41899082
           4229344824,              -1845267
           4224930982,              -4290693
           4221926785,              -6335475
           4248970297,             -46726897
           4268112710,             -54421113
           4273807160,             -60269415
           4283558239,             -57403855
           4284152146,             -79991340
           4282767943,             -77129440
           4290704124,             -63619279
           4293915638,             -56581174
           4296053486,             -86041809
           4293788426,             -53803346
           4325932127,             -57423008
           4327345327,             -68265378
           4284071030,             -29060371
           4290382308,              11293448
           4259291113,              32341109
           4247949591,              22285204
           4246152587,              36203781
           4279097791,              13931128
           4273686007,             -27234469
           4314988431,              -7733673
           4309935601,             -20854433
           4348362782,             -51732005
           4342465270,              -9716633
           4332058971,              34030260
           4300695427,              43045990
           4303137808,              63844863
           4325525026,              48328667
           4308396457,              26283411
           4363590062,             104115376
           4384228474,             116019349
           4320415914,              78058252
           4304907777,             111525940
           4325479775,              84709387
           4313196313,              66988330
           4316230715,              37481656
           4314395131,               7442281
           4304397267,              27197846
           4321789938,              34314596
           4308208661,             -14434440
           4313967226,             -62201370
           4309846667,             -74371867
           4349662133,             -31012339
           4406933188,              13560446
           4413477654,             -10459919
           4422843279,             -18456170
           4431176075,             -26323693
           4323772862,             -48628575
           4370037095,             -29466121
           4346669554,              -3124163
           4355311904,              35741487
           4323414630,              20191015
           4314126699,              50748015
           4278090088,              44506734
           4297338584,              18434877
           4249364632,             -23696158
           4221527291,             -11634365
           4205394490,              -2202031
           4212876420,             -22909556
           4261273180,              -6274114
           4248443562,              17594400
           4261053986,             -18034804
           4280805354,              19379755
           4296020786,               3297025
           4312115564,             -23378588
           4279575641,             -29893737
           4247408032,               -761392
           4232021064,             -28671799
           4242082480,             -46471770
           4233517379,             -52491188
           4255588928,              -9506572
           4266178142,              42058982
           4274313771,              28238944
           4365472721,               7632293
           4307439669,             -20403566
           4279154793,             -40683580
           4270391677,             -10349630
           4264040262,             -18983859
           4202550657,             -47146696
           4213911755,             -12874631
           4222883856,             -48350843
           4272322098,             -31318990
           4276358802,             -65323579
           4271810991,             -71611076
           4268032362,             -77624704
           4279426400,             -34813988
           4231515830,             -51411777
           4243700043,             -50005070
           4259423729,             -82258991
           4267484075,             -63158181
           4272338032,             -65293793
           4223981442,              36867859
           4190418374,              73822172
           4165759764,              83581805
           4170129966,              34327145
           4190483019,               8025386
           4205676143,               9738999
           4181220554,              -4662675
           4169601496,               -180126
           4221728006,              10871948
           4199389632,               7105303
           4211247284,               6493387
           4208154577,               3015996
           4258512673,             -30038801
           4257105475,              23986084
           4295553580,               1154221
           4265110599,              11365340
           4272203082,              45281244
           4274106107,              63500494
           4285153052,              59056100
           4315704792,              45505713
           4304167290,              42413509
           4309087655,               4708505
           4319281610,              14180597
           4345405031,             -12215592
           4339173620,             -12913652
           4363972496,             -98329623
           4300933708,             -80912709
           4325542623,             -60888732
           4310315037,             -79215465
           4307979919,             -91249309
           4337511662,             -56806717
           4341842328,               8156790
           4289204154,              19669984
           4322734202,              34897460
           4340883593,              45455227
           4319130779,              53752797
           4331841150,              68745355
           4351464268,              55746989
           4360330688,              51169889
           4348443872,              55058227
           4336946477,              55488972
           4341887522,              20474047
           4325239004,              20112359
           4321859731,             -15027378
           4330558127,              -7947093
           4334101293,                 64637
           4310871786,              40104862
           4305608188,               3535418
           4320530688,             -33043560
           4300948766,             -52600025
           4281044703,             -62568235
           4240504050,             -41156286
           4294656399,             -43799872
           4324705846,             -16245967
           4301465940,             -49958337
           4306298237,             -76693949
           4280184220,             -64008359
           4268108070,             -33241332
           4269505042,             -45229081
           4275707082,                398275
           4248382323,             -24197298
           4270655833,              -1278338
           4240602384,             -12137088
           4229511418,              22327437
           4242211292,              -9892219
           4232775738,               9391577
           4230040102,               4588657
           4188773036,              29981105
           4191576414,              22850686
           4071330522,              -8898330
           4126157132,             -32615332
           4145853053,             -33669087
           4189041888,             -54988141
           4215337795,             -44699046
           4221059130,             -69480042
           4212760494,             -66902536
           4241798750,             -66975167
           4272708648,             -77125298
           4279702950,             -62900693
           4279671093,             -90874306
           4297629668,            -100313003
           4308210043,            -116388478
           4327491187,             -15249375
           4338057092,             -57029966
           4309858066,              28135407
           4363610625,              23853336
           4329229468,             -37036805
           4334797885,              -8072381
           4258644919,             -20824049
           4239385676,              14436276
           4271969405,              44169481
           4291246085,              18814569
           4278058573,              24110389
           4266035779,              27040477
           4238058559,              18067163
           4247572330,              34821695
           4207562077,              53458392
           4209238531,              58971039
           4222603020,              57733254
           4266429455,              23096420
           4287224914,               9686186
           4301332255,             -17574119
           4337155088,             -47257069
           4312383407,             -29553847
           4356166200,             -40807199
           4336979276,             -25594514
           4357246115,             -20654475
           4354199944,             -36802197
           4308258004,             -23773414
           4301627760,             -22654201
           4312503859,             -56986625
           4300305925,             -57130908
           4282070605,             -49227526
           4312633926,             -54807983
           4325879754,             -40054462
           4302635718,             -53597630
           4305984314,             -47517911
           4262157784,             -30458334
           4258940554,              25021203
           4258835146,               5496848
           4257126869,              11115342
           4298809487,              17268312
           4290596322,              -5365762
           4322407813,              -8394067
           4305168570,              15846524
           4324146954,              26216392
           4341551955,              36505581
           4312008961,              52719555
           4336171373,              27383653
           4334829375,              49325766
           4336612596,              47851691
           4311481348,                523311
           4313571516,             -16937941
           4333187732,               5846189
           4325734192,              11387457
           4314758954,              34669115
           4305951922,              21193755
           4316672107,              45794721
           4323889234,              40183902
           4346500608,              39332557
           4253359714,              70868449
           4220428201,              25685267
           4198323589,              17741341
           4220871131,              42208275
           4212943336,              36326653
           4266443140,             -19105171
           4279527952,             -45216989
           4270471329,             -70462565
           4281570472,             -62463925
           4313376751,            -117315188
           4256300266,            -168730758
           4206490660,            -115642396
           4207416807,             -58653176
           4211223947,              -8503053
           4214473212,              12929165
           4201229573,              -8004157
           4197944247,               9594914
           4196923245,              -6891380
           4188197608,             -10685970
           4189306615,             -12547033
           4194240594,              -7600932
           4293056221,             -32140696
           4325005240,             -41211330
           4350786682,               -141325
           4340862389,              25314071
           4326504342,               5220314
           4329979402,             -10322470
           4376131567,              49762598
           4310491692,              60734456
           4340916482,              28375721
           4310125706,               4165588
           4313350173,               5772489
           4268553625,            -110966619
           4353534126,             -77783549
           4351125150,             -75442686
           4342200317,             -72171402
           4311171466,             -17809971
           4297286129,             -23586014
           4263409268,              -5115474
           4270876961,              12038616
           4299669484,             -20390725
           4271205736,             -16303469
           4269101568,             -22431790
           4253296550,             -34080632
           4242880212,             -58911927
           4248700653,             -38739238
           4300881817,             -17368515
           4321328766,              17869548
           4313380200,              20956677
           4386300177,              36050235
           4379420065,             -64376393
           4419305407,             -35677776
           4436862138,              -8243194
           4368863832,              -4056817
           4373849025,             -10879202
           4430339810,              -8001343
           4424145194,              45546263
           4425625867,               2399745
           4436849748,              -3788849
           4487143533,              28738420
           4406480063,               5838564
           4417924783,               8009162
           4396510210,             -27875685
           4388513397,             -24876530
           4388397792,             -50008878
           4378673021,             -58173353
           4411764725,             -51385914
           4360431271,              22320272
           4388795169,              31715643
           4399261276,              44702527
           4353034214,              52860149
           4354195822,              62647270
           4311053418,              50966863
           4298747067,              42280555
           4311879794,              37356066
           4340600928,              28738023
           4329887275,              42068031
           4288406839,              46711900
           4286606209,               1557010
           4299555842,             -26654785
           4267186983,             -15135629
           4286983641,              14291329
           4308051556,              -3312314
           4308422134,              19156861
           4312780756,             -11142013
           4305163752,             -59316285
           4333328789,             -19771793
           4329296510,             -29742633
           4303770676,              59779036
           4345035452,              28782854
           4299290286,              16097957
           4283173155,              -2484959
           4282338076,             -22347877
           4285751763,              -8790739
           4319172462,              -7969534
           4331110246,              12795784
           4289023003,             -12857112
           4259245777,                805855
           4309093319,               6447461
           4312511959,              -7764470
           4277129428,             -24688980
           4258321076,             -19007265
           4235679575,             -31762830
           4268300565,              18096327
           4256584770,              46110729
           4249368117,              12446934
           4274493416,             -19816828
           4314595596,              -2343920
           4279083041,               6622161
