                    0,                     0
                    0,                     0
                    0,                     0
          -6442450945,           11596411701
          -6442450945,           11596411701
          -5798205851,           17265768532
          -2512555869,           19733227243
            161190121,           17807192108
          -3458339882,           18459699645
          -8572730566,           18949434901
          -8572730566,           18949434901
          -8572730566,           18949434901
          -8577891774,           31303467075
         -13430247780,           28240290257
         -13664511881,           22853837971
         -11340441708,           17211768848
          -9679102561,           20597170758
          -9679102561,           20597170758
         -15787798791,           27970261557
         -15787798791,           27970261557
         -15787798791,           27970261557
           1833442737,            5405791009
           1833442737,            5405791009
           1833442737,            5405791009
          20610762750,            1207073328
          20610762750,            1207073328
           6365241379,            -821402555
          -1957807548,           -4876567923
          -2188926218,             523696171
          -1369489821,            6393158103
            967445913,           10246845970
           3846486855,           12048831243
           5076121350,            9617721908
           8699973680,            6165844369
          12558346634,            4961307288
          13608618238,            5561994013
          13608618238,            5561994013
          11382689438,            -980002148
          11382689438,            -980002148
          15578932446,            4493828220
          12496436560,           11101241630
          11052445076,           14956643196
          11052445076,           14956643196
          11052445076,           14956643196
          11052445076,           14956643196
          18044633064,           19489081559
          14853046343,           13193807356
          11637592194,           15472846659
          11637592194,           15472846659
           1236905186,            4936733400
           1236905186,            4936733400
            415373400,           15984953416
            415373400,           15984953416
            415373400,           15984953416
          15752643647,           21497388902
          22694432443,           16638155500
          22694432443,           16638155500
          26079942255,            8468122937
          15109319369,             643496162
           5528698002,            5185740201
           2188900349,           11891285028
           8206780694,           13068546117
          13398317779,           10730441572
          16034162692,            5244090120
          19464770344,            7309195357
          18554809846,            9389909597
          16801418597,           10818107368
          15337935083,           10967463331
          15337935083,           10967463331
          10343151821,           14938242655
           5229720187,           17502814519
           6162520370,           19332355338
           6162520370,           19332355338
           6162520370,           19332355338
           8179234825,            -640743344
           8179234825,            -640743344
           6745960876,           10248465729
           6745960876,           10248465729
           3360589374,           18729576874
           9178004460,           12279716338
          11578009554,            6908688631
           9023486551,           -2751405764
          11032908860,           -7902644050
          13536169604,          -10480992410
          15245595850,           -7049359621
          15224091824,           -2737660511
          15056751425,            2436823448
          15056751425,            2436823448
          15056751425,            2436823448
          13116706374,           22321619437
           7046258196,           24823337707
           4789001741,           26272100090
           4789001741,           26272100090
           4789001741,           26272100090
         -17263541806,           18390470061
         -24883700215,           15761397000
         -32095639490,           15692061214
         -31695236802,            7153423840
         -34392576568,            3918447160
         -32453657273,            7566039883
         -29362518341,           10552553681
         -28409542919,           12452319852
         -27482167092,           11665523361
         -28185894225,           13273756482
         -27959140481,           12249761059
         -27535640250,            9485081411
         -25725761325,            3840383922
         -26118773969,              71384909
         -25943707336,           -3178549739
         -28154863363,           -2716801523
         -22492631333,           -2517090007
         -14530098585,           -4747023880
          -3281758243,          -11521974724
          -3281758243,          -11521974724
          -4234018386,           -6439467604
          -3464565888,            2726931957
          -3464565888,            2726931957
          -6577714393,           -6044734173
           4247592534,          -11978591667
           9760811813,          -17153204685
           1773417917,          -16554082110
          -5404281872,          -13157055402
          -1739182451,           -6403903788
          -1739182451,           -6403903788
         -11418207239,          -10490998212
         -16921895117,          -13515978007
         -19415041320,          -14118708341
         -19415041320,          -14118708341
         -19415041320,          -14118708341
         -27763921003,          -22767997729
         -27763921003,          -22767997729
         -18464869132,          -15387433022
          -5199859470,          -21346872783
          -5208819783,          -28072261715
         -10527331973,          -25340898249
         -10527331973,          -25340898249
         -10527331973,          -25340898249
         -26696485216,          -17738628774
         -26696485216,          -17738628774
         -26696485216,          -17738628774
         -26696485216,          -17738628774
         -26696485216,          -17738628774
          -6446882855,          -19503736181
           4023759001,          -15207351361
           4023759001,          -15207351361
           4023759001,          -15207351361
           4023759001,          -15207351361
         -10068270590,           -2914204818
         -13412767562,            3284083247
         -13412767562,            3284083247
          -4838840785,            3645923897
          -4838840785,            3645923897
           3620218611,            4976671708
           3827686848,           -4378767785
            238122819,           -9894561228
           5975738019,          -14181597814
           5975738019,          -14181597814
          -2235812285,          -16743246348
          -2235812285,          -16743246348
          -2235812285,          -16743246348
          -2235812285,          -16743246348
          15185303857,          -22028193955
          17916087380,          -10589930198
          22196982402,          -15274357669
          24655420865,          -17126710757
          22953827522,          -13326640447
          22953827522,          -13326640447
          22953827522,          -13326640447
           7048247941,          -13838363974
           1333365988,          -12838431651
           3503900956,           -7555580282
           3503900956,           -7555580282
           3503900956,           -7555580282
          12760652181,          -20750788466
          12619794145,          -27762106511
          10233169262,          -33374035555
           6844544926,          -36872889156
            882597456,          -29780030780
            882597456,          -29780030780
            882597456,          -29780030780
          21233661243,          -19557531356
          21233661243,          -19557531356
          24427040056,           -5944041733
          27400935683,            3088576972
          30681840725,            4229845040
          27117541886,           -2416950526
          27117541886,           -2416950526
          12613820456,            3295131571
            860659588,           10208000197
          -6125628325,            5088273560
          -3142089439,           -2262111362
           4529845266,            -535433134
           4529845266,            -535433134
           4529845266,            -535433134
           4529845266,            -535433134
          -4560049449,           17664059452
          -5082037463,           25951117086
         -12681975584,           23357187155
         -12681975584,           23357187155
          -8617848170,            8885078893
          -8617848170,            8885078893
          -8617848170,            8885078893
          -8617848170,            8885078893
         -25359846554,           11373515980
         -25359846554,           11373515980
         -30957675629,            4177833236
         -32184331007,            4046226179
         -28892086561,            5833402238
         -28892086561,            5833402238
         -28892086561,            5833402238
         -28892086561,            5833402238
         -27955401726,           20833754023
         -22120667202,           26539325219
         -17024682240,           20481930283
         -17024682240,           20481930283
         -17024682240,           20481930283
         -17024682240,           20481930283
         -17071238324,            1452449307
         -18511518523,           -6617536427
         -18511518523,           -6617536427
          -9821636882,          -10092353989
          -9821636882,          -10092353989
          -9821636882,          -10092353989
          13740697207,           -4487667414
          13740697207,           -4487667414
           3569340634,           -3104527047
           3569340634,           -3104527047
          14127832040,            5594240678
          19683622415,             110027533
          18845944474,           -3806511211
          14189683272,           -6689401358
          10752615433,           -8061486944
          10752615433,           -8061486944
           1819689963,           -1258416194
           1459466186,            5698587810
           7377182867,            1781966491
           8914932423,           -7268003969
          12813382928,           -9629196486
          15665153153,           -9154413637
          17570384967,          -10005934520
          19481895977,           -9251019158
          21446790642,           -9102498876
          17572318801,          -11784112536
          17572318801,          -11784112536
          25223903396,          -10387122931
          24358795470,            -393632961
          27337168852,            1558177917
          25049788742,           -3501840694
          16287551079,           -1797883051
           8338577073,           -1620887425
            333330367,            -592213744
           5644690468,           -2695468731
          12897628119,             194614718
          14344181065,            6045201216
          14344181065,            6045201216
          14344181065,            6045201216
          19060358067,           13251072173
          21698208034,            9877318593
          18939810922,            7442419213
          12503952054,             567679965
          12585637365,           -6544619425
          12585637365,           -6544619425
           2565247221,           -8453665882
           2565247221,           -8453665882
           2565247221,           -8453665882
          -5935268080,           12121296528
           6286242081,            9542980795
          -3432629066,            9866889606
         -10101658782,           10811117083
         -13876395246,            5417930846
         -13876395246,            5417930846
         -13876395246,            5417930846
         -13876395246,            5417930846
         -13876395246,            5417930846
          -7136496294,           -9092350299
          -9100530560,          -14774286547
          -9243038292,          -16447042330
         -10695173071,          -15295027652
         -10695173071,          -15295027652
          -9072454392,          -11135589140
          -7308535457,            2556850050
           1340138345,            5490135790
           1340138345,            5490135790
           1296367053,           -7070109377
           1296367053,           -7070109377
          10601773258,          -10330297027
           7294537139,           -1392358604
           7563087864,            5656855012
           9665793782,           10747116192
           9665793782,           10747116192
           6549987742,            5081211136
          12676035727,           -4392853572
          12676035727,           -4392853572
          12676035727,           -4392853572
          11450205386,           17540845523
          19545965208,           20623351321
          19545965208,           20623351321
          20016926430,           23404048004
          20227402059,           20815356251
          17846452496,           20640904965
          18364116961,           20934826557
          19851043212,           19234575125
          18905615716,           14864116310
          18905615716,           14864116310
          18905615716,           14864116310
          18905615716,           14864116310
            349029110,            3962430471
          -6512480090,           -1510583379
          -6512480090,           -1510583379
            954558189,            4693464556
            954558189,            4693464556
           1122980048,           -4238250780
           1122980048,           -4238250780
           1122980048,           -4238250780
          -3723629628,          -13918942153
          -6579776245,          -12600117839
          -7413653865,           -8566094298
         -12753095910,          -10553204020
          -9193195975,          -13528363426
          -6738422084,          -16866554227
          -8468968117,          -18658707785
          -9429291171,          -16471758313
          -9429291171,          -16471758313
          -9429291171,          -16471758313
          -7888994009,          -25703622898
          -2722017845,          -26423707340
          -1253352105,          -19078412341
          -7726273085,          -20367082732
         -15367576420,          -16132097663
         -17903917727,          -15692242246
         -17903917727,          -15692242246
         -17903917727,          -15692242246
         -13821232598,          -30311922407
         -13736563637,          -35097862107
         -13736563637,          -35097862107
         -15542378475,          -26692640734
         -15328081657,          -11668513910
          -5623353113,          -14687634642
           2721744736,          -19674753488
           2721744736,          -19674753488
          -7467899479,           -9384134867
          -7467899479,           -9384134867
          -6225464201,          -19575319384
           7122822443,          -17935345571
          11553810596,          -18316086376
          14869785297,          -11432521685
           8965745293,           -7481647418
           8965745293,           -7481647418
           8965745293,           -7481647418
           8965745293,           -7481647418
          21737903972,          -16833564894
          22920679542,          -24427095185
          22920679542,          -24427095185
          22920679542,          -24427095185
          28929377568,           -9368025495
          29817728013,           -5083572718
          29817728013,           -5083572718
          29811569370,            -942376192
          31465021023,            1332852530
          28115382046,             886727523
          27385097810,            -119635953
          25258742797,            -636249256
          25258742797,            -636249256
          25258742797,            -636249256
          -1646232879,            -445374480
          10383255255,           -2592113077
          10383255255,           -2592113077
           -587945692,            2040391357
          -4782148323,            9777129755
           -723277880,           13614842642
           -723277880,           13614842642
          -7599441195,           14105391558
          -7599441195,           14105391558
          -7599441195,           14105391558
          -7599441195,           14105391558
          -7599441195,           14105391558
         -10473569593,           -8165088557
         -13368072404,          -17823481424
          -8867963479,          -22500226573
         -11447021713,          -24648583419
         -14410060641,          -24696012681
         -14264425843,          -17579137162
         -11689818808,          -11775558246
          -9348989135,           -5781707461
         -10662804240,           -3685412188
         -10785520223,           -3863466688
         -10785520223,           -3863466688
         -14081975444,           -5592766188
         -16948793139,           -6880408037
         -17087625610,           -6470131571
         -16060979199,           -4640092878
         -16060979199,           -4640092878
         -16060979199,           -4640092878
         -25416077518,           -5825045393
         -25416077518,           -5825045393
         -24741082912,          -11694851853
         -24741082912,          -11694851853
         -11704478577,           -6838825749
         -11704478577,           -6838825749
         -11704478577,           -6838825749
         -19789546705,           11963194433
         -10606689904,           17343716588
          -9023057180,           20246132401
          -7096624557,           13301028200
         -10187556447,            8514501803
         -11590921108,            -737371079
         -16015472914,           -2945565850
         -12940244991,            3553363279
          -7130776547,            7529560678
          -5003019294,            6223087224
          -3433719039,            3634041342
          -1621818966,           -3154727263
          -1621818966,           -3154727263
          -1621818966,           -3154727263
          -1621818966,           -3154727263
          -6289234033,          -10583495313
          -8792687721,           -6679980505
          -6557163664,           -2863145484
           -248154291,            4158022344
           3990457323,            3137562135
           8108759031,            4917815504
           8108759031,            4917815504
           8108759031,            4917815504
          -2699054908,           -7509695754
         -10128187116,          -10695396634
         -10128187116,          -10695396634
         -10128187116,          -10695396634
         -23840103438,          -16506208967
         -29575212983,          -15546409910
         -29575212983,          -15546409910
         -18236133076,          -16845672115
          -5203862111,          -16986048885
           1926528810,          -18119108772
           4786378981,          -19052963718
           4786378981,          -19052963718
           9538626439,          -19692413991
           9538626439,          -19692413991
          10393881406,          -13777364272
          15918526059,           -5452559113
          14615008407,            3634500312
          14615008407,            3634500312
           5100410801,            4216773672
           5100410801,            4216773672
           5100410801,            4216773672
           5100410801,            4216773672
          -5449143763,           -7356179942
         -13468295938,           -6842194348
         -13468295938,           -6842194348
         -11291724009,          -13778010337
          -4449251261,          -17928783843
          -4449251261,          -17928783843
          -2306395164,          -25364499585
           6798721207,          -23523803805
          10631910706,          -22324512749
          14354396773,          -23462604290
          14354396773,          -23462604290
          11760573927,          -13030632955
          11760573927,          -13030632955
          11760573927,          -13030632955
          -4652500142,            5051949011
         -11508493829,            -884503226
         -16991458402,           -3465410879
         -14758630299,            4235221844
          -9672278603,            9034377001
          -3380820519,           10665479095
          -8397167264,            9108598728
         -13973343933,            5742669011
         -20398289717,            8516689853
         -20398289717,            8516689853
         -20643488886,            3263199822
         -24459105115,           -5983431827
         -24459105115,           -5983431827
         -24459105115,           -5983431827
           2205979255,           -8053872846
           6201715699,          -17322162721
          12382845395,          -19047268047
          16819835511,          -20327912289
          18789545651,          -23793842359
          18789545651,          -23793842359
          18789545651,          -23793842359
          18789545651,          -23793842359
          26681828939,          -19876915123
          25686623635,          -19909014268
          26752517842,          -19512562206
          26752517842,          -19512562206
          26752517842,          -19512562206
           5841860598,            1803088724
          -5613441632,            6272292230
         -12840992277,            7604159715
         -17413305153,            8168146357
         -14485445872,            8707943954
         -10608952043,            7991917873
         -17782492080,            2951895121
         -23153655478,              60870062
         -23749105577,             704542086
         -24304700217,            1574884115
         -24829781202,             324818505
         -26911354651,           -3108696715
         -28275669183,           -1289020978
         -26911285712,             857816335
         -23561488358,            2268019894
         -23561488358,            2268019894
         -23561488358,            2268019894
         -25512473173,           19626476571
         -20661303625,           21131676891
         -17472461350,           19523636799
         -16610956293,           18926994473
         -16533446496,           18444816241
         -18714120177,           14638025403
         -20620639583,            8841165324
         -24735517953,            4844260744
         -24735517953,            4844260744
         -13210699966,            1880331360
          -2142847154,           -6418160596
          -9542841463,          -10964846699
         -14653515397,           -4248898720
         -14653515397,           -4248898720
         -14653515397,           -4248898720
         -14653515397,           -4248898720
           1338950923,          -21013091750
           1338950923,          -21013091750
          15237412254,          -14412990997
          22785352712,          -11838727041
          22486102596,           -4933185854
          24797525966,            2508806208
          24797525966,            2508806208
          29452872546,            1140879944
          31403310470,             247919275
          31403310470,             247919275
          31403310470,             247919275
          31403310470,             247919275
          31403310470,             247919275
          31403310470,             247919275
          29713258461,           19500896327
          26949918978,           26340882685
          19504944795,           24244488710
          19504944795,           24244488710
           6747387669,           16145038058
          -6981802512,           15293051025
          -7969657280,            5352363884
         -13753387935,            7088765540
         -13753387935,            7088765540
         -16487844167,              91008279
         -15663348246,            6574675289
         -12083870794,           10805516807
         -12083870794,           10805516807
         -17237548000,           12741947478
         -19941497492,            9150764909
         -15414766475,            6275086928
         -12271050673,            -924079356
         -17231102985,           -5143880893
         -18852779129,           -2638141339
         -18852779129,           -2638141339
         -18852779129,           -2638141339
         -20283641429,            9105467669
         -20283641429,            9105467669
         -20283641429,            9105467669
         -20283641429,            9105467669
         -20283641429,            9105467669
         -18064019567,          -14242015657
          -4420602335,          -14194331061
           1759116473,          -21625344722
           6418558159,          -24013668315
          10936380984,          -22151107971
          10936380984,          -22151107971
           2511754020,          -23357665140
          -2286694008,          -25512656762
            419666339,          -26203380223
          -4294907247,          -26528422094
          -4294907247,          -26528422094
          -4294907247,          -26528422094
          -4294907247,          -26528422094
          -4294907247,          -26528422094
          -4294907247,          -26528422094
           9234221722,          -25656591505
           9234221722,          -25656591505
           9234221722,          -25656591505
          -8997927064,           -6363202352
          -8997927064,           -6363202352
          -5624386770,          -17356810627
         -13414001078,           -9078667284
          -8519362644,           -9715800189
          -6761490701,          -16145024455
           -157889463,          -16654701380
           2359857071,          -11419414065
           2359857071,          -11419414065
           2359857071,          -11419414065
          19690762595,          -15724530979
          23943857225,          -18628600682
          23943857225,          -18628600682
          14879698671,           -9999328084
           7533094808,              31752331
           7533094808,              31752331
           7533094808,              31752331
          -7611735525,           14195618710
         -14239274005,           13881421203
         -14239274005,           13881421203
         -12582106974,           19716961756
          -9413596973,            7234239491
          -8207469683,            -337889468
          -8207469683,            -337889468
          -8207469683,            -337889468
          -8207469683,            -337889468
           -591268022,           17802340018
           6168724074,           22336477663
          10780475790,           24782832457
          10780475790,           24782832457
           2389268254,           20204602331
           9385708336,            8093272834
           5124370283,            1215069872
           7701122324,           -3721000039
           3854538670,          -10132545583
           3854538670,          -10132545583
            986374003,          -15374971133
          -2014087640,          -20898196580
          -2014087640,          -20898196580
           5524448212,          -13811962591
          16515029388,          -13834403139
          20752973723,           -9537146098
          23332593112,          -10060932681
          21466397308,          -12952396252
          20427611842,          -14304072501
          14516668370,          -12711829980
           8331122247,          -14583706680
           5394492124,           -9081905561
           3332320808,           -4373538064
           1486951366,            3438599144
           2342676405,            9766088649
           3800677391,           15054324762
           3800677391,           15054324762
          -2960063117,            4309332284
          -2960063117,            4309332284
         -12391331215,           10082816319
          -4707134591,           15401125346
            219823171,           12461576206
           5302454164,            8514607396
          11138935894,            3367254602
          11138935894,            3367254602
          11138935894,            3367254602
         -11530097710,           -1508392346
         -11530097710,           -1508392346
          -5051475185,           10245094520
           2634772362,           18199253465
           9181908395,           14803921478
           9181908395,           14803921478
           9181908395,           14803921478
           9181908395,           14803921478
          24466198522,           -1233666668
          24466198522,           -1233666668
          24466198522,           -1233666668
          19703319342,          -20190919503
          19703319342,          -20190919503
          19703319342,          -20190919503
          19703319342,          -20190919503
          19703319342,          -20190919503
          19703319342,          -20190919503
          -6823519486,          -14133643652
         -17187950522,           -4301079125
          -6172233857,            2937436088
          -6172233857,            2937436088
           5703291773,             -65396472
           5703291773,             -65396472
           5128364349,            5921675827
           5949888113,           15315527467
           8025386252,           19614804195
           6395500945,           21770232108
           3352033533,           22862604205
           7018307276,           22540804834
           8763734161,           24146652650
           8763734161,           24146652650
          13335083834,           14760571051
          -1510235664,           12480011990
         -11390546122,           12845468853
         -11390546122,           12845468853
         -11390546122,           12845468853
           6200009794,           -6470054072
           6200009794,           -6470054072
           6200009794,           -6470054072
          23667359690,           -5817528040
          23667359690,           -5817528040
          11770071078,             159976551
          11770071078,             159976551
           3551528454,          -10730320695
          -4540707037,           -9537545633
          -8949471894,           -6250237493
          -8949471894,           -6250237493
          -8949471894,           -6250237493
          11774232320,            4644265078
          22388622998,            3835917213
          22388622998,            3835917213
          20981940825,           -7563013086
          16947260948,          -14022586676
          13470503080,          -16955900468
          13470503080,          -16955900468
          17724468966,          -15304676626
          14137289756,          -23446391797
           7724245384,          -17756608451
          10175751741,           -8172192771
          11694337923,          -15292702472
          11224452791,          -20660473113
          11224452791,          -20660473113
          16134692628,          -21197507215
          16134692628,          -21197507215
          16134692628,          -21197507215
          29333147484,           -9684294294
          29333147484,           -9684294294
          19042259977,          -13576760791
          11312615990,           -3480959767
          11958082448,          -12379419504
          12196234073,          -19383927375
          12542512937,          -15180853093
          12674591188,           -7619414145
           4920761801,            2929374787
           4920761801,            2929374787
           4920761801,            2929374787
           4920761801,            2929374787
         -15882819575,            4627542728
         -15882819575,            4627542728
          -8401362033,           -3912254977
          -8401362033,           -3912254977
          -8480237848,             202605789
          -8480237848,             202605789
         -16852325764,            2491888688
         -16852325764,            2491888688
          -6580411589,            9161255374
           7109228600,            6521522238
           9714457863,           13664758995
           7273520455,           15717395420
           6340091214,           14797922387
           6011162475,           14737291988
           2111139013,           13163396713
           2111139013,           13163396713
           3420708867,           -1545515249
           8952432833,          -11044880675
          10825368812,          -17803719722
          14200138574,          -20465722696
          14200138574,          -20465722696
          14200138574,          -20465722696
          -1656314700,          -22056947021
          -1656314700,          -22056947021
          -1656314700,          -22056947021
          16879442356,           -3843451213
          26411617900,            -800027486
          23116763392,            8267914934
          23116763392,            8267914934
          23116763392,            8267914934
          23116763392,            8267914934
          23116763392,            8267914934
          23116763392,            8267914934
          35509087208,            -654910492
          37160617611,           -7093144258
          39460946160,           -5390302244
          34931233634,             678760209
          28882382336,            4154030159
          20752534136,            2300576777
          14034685909,            1284494492
           5465303006,            2054025127
           5465303006,            2054025127
           5465303006,            2054025127
          24441555127,           -2427652979
          24441555127,           -2427652979
          24441555127,           -2427652979
           5512676886,           16339505560
           5512676886,           16339505560
           8086640432,            3972515701
          -7738821931,            6277809052
         -14656492452,            6020638114
         -16003064140,            3731672090
         -12686834755,            3199426105
          -6164224827,           -2538620458
          -6164224827,           -2538620458
          -6164224827,           -2538620458
          -6164224827,           -2538620458
          -6164224827,           -2538620458
          -6164224827,           -2538620458
         -23642310214,           -1777034321
         -23642310214,           -1777034321
         -25189638940,           -8715025390
         -15758616668,          -10670163051
          -8665801274,          -13101686672
         -12873469616,          -15974161485
         -15344927304,          -12384781378
         -16038653221,           -5182888774
         -15665267904,            1146926238
         -15665267904,            1146926238
         -13473901489,           -6668805817
          -9696004976,          -16463551435
          -7608234115,          -22733164731
         -11260193737,          -23234573764
         -13025789354,          -23043405801
         -10226358610,          -21516350695
          -5585116987,          -17177702592
          -6672407642,           -8279909444
           2064424642,          -10008449117
           7101302769,          -14214157273
           8945420352,          -18103217993
          11353683595,          -19080900548
          12974188967,          -18186826141
           8803384960,          -16313644437
           1587772764,          -10498458138
           7246284935,          -17877364676
           7246284935,          -17877364676
           7246284935,          -17877364676
           7246284935,          -17877364676
           7246284935,          -17877364676
           7005134737,            3591972090
           7005134737,            3591972090
           7005134737,            3591972090
         -13135268331,            6379851029
         -21111461037,            9197626517
         -21111461037,            9197626517
          -9905280684,           12722510573
          -8212972548,            1219877940
          -8665847143,           -3621389727
         -12596508134,           -2028740521
         -17593826081,           -2928175493
         -18785838896,           -3842701859
         -18785838896,           -3842701859
         -18785838896,           -3842701859
           -909430431,            5685294927
           4050555945,           12415523368
          -1434377362,            7513053084
          -8849672559,            8865014488
         -12842690908,            6020352609
         -15481315932,            5313778066
         -15481315932,            5313778066
         -15481315932,            5313778066
           -528999640,          -13030727812
           4319313006,          -22041434189
           4319313006,          -22041434189
          -6744976892,          -18274106036
         -12517616835,           -8386002922
         -10883952553,            -610349628
          -8225173131,            3558345099
          -6328715267,            5424797766
           -650793684,            6544717795
           3636200479,            6992213126
           6380676444,            6931101960
           8029174638,            5515334434
           8910988390,            3422428759
           9585920022,            1568958095
           9757065298,             761582132
           9293543045,             -18415554
           8603865088,            -808404637
           7908318715,           -1143473960
           7180907014,           -1351269497
           6525993082,           -1596259748
           6140425372,           -1635097947
           5960192382,           -1558064373
           5686216794,           -1381555164
           5407503966,           -1219515692
           5326624414,           -1102200684
           5452850863,           -1072660278
           5673756134,            -944618408
           5940856155,            -783997903
           6197175450,            -710746045
           6523624857,            -701597389
           6811065810,            -689843898
           6951518974,            -769373880
           7010846675,            -946982430
           7028387079,           -1116822003
           7011026329,           -1322584710
           6887959889,           -1445195558
           6784899701,           -1440799906
           6648834155,           -1328458375
           6449317434,           -1303545471
           6380363352,           -1255233402
           6352324171,           -1096334797
           6268797525,            -889660294
           6122112492,            -702682722
           6079236182,            -587261393
           6088092282,            -407118021
           6017615626,            -320052359
           5887833682,            -414540328
           5913439691,            -424003183
           6036509085,            -172746297
           6167230479,               5515986
           6225639871,             -63241534
           6262460317,            -167100383
           6327394634,            -218049763
           6464877733,            -305978284
           6568437001,            -483836247
           6668144362,            -663777149
           6730296313,            -819164324
           6728652099,           -1002342043
           6715766634,           -1029988311
           6738822643,            -996950241
           6711546734,            -984942177
           6478295601,           -1083810435
           6221031233,           -1279881355
           6113137849,           -1307691828
           5959164593,           -1278590726
           5800119325,           -1235053148
           5733059504,           -1124976593
           5752413242,            -955957187
           5800382942,            -630864886
           5845304865,            -437626569
           5917924869,            -455454636
           6075469527,            -396389938
           6291706501,            -339913020
           6524974750,            -157172772
           6659581817,              13386687
           6756893896,               4858438
           6826024128,             -39922698
           6913757596,             -82094016
           6873693222,            -221030064
           6782303635,            -484638586
           6812437045,            -578805813
           6761459632,            -632239126
           6625075437,            -810898638
           6411058831,            -971433101
           6282211247,           -1063669155
           6223452322,            -989794902
           6123579229,            -968531694
           6022767756,            -949320798
           5938751705,            -833341891
           5765290478,            -796239925
           5627826633,            -888089348
           5717529134,            -833412606
           5883620371,            -646906548
           5987475282,            -511814742
           6077700963,            -498849614
           6218386315,            -446832166
           6361956753,            -327013533
           6460888806,            -338912999
           6432767422,            -518835079
           6362783675,            -776346033
           6371740693,            -859442899
           6416283810,            -826488486
           6401006722,            -811453810
           6336700401,            -814834001
           6278467128,            -772574173
           6203696130,            -763000595
           6087341959,            -839133170
           5983827360,            -844701409
           5880101274,            -799601783
           5811521948,            -777906981
           5710306221,            -800031452
           5693438474,            -759428168
           5783061637,            -511914637
           5863169408,            -383264714
           5871990463,            -460383561
           5934627527,            -522091645
           6037569902,            -585310999
           6152509376,            -658965113
           6231346653,            -696483210
           6302102348,            -703989382
           6385436830,            -646137941
           6484038254,            -538092875
           6483939288,            -492024377
           6417137169,            -573448623
           6400352462,            -556457342
           6397293711,            -446793132
           6375706898,            -370851051
           6300537119,            -416415899
           6232950188,            -517439008
           6140810471,            -576358150
           6031185237,            -627112705
           5869415175,            -707601018
           5775507173,            -752951564
           5778779434,            -631435493
           5773976283,            -492260682
           5753744618,            -447717821
           5824951689,            -374127838
           5913894952,            -227711131
           5987637671,            -183363411
           5999290861,            -249113030
           6003579680,            -389042379
           5998597138,            -522854656
           6114085037,            -574726925
           6246560174,            -423971728
           6260302961,            -437975157
           6216309221,            -613556806
           6267823255,            -616667248
           6291273205,            -505637626
           6220521037,            -516953818
           6134885885,            -603990189
           6114638140,            -642126006
           6070236975,            -629867838
           6000945676,            -633356191
           5969033368,            -560695638
           5941583511,            -486057428
           5881025538,            -442035299
           5682103400,            -542919299
           5466997597,            -741749247
           5478478233,            -693423349
           5539500948,            -563783210
           5625989748,            -502249434
           5765873382,            -401883476
           5844867754,            -347275267
           5906885002,            -380376714
           5950708230,            -458499869
           5973777221,            -554036927
           6017703728,            -610895411
           5989710228,            -661474985
           5980558464,            -743199549
           5993761667,            -683396479
           5977021816,            -612528440
           5913827215,            -609848731
           5904372082,            -609993877
           5883673851,            -516450948
           5859490010,            -451319158
           5781760173,            -444360214
           5666827935,            -514410071
           5588759225,            -560700580
           5558803176,            -547556148
           5588357677,            -461429646
           5637548208,            -331035378
           5695318530,            -271230599
           5749951392,            -258775929
           5783112270,            -315506389
           5749864656,            -458313931
           5645675733,            -682378966
           5592259696,            -872524206
           5620173198,            -944927109
           5690632421,            -895942753
           5707482671,            -824747635
           5649886859,            -840193956
           5679104485,            -767816913
           5669708625,            -558697828
           5667012457,            -446996368
           5655968829,            -367463619
           5659591872,            -303448816
           5624296777,            -270900168
           5540746398,            -321767833
           5562290629,            -303891759
           5583209307,            -145733584
           5532486471,             -95615620
           5470102012,            -181743974
           5380306267,            -317776908
           5271216638,            -508717068
           5280245280,            -643255975
           5439054618,            -558423824
           5574590450,            -353003883
           5581205959,            -348150212
           5447926973,            -562970459
           5297340889,            -775125429
           5271551824,            -871420779
           5336380567,            -741227141
           5384127856,            -518499560
           5360610606,            -422790697
           5303088266,            -451663787
           5300341600,            -412264959
           5263666156,            -331604987
           5228527216,            -312693005
           5171397036,            -305020654
           5153184847,            -311330497
           5244614984,            -145826349
           5275961044,             136843365
           5293805066,             281618578
           5314118269,             337768262
           5304374053,             342705912
           5301162564,             271806662
           5266024697,             190647626
           5253524173,              75282821
           5306338635,              50043011
           5326703754,              46465280
           5240003519,            -113971954
           5220015694,            -305779270
           5275401778,            -322036776
           5309940101,            -306131125
           5337785273,            -297667918
           5354891298,            -244553866
           5357786582,            -225676833
           5323690466,            -250079913
           5219123986,            -314571505
           5057202830,            -459184948
           4839504588,            -612760439
           4706512588,            -698523468
           4704119371,            -625328427
           4752286908,            -523435871
           4837243021,            -408206910
           4929757196,            -239828310
           4974177827,            -151919107
           5018130840,            -157063482
           5080495485,            -115571002
           5150059035,             -77269455
           5218328657,             -41562466
           5287974355,              36290455
           5311850217,             102146741
           5292301511,              58138232
           5218132114,             -72347480
           5123417406,            -231706595
           5071519378,            -334069311
           5003144549,            -381974217
           4983939813,            -402145873
           4975808631,            -322221022
           4945020423,            -260726951
           4882731751,            -247785891
           4860660419,            -253386370
           4894607179,            -157424807
           4900547485,             -52628641
           4908988626,             -30269980
           4947285455,              20157083
           4974442125,              63666904
           5014000175,              81866090
           5051587061,             118941814
           5082796803,             115688863
           5118869279,              93669887
           5170469350,              92576580
           5228798104,             129343759
           5253537565,             163593212
           5193683139,              85125849
           5167563825,             -49613284
           5219456033,             -26610984
           5208045877,              45384904
           5226338048,              48970923
           5243006474,             110424293
           5266196155,             197020594
           5240241062,             258365295
           5122103355,             164452027
           4993389347,              -9668782
           4939556350,             -79293449
           4947275233,             -28603580
           4949134430,              82959428
           4960954955,             180858920
           4941631055,             247548826
           4964041601,             293773380
           4902808686,             295982902
           4849924670,             175480980
           4816473204,             119838462
           4776382878,              48660966
           4830594778,              30276330
           4905213153,             123771621
           4936323159,             147039756
           4973697024,             121700868
           5027127556,             122549496
           5001421618,              72601492
           4912722989,             -79777662
           4836793753,            -226623680
           4884837013,            -236956674
           4958598685,             -35433146
           4991586420,             195950198
           4998720428,             344747732
           4990146040,             389225397
           4918049650,             312030336
           4797635924,             142148817
           4681601480,               6734830
           4671550732,             -34852908
           4650771666,              23816788
           4597799786,              23266798
           4601565919,              31545034
           4641467100,             145114513
           4642563699,             237686281
           4584714372,             199984116
           4501026889,              83560489
           4479058871,             -12073354
           4538802805,             -10025420
           4567302580,               8527006
           4544529718,             -84950865
           4522332569,            -194762335
           4558771902,            -235028517
           4613488106,            -178011374
           4589519674,            -153605783
           4487845923,            -243084167
           4457761317,            -306461942
           4454978127,            -244616061
           4427136995,            -212132411
           4440113183,            -166557714
           4483188913,             -42386155
           4520806580,             117307226
           4562260038,             308885673
           4579768806,             524453629
           4588148672,             668282632
           4555028551,             695472925
           4509320566,             623706148
           4492492566,             558355778
           4493387632,             533060148
           4491037734,             516857719
           4502805847,             490365595
           4503487499,             460212366
           4470991279,             368685376
           4431409416,             234833504
           4362193084,              98311749
           4329798688,             -30750030
           4390420226,             -33268048
           4492053884,             127791459
           4530135393,             340587410
           4514911751,             417540811
           4473454368,             349285352
           4407553447,             246664256
           4261729541,             111457729
           4106807576,             -55518720
           4066925275,             -90333634
           4100661215,              28208841
           4099191041,             135040893
           4048720452,             130748612
           4068300588,             140209891
           4114760783,             262157192
           4168215302,             364997869
           4243978571,             508111817
           4281635265,             673909040
           4236039706,             684478068
           4110604447,             512178676
           4065774416,             332730718
           4080963416,             275800341
           4081082725,             220329556
           4095490646,             174406231
           4082428516,             138808038
           4019600327,              53005116
           4020158318,               3081629
           3993596061,              24712908
           3890118463,             -36739350
           3854686040,             -77687977
           3889880909,              42559086
           3890252307,             173757343
           3903640247,             223427665
           3934009683,             308428543
           3925603924,             358112413
           3936504384,             338005740
           3937135603,             333852543
           3980516516,             317779263
           4075424090,             413182644
           4100128172,             513588819
           4128150323,             499060954
           4178468523,             523071615
           4137079316,             503695165
           4128208888,             383990968
           4169934479,             386741449
           4128588344,             381135684
           4019019338,             250858471
           3969574160,             146455848
           3995931145,             188130383
           4021311486,             319383632
           3959972388,             363578180
           3842005944,             259266217
           3811009276,             216682473
           3795364569,             272692340
           3795375755,             298364909
           3837834091,             373589865
           3866346454,             466878850
           3891319335,             497978532
           3985743451,             595126118
           3978927032,             711060156
           3893065937,             589934461
           3870117799,             441071387
           3965446169,             472092431
           3993634239,             563364905
           3976337843,             515921709
           3988608970,             449484373
           4028724643,             468690751
           4022342973,             498196364
           3899216578,             403893035
           3740412131,             225660083
           3647218050,             136886056
           3610860585,             120938595
           3567704394,             139423441
           3594095752,             180888218
           3681261362,             393438599
           3681520964,             627682400
           3668604034,             667030991
           3694530225,             678577295
           3663077897,             679937297
           3635351283,             583524748
           3696272533,             587257413
           3721863592,             640701886
           3748132682,             596173014
           3793687664,             576835847
           3747616990,             533064249
           3757491169,             426128455
           3822978358,             501694107
           3853827785,             609904713
           3774176515,             586434933
           3640531236,             424019708
           3585166406,             348720430
           3585796268,             381915357
           3614253862,             477987816
           3563212496,             551997435
           3493949007,             501031558
           3453794669,             473738863
           3446602898,             473326646
           3459226300,             486379721
           3473988923,             503036943
           3558233678,             560691722
           3642001516,             738571537
           3684310471,             892560424
           3668319399,             908209338
           3633173313,             797885934
           3627292102,             700450314
           3631742476,             642251534
           3592302498,             570315673
           3553308519,             480386722
           3541895639,             442878365
           3550143764,             444439539
           3574654105,             512601931
           3583041922,             624092998
           3545826535,             672160937
           3496262233,             634082543
           3417876471,             583638631
           3417517587,             572751466
           3460959389,             703600125
           3463911336,             866572954
           3425027820,             910015585
           3353421745,             830318960
           3336397390,             756232095
           3368472896,             786427692
           3389760383,             825831859
           3423615579,             816219311
           3497781594,             855309767
           3552979251,             948390336
           3514365903,             926824256
           3459459621,             763676918
           3522809255,             725114723
           3542481874,             811873956
           3535791368,             810622665
           3520518976,             762656220
           3534634730,             735840318
           3524784944,             759475735
           3471980581,             724046865
           3406534470,             643752787
           3333524999,             581587193
           3255131292,             540405739
           3262546027,             556208406
           3291248618,             700693529
           3294070319,             825898245
           3309306440,             900848347
           3282585089,             941934381
           3283619612,             926652564
           3300077994,             943416013
           3283042683,             933709114
           3218939522,             837939928
           3154394278,             709920984
           3137631446,             603216933
           3202364650,             578762921
           3255715791,             641323732
           3295121565,             669320468
           3342810018,             709262281
           3330508166,             735446709
           3232813052,             654503090
           3147489290,             538300528
           3094479494,             512966053
           3073514919,             529352062
           3028499462,             555318055
           2947836010,             533260445
           2980480978,             544514550
           3028730775,             682028723
           3082817860,             766268879
           3138070791,             847108616
           3214408892,             945208289
           3268371647,            1054590404
           3278776139,            1093211580
           3270734623,            1049760646
           3272271823,             979323318
           3281227983,             926270772
           3331028305,             899883096
           3369355928,             947034675
           3347270404,             959609760
           3337431876,             900295089
           3339381494,             882838491
           3339973622,             902501998
           3348595324,             951125860
           3337331414,            1016195541
           3318145878,            1052176541
           3284271622,            1035617959
           3251996607,             988949546
           3142024182,             924734178
           3054980987,             799320846
           3022374896,             792292135
           3052737147,             855944726
           3038011736,             954561444
           2959265338,             924406141
           2947210793,             847402139
           3025315118,             920151483
           3096191601,            1081467726
           3080284512,            1160841773
           3061473102,            1079652931
           3128943045,            1054240817
           3186036403,            1140182267
           3217943109,            1199306469
           3247986322,            1203622338
           3245899877,            1178509135
           3277543922,            1150432779
           3285451238,            1178521141
           3253553511,            1152792515
           3173250816,            1033877216
           3085302325,             897375910
           3065294337,             819741679
           3055143674,             841007026
           3002320824,             855282799
           2936547872,             811799277
           2868121583,             783050246
           2856095909,             780374001
           2864488995,             852283774
           2840705437,             895560134
           2840244784,             878841671
           2893183581,             908892808
           2956236495,             996433903
           2999769344,            1058528057
           3044398400,            1086305401
           3096264764,            1124806365
           3113458704,            1157388632
           3115274317,            1130402027
           3131021387,            1084540997
           3179001210,            1079267264
           3202469375,            1135206494
           3169300209,            1130767652
           3151393838,            1051752290
           3105936921,            1007900090
           3002263985,             924930499
           2923011702,             822860957
           2905366125,             822231004
           2877074062,             869914155
           2858351229,             892033513
           2844827523,             926602395
           2809747678,             941828288
           2830770638,             942472609
           2857259584,            1021939918
           2895603874,            1073003656
           2980392824,            1180219972
           3001424474,            1353927779
           3010685974,            1451826945
           3029925837,            1503920963
           3024977081,            1525023397
           2964266164,            1457999273
           2895999190,            1292725513
           2956167960,            1208091773
           2989616279,            1268877984
           2981354981,            1242317691
           2952138848,            1154880141
           2907976476,            1066015060
           2843702871,             976700108
           2823296753,             913530696
           2803056303,             930268338
           2814118975,             963428495
           2819421813,            1043433050
           2786145329,            1095500441
           2735262344,            1083076120
           2713890354,            1064987288
           2670433018,            1083203114
           2628212652,            1054168547
           2641681725,            1051843504
           2644680945,            1092201785
           2694461808,            1089223921
           2762671321,            1162356499
           2792238921,            1209053451
           2808120578,            1170976690
           2851914041,            1145547856
           2917512401,            1184330321
           2928914211,            1224482540
           2919633023,            1175630596
           2857302683,            1089587592
           2785372226,             978562765
           2746085935,             922176873
           2746566962,             934340025
           2757655416,            1001324613
           2758013969,            1102636050
           2758859350,            1203590553
           2720467183,            1271005484
           2647483821,            1239987647
           2631677034,            1177288935
           2650929700,            1224864756
           2650421227,            1305535302
           2650195459,            1351460430
           2627380199,            1368649591
           2619555488,            1345513533
           2629176384,            1344259042
           2620896854,            1337079307
           2597968575,            1281114328
           2591045334,            1208631190
           2622702312,            1151348113
           2708861363,            1170094666
           2797547761,            1287600341
           2787359633,            1386004407
           2773216799,            1327198898
           2802801658,            1280160941
           2762619465,            1267198949
           2701824608,            1170814492
           2722605824,            1112054082
           2703003228,            1155324651
           2654754382,            1145583199
           2670357825,            1132461505
           2638753898,            1193935826
           2624179011,            1200879428
           2600191652,            1233799451
           2576847360,            1248659574
           2606988225,            1292787511
           2598232179,            1393419009
           2555135817,            1431223272
           2547484098,            1407925628
           2577523104,            1440871382
           2548049065,            1496354457
           2507517468,            1447803886
           2515320141,            1390700818
           2520665930,            1392229746
           2484193845,            1350679759
           2452508016,            1250353054
           2489816080,            1197346282
           2534013989,            1208396762
           2567715433,            1201366585
           2600945137,            1189508536
           2618208686,            1177716032
           2626310876,            1154980095
           2602100873,            1136233225
           2564426784,            1093331565
           2526932777,            1053553031
           2501235122,            1044992216
           2451647753,            1053974149
           2413715105,            1047596453
           2419471398,            1082816957
           2412436497,            1168080246
           2392383918,            1209077414
           2377017259,            1205200057
           2377681687,            1204863169
           2427818418,            1227219307
           2481196389,            1311877397
           2545479962,            1401578431
           2573398675,            1482225908
           2563894983,            1478509316
           2585339701,            1413349562
           2606971385,            1394932593
           2650923240,            1390514400
           2684905148,            1425348354
           2697700226,            1450655230
           2690793788,            1437550038
           2648661139,            1377947384
           2585255404,            1276234588
           2531404602,            1187051941
           2528461151,            1155102654
           2518531276,            1188541068
           2492365438,            1209811751
           2457016504,            1211180440
           2443180742,            1217653942
           2438527924,            1268007356
           2395716609,            1314619229
           2386123174,            1303707430
           2372101444,            1336137584
           2388687839,            1367885860
           2406233614,            1420468991
           2373262564,            1448543750
           2374911002,            1392490675
           2402650933,            1386992314
           2472617918,            1417082751
           2492104600,            1476029829
           2528637753,            1483861272
           2563740021,            1499088639
           2589823050,            1500521032
           2605867427,            1489079090
           2565487221,            1438093695
           2555497905,            1334091624
           2574557000,            1308287718
           2510262410,            1276697424
           2407532693,            1160754845
           2353239384,            1079647737
           2306113045,            1079138691
           2280232785,            1085560323
           2273278862,            1126157981
           2259450658,            1186837812
           2265865964,            1234259600
           2259511409,            1299420446
           2268565607,            1312367598
           2337517622,            1376650562
           2353560042,            1493741848
           2368384317,            1523821757
           2390347150,            1530867383
           2409299318,            1529839846
           2397453244,            1494008393
           2408914491,            1417350773
           2453126918,            1385109813
           2498293494,            1387983382
           2520770895,            1399408363
           2551275888,            1411594543
           2529997252,            1431234459
           2495886511,            1377423713
           2436431507,            1310570529
           2418248694,            1245450668
           2418240640,            1271587429
           2407220266,            1336693175
           2380052148,            1379905156
           2340365618,            1381099509
           2293821371,            1355575770
           2269320701,            1332305421
           2250978431,            1353853001
           2240449624,            1385063438
           2267199018,            1413525678
           2296513495,            1490270826
           2283805657,            1565302106
           2243122490,            1555407425
           2258687647,            1502934837
           2288661390,            1518897560
           2346286487,            1540333423
           2383434670,            1585127786
           2413887808,            1605860220
           2443394226,            1616193317
           2429376905,            1601079442
           2397191889,            1518825409
           2354156221,            1407980773
           2352577192,            1316594173
           2370571009,            1300695821
           2380210334,            1321190633
           2362405711,            1338765420
           2327677378,            1318770686
           2290165305,            1288469796
           2237145887,            1275742189
           2250341545,            1270752582
           2207210752,            1336335431
           2169012460,            1322999081
           2165874947,            1335570641
           2138138945,            1382880249
           2125484208,            1371338679
           2143175679,            1370374158
           2179526178,            1395642886
           2221250683,            1425835632
           2265298448,            1437012684
           2295206699,            1421925621
           2339871495,            1402226255
           2363344521,            1415607616
           2363577807,            1395358578
           2387146893,            1356129889
           2379141989,            1364951349
           2354450593,            1328878190
           2327473107,            1289185063
           2324532419,            1284450353
           2268052247,            1304710432
           2157383159,            1261062492
           2069282840,            1192984815
           2058183703,            1212760865
           2096737171,            1299305780
           2118212190,            1406705505
           2159133567,            1482288708
           2189780739,            1586175563
           2206766706,            1666573407
           2176062260,            1687517826
           2137850260,            1610181806
           2148421461,            1530411932
           2194757085,            1505486601
           2269124263,            1526177363
           2297321338,            1584128303
           2351710413,            1603876463
           2324782776,            1628818570
           2252548077,            1535046348
           2278836871,            1425551817
           2292167345,            1471380256
           2264669261,            1498791487
           2212542823,            1459426696
           2151324469,            1395136625
           2120830536,            1359011931
           2093244530,            1374918631
           2073313004,            1389086821
           2043947717,            1418037845
           2049582303,            1443946154
           2060620251,            1521551955
           2027047409,            1574443646
           2054025794,            1559435869
           2106765993,            1635670864
           2113302266,            1752647108
           2107494236,            1818684191
           2102065134,            1829747482
           2103358765,            1804124384
           2105544731,            1768554739
           2110733885,            1718610299
           2144825570,            1666641600
           2139614441,            1632974282
           2117930037,            1548976952
           2074414738,            1469405048
           2080702220,            1396075486
           2115857907,            1410176884
           2128900438,            1465257514
           2126920015,            1510579156
           2073826835,            1528500285
           2018340305,            1470473573
           1972473396,            1430020619
           1959336434,            1427045174
           1973543927,            1483721910
           1919232593,            1555091591
           1886779460,            1513556194
           1887874632,            1531921812
           1871264493,            1554730166
           1828728554,            1510517446
           1844776135,            1451345409
           1917597551,            1470751217
           1999949144,            1533774091
           2059281668,            1597951706
           2097059239,            1638209116
           2094861076,            1638795751
           2125985629,            1589738980
           2135962685,            1597819455
           2128559027,            1592088239
           2074206328,            1567215272
           2068253859,            1486813005
           2097296953,            1510904407
           2073407553,            1586303178
           2027977357,            1602487051
           1972084437,            1564971192
           1873287499,            1526500711
           1790560030,            1456623961
           1815797168,            1455635059
           1797540155,            1556356556
           1731843322,            1567644831
           1711191652,            1493561479
           1750941950,            1492064610
           1846590599,            1523303953
           1927443309,            1613973381
           1959345877,            1673846510
           1933930065,            1641870362
           1879963732,            1537025590
           1841340823,            1452871876
           1807403150,            1402650069
           1773887402,            1386541466
           1775250241,            1398666072
           1756594657,            1462203786
           1740084108,            1499582508
           1728532593,            1533154100
           1713576535,            1567741098
           1696119828,            1587570966
           1686236550,            1589128241
           1737122519,            1587090674
           1786986735,            1644185170
           1814274399,            1654569601
           1882934698,            1634300476
           1934990592,            1683114524
           1957557872,            1713381430
           1947204295,            1687954229
           1944541069,            1628848370
           1992306331,            1624689990
           1985202625,            1675039244
           1989482341,            1670675535
           1977172053,            1675911040
           1947942603,            1666361774
           1932035495,            1640052704
           1904695192,            1636619340
           1895615849,            1639066274
           1877058076,            1668000570
           1849688226,            1689447500
           1792783727,            1690805299
           1741231416,            1650683385
           1703752323,            1631685835
           1700489935,            1627899139
           1702700499,            1650797058
           1760516309,            1673460429
           1815804210,            1779705322
           1793772397,            1862557539
           1816028551,            1804500907
           1867920243,            1816241114
           1872947157,            1841306828
           1864463787,            1776147728
           1834513629,            1691092931
           1793929403,            1597501893
           1788452394,            1526407779
           1797239346,            1515227883
           1766762036,            1530225214
           1724294268,            1508554104
           1727921060,            1511776184
           1731908000,            1591888560
           1707364521,            1674618024
           1684651739,            1715330737
           1637254421,            1726741588
           1602864957,            1700780657
           1591892956,            1692220356
           1583641687,            1694796165
           1573821943,            1670914777
           1575396724,            1621937347
           1591036531,            1573689985
           1635680786,            1533399207
           1695856788,            1525989906
           1747835101,            1559723544
           1759980887,            1582906224
           1785706047,            1585703114
           1816773654,            1632242527
           1800275404,            1693437112
           1744210193,            1685330260
           1706606571,            1629448636
           1675868910,            1621671584
           1653174866,            1635601837
           1604163096,            1655647858
           1551602906,            1638937387
           1588250429,            1640680428
           1591416117,            1748114181
           1557073859,            1801539748
           1573864476,            1760277008
           1595597211,            1789488963
           1654296725,            1803044208
           1681968312,            1853457429
           1698431741,            1843844735
           1755929347,            1825563025
           1797174914,            1865460568
           1798297728,            1886816131
           1769487247,            1837396857
           1715322648,            1747047173
           1691510281,            1656017923
           1682823173,            1620224084
           1669951017,            1618149240
           1635115494,            1624071909
           1588564899,            1614352327
           1539406372,            1601727252
           1522831449,            1611959794
           1517416109,            1660062972
           1502815880,            1705553176
           1503664534,            1717787321
           1498415079,            1741895550
           1516598471,            1732554319
           1577728607,            1736407650
           1646413555,            1780992844
           1674783428,            1815060439
           1702997028,            1803580211
           1740262657,            1801607848
           1776665355,            1817859955
           1765722633,            1824534379
           1724682815,            1766644832
           1736707626,            1693985903
           1740636793,            1712076840
           1720354127,            1721694787
           1715471970,            1715967780
           1699331689,            1745680437
           1672525520,            1760953989
           1630447215,            1751718461
           1549644967,            1720969846
           1501424661,            1667290891
           1497586559,            1685595610
           1511279085,            1754443602
           1514951098,            1836389951
           1510613871,            1888788751
           1483281859,            1908762723
           1471464862,            1865580658
           1503978683,            1843436053
           1537021395,            1853837444
           1545963857,            1834133692
           1550152580,            1776929124
           1529759329,            1716384148
           1539104847,            1632730950
           1554340907,            1616854492
           1588849941,            1630360154
           1585946583,            1669814606
           1526193881,            1677890890
           1508966655,            1617990832
           1499591599,            1651053700
           1464374236,            1694319868
           1436064001,            1701521388
           1421796436,            1719135748
           1413049256,            1750201318
           1418017614,            1777405964
           1435269047,            1799730010
           1446831309,            1816018964
           1471809029,            1808613520
           1507140745,            1808791225
           1562609249,            1806803783
           1622630196,            1826439133
           1663029173,            1866602353
           1668714403,            1888014933
           1677229221,            1860412017
           1686037687,            1837164279
           1673613928,            1806513815
           1632621813,            1758848433
           1597465911,            1703573594
           1616700436,            1688444467
           1585021778,            1744239037
           1506022073,            1752842115
           1474732017,            1684257204
           1475046006,            1709616613
           1447950717,            1768649901
           1428133584,            1790070111
           1437532598,            1807872120
           1424126039,            1854262111
           1429101388,            1865881828
           1455890774,            1900166856
           1470206378,            1960092729
           1498507527,            2000282707
           1478427164,            2032625411
           1477165870,            1970039063
           1519441932,            1934308595
           1564982449,            1940148507
           1584699111,            1938199453
           1617927208,            1912445448
           1620049793,            1903681400
           1611828956,            1851571820
           1637112824,            1811891358
           1624675078,            1819770870
           1594483006,            1797486003
           1569807007,            1755524171
           1566743897,            1735948151
           1542356109,            1757624612
           1467756700,            1768924951
           1390591994,            1728592022
           1374864417,            1704492048
           1380122575,            1757555713
           1367634930,            1820854747
           1362428245,            1831487996
           1367050357,            1841673542
           1421348820,            1865877766
           1449469830,            1936596310
           1470871060,            1954064544
           1502434553,            1933313582
           1541823905,            1916277113
           1581412384,            1924070932
           1587299926,            1913416458
           1565404857,            1861223257
           1575557530,            1800660997
           1603036493,            1801086787
           1552274082,            1825951877
           1497423567,            1759989427
           1433913014,            1718502029
           1384122962,            1701775622
           1353946858,            1718922723
           1343383922,            1754498788
           1338677593,            1814408886
           1330108627,            1867595988
           1353829167,            1889371593
           1360821834,            1931648258
           1357331616,            1915531065
           1404894526,            1878576201
           1479162165,            1915281087
           1535274686,            1982916226
           1564256943,            2048384007
           1564350754,            2073961524
           1535383295,            2027749606
           1527678545,            1936271612
           1522367033,            1883384153
           1523827891,            1853647196
           1512138938,            1842118396
           1512825431,            1837162164
           1490360244,            1847898446
           1416746354,            1854143998
           1376188868,            1789145159
           1363020972,            1800776738
           1338064019,            1855121102
           1322069754,            1889607018
           1281343072,            1919618626
           1284109914,            1905595159
           1315580742,            1946146754
           1320941782,            2008118238
           1309127399,            2009316592
           1310996831,            1952661939
           1348721270,            1910904852
           1391058395,            1888572459
           1423174275,            1864461468
           1466019516,            1838462249
           1487005360,            1842938093
           1484729241,            1843004410
           1489280467,            1827817910
           1496466976,            1834225364
           1452381754,            1852182275
           1395785254,            1822150214
           1359301209,            1795015814
           1339753401,            1803050022
           1320187416,            1841961024
           1307024785,            1885202412
           1320063739,            1918202855
           1308932648,            1988131231
           1301290336,            2034079601
           1307009542,            2065851666
           1286345379,            2092530246
           1250103474,            2082991522
           1261446959,            2028047004
           1301879613,            2025873613
           1347685897,            2044580823
           1378304146,            2056056760
           1392502782,            2037942488
           1412287649,            2003996523
           1410733000,            1970906785
           1410482006,            1912959337
           1420813117,            1870181900
           1423150175,            1859838693
           1409264763,            1853712774
           1386144572,            1842622788
           1361795407,            1828201005
           1369441110,            1824710262
           1326440872,            1866717647
           1282919519,            1846005090
           1267117869,            1839713307
           1253446952,            1883641250
           1227243625,            1912889256
           1204051840,            1932556959
           1216320370,            1931267731
           1256160330,            1965320076
           1305574165,            2029529237
           1311374726,            2094646508
           1329367602,            2093165436
           1390137251,            2090764136
           1424206402,            2149167550
           1421047757,            2176665807
           1457363472,            2153215982
           1463958486,            2163089557
           1478192570,            2141972299
           1507212428,            2127993509
           1507956737,            2123137027
           1508547083,            2089270557
           1472246564,            2042596805
           1392218856,            1977505901
           1318249132,            1886959252
           1301059880,            1833512319
           1277717161,            1849353526
           1250203449,            1863565520
           1227992534,            1882276511
           1211982106,            1914018895
           1202851637,            1957270653
           1189095964,            1995342297
           1181191216,            2025274495
           1156479856,            2055685482
           1164230413,            2043548863
           1184610686,            2060611070
           1216318820,            2065197226
           1285535226,            2088898347
           1309761556,            2164558114
           1327670766,            2192387430
           1344883331,            2187628973
           1366636204,            2168026131
           1395960491,            2151190079
           1370424590,            2137102760
           1365413529,            2050084712
           1388699033,            2001510717
           1351834397,            2001368912
           1307022956,            1939395284
           1288968846,            1891004762
           1266081399,            1896753860
           1232544693,            1908712760
           1186958686,            1916187535
           1152624690,            1916812248
           1137202174,            1940898702
           1135947663,            1983599816
           1130998210,            2028144715
           1151594515,            2054187604
           1158350562,            2096777366
           1160336373,            2086233492
           1151732825,            2049906888
           1173505118,            1983205839
           1247899008,            1958976455
           1284939314,            1993323072
           1275900081,            1986365122
           1246038651,            1924080282
           1252478226,            1867183659
           1260930472,            1881417542
           1215381298,            1923748957
           1160724963,            1907084689
           1115974039,            1890741585
           1131890720,            1894531200
           1112708858,            1978497171
           1096767106,            2023338093
           1086761827,            2041536569
           1118774252,            2050086316
           1149871927,            2119876505
           1137444640,            2198666220
           1152682316,            2197272299
           1176384538,            2198694898
           1197318705,            2203646943
           1220520679,            2196388575
           1244521702,            2182007230
           1280792732,            2158545803
           1305061238,            2143943887
           1291212833,            2105369661
           1288412491,            2037760689
           1311278488,            2008916876
           1338945364,            2026567422
           1337001858,            2075644660
           1325289432,            2094799005
           1305445504,            2088399351
           1260640256,            2059200925
           1202717752,            2007857513
           1173861692,            1960783192
           1134336545,            1975150641
           1079612373,            1985246729
           1031491805,            1977023286
            991663299,            1995043196
            988216265,            1993856860
           1008406492,            2013801842
           1087050953,            2036415155
           1158939221,            2121266844
           1181011886,            2206195456
           1188072271,            2214748462
           1205147954,            2159372423
           1227780870,            2121372894
           1232797330,            2095611762
           1190671470,            2063106863
           1175743514,            1975982452
           1166137126,            1962031413
           1114734153,            1984396047
           1065424831,            1957462485
           1028530908,            1960202684
           1010070213,            1991786575
            991283519,            2045638365
           1010661863,            2078792448
           1043726726,            2139529818
           1035524780,            2222500417
           1033753290,            2247529145
           1021798177,            2254717955
           1031088641,            2205446316
           1081746371,            2161933838
           1129188376,            2165249514
           1191443870,            2171926572
           1220490969,            2203745364
           1224587702,            2211824479
           1232509539,            2197146928
           1206308930,            2173794614
           1167503388,            2108786239
           1109857792,            2059567985
           1039760180,            2028703400
            987015693,            1996659787
            960764279,            2010033388
            919019568,            2073961876
            900576932,            2070705563
            940132147,            2100986063
            968290735,            2193043943
            994717909,            2236575302
           1029396780,            2242560731
           1079443471,            2255286215
           1125727687,            2271328283
           1138653651,            2275302598
           1163667423,            2241728422
           1186752659,            2224707893
           1176033134,            2212057291
           1186667180,            2165196044
           1178075009,            2149911179
           1149801556,            2129945720
           1138270199,            2087464146
           1120078226,            2086571189
           1078399484,            2098841623
           1034279395,            2094119056
           1004362128,            2096645505
           1009598397,            2118337028
            977654740,            2185011697
            978019036,            2217246505
            960437061,            2274812432
            979869607,            2285926068
            989602705,            2323792735
            989163940,            2346920501
           1026851309,            2333134832
           1054513374,            2370879009
           1064937748,            2413563450
           1064096992,            2401355690
           1055604513,            2346821482
           1069314150,            2272755516
           1130088943,            2230133361
           1144521087,            2246047029
           1131138035,            2224078099
           1077928588,            2175011206
           1017543850,            2114091427
            987835964,            2070605691
            986982426,            2076356377
            959571645,            2133898014
            924183937,            2176787103
            890558400,            2182927391
            894403539,            2176664591
            865078208,            2239612559
            866476235,            2239789846
            913145305,            2263882919
            936692271,            2330242609
            941490341,            2365637564
            967636017,            2347195784
           1003698169,            2341372608
           1040130788,            2326025824
           1065956961,            2327129788
           1097418353,            2308740839
           1146824688,            2299135279
           1160427166,            2322179816
           1137302145,            2331698799
           1089462815,            2295981905
           1043757428,            2210227791
           1033960859,            2152822389
           1031805140,            2149674694
            983016060,            2184769368
            932882007,            2184805900
            922485386,            2165518705
            906304423,            2196841189
            880701594,            2235268310
            886148943,            2250834990
            854429647,            2311166237
            837168878,            2317503175
            864735413,            2316004363
            873849198,            2364428258
            882430519,            2373538249
            925786722,            2354164967
            969570963,            2361760013
            999066856,            2357932270
           1000459469,            2332878245
            988509650,            2272445367
           1010573262,            2201970619
           1025734452,            2188800523
           1025511815,            2186142500
            997387423,            2182423000
            969683938,            2157666698
            968039500,            2138209890
            951598140,            2158371924
            929140921,            2184808272
            892222239,            2209949833
            836812545,            2230843956
            835663936,            2210245653
            843364611,            2241874495
            850219201,            2290139254
            839015881,            2353520458
            844275194,            2355523038
            884199932,            2347948138
            928240439,            2372394310
            943195587,            2406484799
            942251211,            2379951157
            950766316,            2310023172
            969050656,            2263356862
            986378363,            2221364048
            973852250,            2199604706
            948579526,            2173435971
            938862397,            2145313970
            923551144,            2142911147
            890344475,            2158123041
            872867284,            2154952807
            864888161,            2169959455
            840584641,            2214724019
            811675301,            2255655842
            792816861,            2264753380
            779821118,            2280879066
            777770864,            2297782047
            784877275,            2317408765
            825312683,            2329179590
            873522982,            2365649401
            906005369,            2418473686
            899008071,            2475584255
            907201651,            2449386048
            927056624,            2408525794
            960535485,            2376569957
            998978351,            2366429561
           1007916007,            2369708973
           1006583317,            2337594025
           1006958032,            2292119193
            952875518,            2268948909
            896978823,            2201022933
            853895732,            2156513540
            825630127,            2152300487
            813543900,            2161958780
            794147175,            2202536801
            767804509,            2248884825
            745838124,            2277578345
            734789048,            2301791571
            731900538,            2327953813
            747579096,            2350020072
            767224235,            2381266335
            775683852,            2403724643
