                    0,                     0
                    0,                     0
                    0,                     0
                    0,                     0
           -636316586,              -3556233
          -1776868260,            -647694642
          -1776868260,            -647694642
          -1776868260,            -647694642
          -1900431930,             -15861753
          -1369331416,             406921182
          -1369331416,             406921182
          -1306632684,              19819884
          -1190033451,            -217398481
          -1198738298,            -741658118
          -2001293326,           -1175467385
          -2773782934,            -660920503
          -2773782934,            -660920503
          -3354031416,            -867562976
          -4219778116,           -1807903730
          -4219778116,           -1807903730
          -4219778116,           -1807903730
          -5068297933,           -1527733944
          -5068297933,           -1527733944
          -4839932711,           -1530380058
          -4781584061,           -2053840491
          -5321313115,           -1886624322
          -5321313115,           -1886624322
          -6128041364,            -992506969
          -6128041364,            -992506969
          -6128041364,            -992506969
          -6526943994,            -607348552
          -6988928121,            -961703962
          -6737495746,           -1513050479
          -6876703046,           -2081159351
          -7285098174,           -2627102629
          -6571454245,           -2216794289
          -5836269961,           -2076493237
          -4798467113,           -2130060384
          -4538039310,           -2280583439
          -4538039310,           -2280583439
          -4946186614,           -1647014306
          -4812641660,            -700361659
          -4812641660,            -700361659
          -4968310971,            -501747149
          -5292251323,            -355721158
          -5375938840,             289562383
          -4956962637,            2084761777
          -4956962637,            2084761777
          -4956962637,            2084761777
          -4638042389,            2839042729
          -3829749173,            2995157715
          -3088654426,            2888891214
          -2113974876,            2328521282
          -1483239552,            1545735060
          -1483239552,            1545735060
           -984527743,            1577567131
           -143631770,            2104080836
          -1298963988,             365921163
          -1298963988,             365921163
          -1298963988,             365921163
           -599058777,             330206493
             71174503,              33448695
           -443000613,             508643481
           -732797294,            1074119002
            321600658,            1170434055
            105720893,             127796988
            105720893,             127796988
            358000526,            -239849230
            484627927,            -697602296
            863202653,           -1096269388
            639635291,           -1543582341
            126701359,           -1469408640
           -387058979,           -1712850384
          -1019692305,           -2821106044
          -1019692305,           -2821106044
          -1019692305,           -2821106044
          -1418337257,           -3078115268
          -1890936376,           -3233311148
          -2622114917,           -2662115720
          -2543517165,           -2299122747
          -2543517165,           -2299122747
          -3046203831,           -2767715291
          -3911061092,           -3047937696
          -3911061092,           -3047937696
          -4171366293,           -3011905684
          -3848217701,           -3179215841
          -3451019288,           -3838779442
          -3451019288,           -3838779442
          -4438520711,           -3665289848
          -4438520711,           -3665289848
          -4041617138,           -3152910887
          -3750470849,           -3594811093
          -3663378481,           -4144462868
          -3868776987,           -4681995277
          -4195726953,           -4345853229
          -4653548680,           -4573971475
          -5673583391,           -3921356255
          -5673583391,           -3921356255
          -5673583391,           -3921356255
          -5398792138,           -3464912276
          -4501890131,           -3592289039
          -3625094775,           -3446241130
          -3625094775,           -3446241130
          -4495682447,           -2969124292
          -4495682447,           -2969124292
          -4592490344,           -2539491468
          -4947596365,           -2055389275
          -5299948580,           -1971820602
          -5474601404,           -2490086209
          -5426575156,           -3334921123
          -5426575156,           -3334921123
          -4340447787,           -3416177469
          -4340447787,           -3416177469
          -3667290297,           -2630750752
          -3330746265,           -2429694700
          -3330746265,           -2429694700
          -3093415121,           -1649885097
          -3093415121,           -1649885097
          -2752294673,           -2007738935
          -2617699549,           -1641486762
          -2557339715,           -1949331771
          -3178820782,           -2029445495
          -3178820782,           -2029445495
          -2961011690,           -1875183861
          -2634282618,           -1774434125
          -2340119799,           -1491108563
          -2457899287,            -662126768
          -2457899287,            -662126768
          -2688539167,            -800077660
          -2576757747,           -1124486997
          -2240090759,           -1815035437
          -2240090759,           -1815035437
          -1508023672,           -1054738353
          -1508023672,           -1054738353
          -1549051517,            -103827756
          -1116032915,            1703173342
          -1116032915,            1703173342
          -1116032915,            1703173342
          -1586384064,            1857500035
          -2028914921,            2284999975
          -2571435163,            2512688871
          -2975788388,            2910029574
          -3231702263,            3489740917
          -2495698589,            3624742835
          -2558706174,            2553758281
          -2841955486,            2000512220
          -2841955486,            2000512220
          -2442754658,            2568525509
          -1872207847,            2549143796
          -1457611203,            2375677667
          -1409897089,            1688376648
           -543868250,            1502030603
           -543868250,            1502030603
           -470363988,            2328819539
            -22701856,            3247343710
            -22701856,            3247343710
           -391403958,            2987923418
          -1064051891,            3457884073
           -896680428,            4336928464
           -896680428,            4336928464
          -1214867710,            4686065079
          -1485119279,            5441066089
          -1569414720,            7210569391
          -1569414720,            7210569391
          -1569414720,            7210569391
          -1646824558,            6560119316
          -1912844619,            5840561379
          -2479476740,            5852640943
          -2011527819,            6595450017
          -1624940464,            6983425682
          -1624940464,            6983425682
          -1928058537,            7187221897
          -1868785569,            7308612914
          -1875080711,            7531081741
          -1641050423,            8013616670
          -1641050423,            8013616670
          -2427063551,            7823794465
          -1710006550,            9264117877
          -1710006550,            9264117877
          -1710006550,            9264117877
          -2621690880,            8760402644
          -2621690880,            8760402644
          -2997101256,            8070731349
          -2370528033,            7229450396
          -1464109727,            7429977039
          -1464109727,            7429977039
          -1441620654,            7591163265
          -1773153118,            7948930719
          -2235793724,            8554108352
          -2235793724,            8554108352
          -2222517589,            9006291134
          -2634074601,            9655832101
          -2634074601,            9655832101
          -3346537885,            8850340496
          -5178877034,            8198283223
          -5178877034,            8198283223
          -5178877034,            8198283223
          -4639026293,            7630112876
          -3616261380,            7150971224
          -3616261380,            7150971224
          -3624954229,            6095041853
          -4289299717,            4366002369
          -4289299717,            4366002369
          -4289299717,            4366002369
          -4289299717,            4366002369
          -4533624970,            3711658055
          -5071268177,            4107736222
          -4450673612,            4489131309
          -4257042478,            3983421319
          -4224718951,            3251361095
          -3582581307,            1865330072
          -3582581307,            1865330072
          -3582581307,            1865330072
          -4484020301,            1662953114
          -4484020301,            1662953114
          -3921917798,            1247909313
          -3921917798,            1247909313
          -3708741661,            1531236650
          -3223491626,            1770642245
          -2850994936,            1265507127
          -2711101767,             622775737
          -3198488200,             225064855
          -3605467053,              86236965
          -3646372697,            -238606594
          -4121646187,            -293055647
          -4631341598,            -133061433
          -4828390242,             591640960
          -5459253874,            1071005480
          -5459253874,            1071005480
          -5661382597,             653118851
          -4992293036,             653279264
          -4422371897,             488715118
          -4345550470,              71904053
          -4007483734,            -519615320
          -3155442663,            -494931860
          -2235100327,               9698693
          -2407766360,            1004575248
          -2407766360,            1004575248
          -2782056743,             472412238
          -3411014608,            1139659007
          -4081778284,            2780506483
          -4081778284,            2780506483
          -4081778284,            2780506483
          -4711774555,            2706027161
          -5156181202,            3525197892
          -5326900023,            4019635246
          -5326900023,            4019635246
          -5605767692,            3859980742
          -5995885665,            3767854262
          -6510031388,            3809239615
          -5933663231,            3412698249
          -6037704619,            2943556174
          -6496154797,            3331036820
          -6290837254,            4117171143
          -6290837254,            4117171143
          -8034847422,            3864806989
          -8034847422,            3864806989
          -8034847422,            3864806989
          -8034847422,            3864806989
          -8034847422,            3864806989
          -8221774944,            4078812097
          -8691722063,            4183558870
          -9450806046,            3940432852
          -9450806046,            3940432852
          -9206630235,            3116681853
          -7993691046,            2909393296
          -7091859190,            2362899549
          -7091859190,            2362899549
          -7777718279,            1906816422
          -7544386731,             -83123356
          -7544386731,             -83123356
          -7544386731,             -83123356
          -7741152911,             535297783
          -7787980310,             957041680
          -7638744485,             973583670
          -7793789198,             846986328
          -8269662451,             605236233
          -9825458844,             -57165950
          -9825458844,             -57165950
          -9825458844,             -57165950
          -9199340551,             886510688
          -9199340551,             886510688
          -8965611078,             184885615
          -8965611078,             184885615
          -8317046076,             332733799
          -7914183661,             594245496
          -7578262859,            1334728907
          -6897653206,            2069156099
          -6897653206,            2069156099
          -6545853257,            2508973666
          -6818716437,            3054461262
          -7073735438,            3970792998
          -6021580155,            3944425553
          -6021580155,            3944425553
          -5375391095,            4612789141
          -4570258382,            4969725587
          -4570258382,            4969725587
          -4508835046,            5568048033
          -3909068966,            5315866045
          -3770247168,            4299854160
          -2755196620,            2495821288
          -2755196620,            2495821288
          -2755196620,            2495821288
          -2350415140,            2986117146
          -2173947195,            2727030386
          -1893791072,            2796180098
          -1221703116,            2775364035
           -912912213,            2234272988
           -912912213,            2234272988
           -800596491,            3008353714
           -800596491,            3008353714
           -633102828,            3920313374
           -360226740,            3829560712
           -360226740,            3829560712
           -311945388,            4171586789
             92221418,            4638416428
            822889001,            4417248386
            344931415,            3815925115
            855340692,            3175321354
           1252497024,            2530353235
            364997349,            2235162832
           -510659650,            2476625695
           -510659650,            2476625695
            -17105904,            1616643845
             71652820,             905427710
             71652820,             905427710
            284737743,             220413720
            340620120,           -1139113392
            340620120,           -1139113392
            340620120,           -1139113392
            340620120,           -1139113392
           -170799121,            -793214804
            631924439,            -228066414
           1524235420,             110822326
           1524235420,             110822326
           1294560410,            -848945786
           1294560410,            -848945786
            829700655,            -357960151
            555176602,             238227769
           -184932711,             189909241
           -762393367,             467995047
          -1139296285,             -41691899
          -1651832881,             793558847
          -2346876633,             680998308
          -2346876633,             680998308
          -2203030088,              86456780
          -2203030088,              86456780
          -1857866601,             898789694
          -1802130603,            2675712269
          -1802130603,            2675712269
          -1802130603,            2675712269
          -1802130603,            2675712269
            184668600,            3110836976
            184668600,            3110836976
            184668600,            3110836976
            174905300,            2456909566
            477948529,            1869747206
            252125006,            2790205751
            321079158,            3426248797
            321079158,            3426248797
            -13474037,            3405296843
           -331092100,            3965853489
           -450008356,            5779613169
           -450008356,            5779613169
           -450008356,            5779613169
           -305988282,            6086654454
             28938904,            6397084622
            615107523,            6751256260
           1255965423,            6506500575
            927896205,            5944455246
            670972482,            6443905758
             62587579,            6338036009
            189195841,            7088977483
            644085978,            7665137121
            644085978,            7665137121
           1278994471,            7704374842
           1627679291,            7265378839
           1627679291,            7265378839
           1578848912,            8335907663
           1578848912,            8335907663
           1578848912,            8335907663
           2304577558,            6926189261
           2304577558,            6926189261
           2304577558,            6926189261
           3910477478,            7620346715
           3910477478,            7620346715
           3910477478,            7620346715
           4057069605,            8072148446
           3626378763,            8388940385
           3380407338,            8782127912
           3356563421,            9120570140
           3419941748,            9309444992
           3526766273,            9528234660
           3568565744,           10096466682
           3628462069,           10441003951
           3628462069,           10441003951
           4215637889,            9973446752
           4220582241,            8769750701
           3167959079,            8206159295
           3167959079,            8206159295
           3186489053,            7689579045
           2692126886,            7482985143
           2060506806,            7482528733
           2595544498,            7197093055
           2595544498,            7197093055
           2273229595,            7672123799
           1918764724,            8058351874
           2532244494,            8211520876
           3555292250,            8125714437
           3062086425,            5820358699
           3062086425,            5820358699
           3062086425,            5820358699
           2381114062,            5868245193
           1373139159,            5708419582
            482602851,            5964600441
            482602851,            5964600441
            838412545,            6109785573
           1289095635,            6533700116
           1835159126,            6281331332
           2279068222,            6014082224
           2539062766,            6347150182
           2257448618,            6565838091
           2056781343,            6915425443
           1551398668,            7109285955
            981575464,            7186325787
             13149161,            7018989545
           -982871516,            6710094913
           -982871516,            6710094913
            850500895,            5993395989
            850500895,            5993395989
            850500895,            5993395989
            850500895,            5993395989
            569385487,            6265655529
            323992665,            6860859754
            872637437,            7182241782
           1053143699,            6640957033
           1724684750,            6815887213
           1697244095,            7537166688
           1252368257,            6833894838
            455683887,            6090554023
            834244288,            5407505543
            834244288,            5407505543
            148134131,            4921274327
            148134131,            4921274327
            -44370911,            3864324384
            472356292,            1815659367
            472356292,            1815659367
            472356292,            1815659367
            554160555,             821454039
            554160555,             821454039
            457056641,            1400684236
            635024753,            2330314716
           1389068124,            3935442521
           1389068124,            3935442521
           1389068124,            3935442521
           1389068124,            3935442521
           2139151084,            4316967505
           2582224769,            4900730798
           2582224769,            4900730798
           2490611248,            4616989407
           2103236987,            4377948819
           1355251136,            4289192881
            892891809,            4666441241
           1235502288,            3991918671
            858995132,            3256336597
            858995132,            3256336597
            105150789,            2899759204
            105150789,            2899759204
           -265898553,            3750636111
           -386770616,            5313154274
           -386770616,            5313154274
           -386770616,            5313154274
            189095212,            5670316168
            189095212,            5670316168
           -388516184,            5184836465
          -1240137683,            5653580052
            214405656,            4066633441
            214405656,            4066633441
            214405656,            4066633441
            214405656,            4066633441
            214405656,            4066633441
           -237248414,            3527495990
           -808978717,            3337178661
          -1763619581,            3316069799
          -1444034784,            4137835781
          -1444034784,            4137835781
          -1705225589,            4616282932
          -1266253627,            4642720316
           -895011997,            4102897482
           -339143057,            4288573126
             38932786,            3908792675
            -90722953,            3335858283
             15960405,            2815976406
           -564300811,            2388457611
           -906427128,            1843160698
           -472755805,            1269053928
           -206507109,             370882412
           -220030253,            -306537425
           -220030253,            -306537425
           -128274282,            -811652641
           -208888308,           -1149664903
            -95231854,           -1435781958
            501822542,           -1116002147
           1053754755,           -1423109369
           1053754755,           -1423109369
           1170744495,            -979904735
           1111835073,            -302860851
           1323509322,             350843109
           1701568447,             934274482
           2183023409,            1308664773
           2333130958,             732498868
           1659513310,             716041468
           1051590749,             899465025
           1624652446,            1738792988
            416271701,            3361666445
            416271701,            3361666445
            416271701,            3361666445
            871868564,            3441161815
           1415817405,            3354956770
           2190019819,            2880330975
           2143369247,            1917350797
           2143369247,            1917350797
           2468881273,            2271633806
           2962134474,            2099328983
           3040505086,            1625463406
           3274586090,            1159507295
           3158717848,             963412771
           3451871465,             929083090
           3899843885,             485648397
           3918316420,            -393980828
           3918316420,            -393980828
           5604653193,           -1155255518
           5604653193,           -1155255518
           5604653193,           -1155255518
           5433976958,            -307834877
           5433976958,            -307834877
           5852779403,             516474056
           6441343253,            1175989645
           6441343253,            1175989645
           6373829308,            1420301860
           6090275453,            2041078516
           6385586540,            2613808232
           6385586540,            2613808232
           5646971961,            2941341995
           4606832332,            3112406134
           3601650330,            3554836002
           3601650330,            3554836002
           2894152648,            3263827097
           2885360551,            2160443893
           2779749838,            1423176519
           2779749838,            1423176519
           2468724817,            1442167834
           2148838559,            1568996761
           1505283217,            1793779322
           1046121718,            1928879685
            712779370,            1543769103
           -193867953,            1894191784
          -1186943060,            1607701728
          -1186943060,            1607701728
          -1680616781,             696362426
          -1680616781,             696362426
            173687988,            1319716648
            173687988,            1319716648
            173687988,            1319716648
            173687988,            1319716648
           1160115306,            1124828779
           1160115306,            1124828779
            547712656,            1179608656
            363156389,             741816124
            129453434,             429965630
            -66758195,             -51582981
           -501463699,            -607405516
            461501133,            -681165490
           1270094880,           -1130589750
           1270094880,           -1130589750
            961351162,            -504970526
           1834453760,             412121722
           1834453760,             412121722
           1834453760,             412121722
           1567122841,             229539027
            898132143,             118790494
            936957237,            1048623135
           1195423919,            1822586851
           1195423919,            1822586851
            792909463,            2691202649
            809258161,            1973798518
            809258161,            1973798518
           1546066427,            2186682879
           1890550916,            1661034084
           1890550916,            1661034084
           1175003209,            2380084929
           1175003209,            2380084929
           1609716016,            1924346204
           1971894059,            1340083363
           1903123727,            1791816427
           1760599547,            1302810476
           1192652983,            1159952797
            841697543,            1494137692
           1056755871,            2036556948
           1695805964,            2065884097
           2310319903,            1910414487
           2555865202,            1733024484
           2772875355,            1917692357
           3226036945,            2170606683
           3176025892,            2584839252
           2911168403,            3092349764
           1885551342,            3042855934
             25098535,            1920778103
             25098535,            1920778103
             25098535,            1920778103
             25098535,            1920778103
           -950803028,            1900670787
           -950803028,            1900670787
           -451463062,            1949010955
            166019838,            2248673057
            663484916,            1843941345
           1148606984,            2178909411
           2003200235,            2421255831
           1592067043,            2450096600
           1592067043,            2450096600
           2317399145,            1732348606
           2317399145,            1732348606
           2317399145,            1732348606
           2093991272,             748318715
           2093991272,             748318715
           2487828317,             296050729
           2655101886,            -271498236
           2653081981,            -898251543
           2604560121,           -1365873351
           2877568355,           -1482466618
           3257379276,           -1466535434
           3883827024,           -1677873064
           4571292617,           -1517645101
           4643033055,            -832863772
           4884419972,            -297474901
           5283506280,             107298919
           6181849286,             390282614
           6346326432,            1243798288
           6346326432,            1243798288
           5539501621,             589944774
           5539501621,             589944774
           6191374872,             668667209
           5650049818,            1361659190
           5650049818,            1361659190
           6148998495,             590379984
           6148998495,             590379984
           6061673746,            1223719611
           6813294554,            1617879040
           6813294554,            1617879040
           5578103565,            3373228934
           5578103565,            3373228934
           5578103565,            3373228934
           5665136886,            2955484460
           5268866324,            2918031737
           5027035360,            3210170017
           5220518144,            3462250101
           5465788762,            3536156275
           5825336728,            3488144004
           6085240485,            2861301965
           5520921968,            2694565251
           5281258916,            2964702647
           5469684380,            2794884871
           5774912300,            2254744440
           5947731832,            1728678785
           5243246174,            1664466587
           3861883108,             777013965
           3861883108,             777013965
           3861883108,             777013965
           3861883108,             777013965
           2827291513,             808658665
           2827291513,             808658665
           2186145696,              53058714
           1353795571,            -351730816
           1353795571,            -351730816
           1812204388,            -391811798
           2265023124,            -640835287
           2214185365,           -1500410257
           2214185365,           -1500410257
           2116378235,            -583334508
           2116378235,            -583334508
           1954151352,            -855372990
           1686820537,           -1064808007
           1673512525,            -321900761
           1673512525,            -321900761
           1487091523,            -957446832
           2029695482,            -202705519
           2525274805,             107686910
           2525274805,             107686910
           3027831527,            -498385607
           4612033828,           -1256528153
           4612033828,           -1256528153
           4612033828,           -1256528153
           3948348146,            -848963137
           3988982182,            -238654174
           4418963356,             607117158
           5110084614,            1264451794
           5110084614,            1264451794
           4069551793,            1227279682
           4304470232,            2208079831
           4304470232,            2208079831
           3910153941,            2743512665
           3785365177,            3348781860
           3836118768,            3849993633
           4100098116,            4293219380
           4533566930,            4596001431
           4977721386,            4714889663
           4926272484,            4036136588
           5422729404,            2755411319
           5422729404,            2755411319
           5422729404,            2755411319
           5570218455,            1715362678
           5450655897,             672041408
           5450655897,             672041408
           4578284149,            1348787453
           3538992491,            3112210095
           3538992491,            3112210095
           3538992491,            3112210095
           3538992491,            3112210095
           4079811211,            2262054868
           4079811211,            2262054868
           4086265893,             132608917
           4086265893,             132608917
           4086265893,             132608917
           4086265893,             132608917
           3431956018,              35847758
           2298205185,            -867170808
           2298205185,            -867170808
           2298205185,            -867170808
           2298205185,            -867170808
           2298205185,            -867170808
           3317537663,            -943064753
           3838437091,             -79136201
           3838437091,             -79136201
           3195098289,            -380724525
           3122832842,             598720571
           3419291133,            1458047045
           3419291133,            1458047045
           3808591448,             969390222
           4648350413,            1382977884
           4508899900,            3274223832
           4508899900,            3274223832
           4508899900,            3274223832
           3729387807,            4979883382
           3729387807,            4979883382
           3729387807,            4979883382
           3729387807,            4979883382
           4106124662,            4556496930
           4351103725,            4653706128
           4633311582,            4629971448
           3889844957,            4434783444
           2484659418,            4044041902
           2484659418,            4044041902
           2484659418,            4044041902
           2484659418,            4044041902
           2484659418,            4044041902
           1787286245,            4607951789
           1787286245,            4607951789
           2351425489,            4657065953
           2989552328,            3422137312
           2989552328,            3422137312
           2989552328,            3422137312
           2038282703,            3024021523
            993781488,            2902406769
            993781488,            2902406769
           1295396255,            3188701331
           1679939828,            3349601015
           2349726410,            2792446470
           3232404585,            2714589929
           3232404585,            2714589929
           3743607101,            3399706825
           5306336134,            4199658753
           5306336134,            4199658753
           5306336134,            4199658753
           6049354140,            4360417043
           5544169552,            3927402858
           4833562708,            3571262328
           3593339165,            2368907796
           3593339165,            2368907796
           3593339165,            2368907796
           3593339165,            2368907796
           3593339165,            2368907796
           4465055202,            2303984278
           4765475750,            3225137831
           4765475750,            3225137831
           4436778698,            3692043835
           4827886040,            4219517826
           4827886040,            4219517826
           4287100693,            3997430042
           3567155139,            4081374544
           3376772197,            4671217041
           3332939178,            3711270744
           4216148210,            3417180993
           4216148210,            3417180993
           3549396706,            4221453753
           3549396706,            4221453753
           2874817418,            4166149093
           2874817418,            4166149093
           2931681381,            4679704370
           3562097898,            4773915914
           4556067021,            4688362289
           5401957729,            4395405432
           5401957729,            4395405432
           4741507557,            4998682985
           4741507557,            4998682985
           4765297377,            5241755336
           4649892340,            5695116815
           5542587683,            5570775456
           6278253185,            3728614945
           6278253185,            3728614945
           6278253185,            3728614945
           5670677576,            3196602098
           4605932471,            3097964035
           4605932471,            3097964035
           4322455865,            2985666429
           4067588256,            2985501711
           3444785201,            3321913327
           3038078278,            3845403030
           3038078278,            3845403030
           3348050204,            3497621726
           2942845729,            2773660161
           3651900793,            1967018593
           4444286902,             232970788
           4444286902,             232970788
           4444286902,             232970788
           4826354370,            -933659507
           4826354370,            -933659507
           4826354370,            -933659507
           4826354370,            -933659507
           3972894134,             189566939
           3972894134,             189566939
           3972894134,             189566939
           4053281666,            -107624100
           4229904877,            -724223207
           3819259479,           -1641137571
           4278590056,           -2004093031
           4278590056,           -2004093031
           3464725357,           -1437097212
           2778530608,           -1310496944
           2778530608,           -1310496944
           2240093890,           -1234809474
           2145406178,            -852818067
           2571820592,            -432438278
           3110419837,            -109108805
           2736113874,            -609512053
           1840333194,           -1136014596
            -18763068,           -1488481216
            -18763068,           -1488481216
            -18763068,           -1488481216
             -8144322,            -857601204
            437637181,            -626422735
            929812977,           -1034951665
           1432515970,           -1154204466
           1690182329,            -574280741
           2061459320,             -82642519
           1236431513,            -568470796
            582522141,            -649331768
            582522141,            -649331768
           1313958050,            -553292065
           1564538172,            -970650871
           1726717950,           -1598624152
           2183221256,           -2085422174
           2183221256,           -2085422174
           3033057098,           -2025101139
           3033057098,           -2025101139
           2079618807,           -2221011524
           2079618807,           -2221011524
           1461120453,           -1757855792
           1999821060,           -1335721404
           2077100131,           -1674312500
           2054651130,           -2009964546
           1788763282,           -2575400851
           2490436713,           -3111431544
           3317666744,           -4693125845
           3317666744,           -4693125845
           3317666744,           -4693125845
           3056515283,           -4562007841
           2630062299,           -4089810356
           2047320918,           -3798883900
           1992624093,           -3247283521
           2494637338,           -2857255702
           2894791855,           -1999942935
           2242844305,           -1362689244
           2242844305,           -1362689244
           2046709956,           -3383392871
           2046709956,           -3383392871
           2046709956,           -3383392871
           2457967061,           -3146421870
           2944059743,           -3541305710
           3592120623,           -3624682086
           4433376556,           -3954807286
           4810781302,           -4402178347
           4810781302,           -4402178347
           5457729949,           -4843990371
           4778601974,           -6631405945
           4778601974,           -6631405945
           4778601974,           -6631405945
           4778601974,           -6631405945
           4778601974,           -6631405945
           4778601974,           -6631405945
           4235895906,           -7041295314
           3568213734,           -7349998997
           3305383744,           -6244120392
           3463920269,           -4124061496
           3463920269,           -4124061496
           3463920269,           -4124061496
           3463920269,           -4124061496
           2693067356,           -4124751669
           2913062934,           -3155097236
           3469049283,           -2335821181
           3469049283,           -2335821181
           3568888628,           -2664179350
           3103771821,           -2988976565
           2411960740,           -3254184953
           1545076614,           -2636110121
            748682320,           -3191255923
            748682320,           -3191255923
           1427085449,           -3255975883
            863308905,           -4102973793
            226377922,           -3263670203
            226377922,           -3263670203
           -375614763,           -3382479619
           -403440989,           -3971110911
           -680283345,           -4504358411
           -132436203,           -5163718304
            386932959,           -6941542040
            386932959,           -6941542040
            386932959,           -6941542040
             46730755,           -6642158640
           -100418262,           -7133109883
           -695574836,           -7240585180
          -1277387464,           -7176174684
           -730431140,           -7266928064
           -242833178,           -7526757535
            -57099467,           -7819523680
            -65174645,           -8157348748
           -772903712,           -8463872712
           -964440507,           -8822124484
           -964440507,           -8822124484
           -111438157,           -8340355946
            844287679,           -8238593868
            844287679,           -8238593868
             83398941,           -8850333831
             83398941,           -8850333831
           1023476167,           -8525059252
            858810968,           -9522349712
            858810968,           -9522349712
           1539608078,           -8781699822
           1539608078,           -8781699822
           1671163589,           -9420311514
           2696421711,           -9437816623
           3775170230,           -7479644878
           3775170230,           -7479644878
           3775170230,           -7479644878
           4632306081,           -7456698360
           4632306081,           -7456698360
           4108661664,           -7715777927
           3528462314,           -7902053694
           2675115061,           -8051062752
           3459650145,           -8142499641
           3459650145,           -8142499641
           3147130061,           -8331514693
           2928362864,           -8763025085
           2976101776,           -9617668378
           4054241984,           -9899838554
           4054241984,           -9899838554
           3553849758,           -9013902454
           3553849758,           -9013902454
           3508408743,           -9775415613
           3693294114,           -9130779084
           4146216647,           -8500483442
           4363909857,           -7415278549
           4363909857,           -7415278549
           4470194158,           -6900493337
           4056919656,           -6543402186
           3085358559,           -6255540657
           2216474290,           -6446837071
           2216474290,           -6446837071
           1505734966,           -8057318225
           1505734966,           -8057318225
           1505734966,           -8057318225
            592166322,           -8061814114
          -1229484934,           -7562261653
          -1229484934,           -7562261653
          -1229484934,           -7562261653
          -1229484934,           -7562261653
          -1229484934,           -7562261653
          -1630478673,           -7341749742
          -1729214626,           -6497333966
          -1608511165,           -5585903795
          -1608511165,           -5585903795
          -1320347871,           -5171844216
           -725619581,           -5303011308
           -236054382,           -5717836056
             28725287,           -4257810785
             28725287,           -4257810785
             28725287,           -4257810785
             28725287,           -4257810785
            746734605,           -4811353663
            966304869,           -5323711438
            966304869,           -5323711438
            192797077,           -5653366495
          -1359175064,           -4452973348
          -1359175064,           -4452973348
          -1359175064,           -4452973348
          -1359175064,           -4452973348
          -1555205623,           -4850312213
          -1677531847,           -4207474460
          -1120704272,           -4806107926
          -1029000992,           -5338560432
          -1029000992,           -5338560432
          -2286621153,           -5564950676
          -2286621153,           -5564950676
          -2286621153,           -5564950676
          -2435055512,           -5494423538
          -2699876786,           -5510988242
          -3222362152,           -5159606094
          -3534246921,           -4495499834
          -3622026782,           -3765417415
          -3586829481,           -3156131853
          -3351489616,           -2614607943
          -2562935432,           -2531621761
          -1591825192,           -2083107187
           -546118748,           -1959324563
           -546118748,           -1959324563
           -908641509,           -1836681027
          -1186717177,           -2120862223
          -1374059823,           -2753229973
          -2223620418,           -2739589458
          -1383817692,           -1111213547
          -1383817692,           -1111213547
          -1383817692,           -1111213547
          -1270784640,           -1063971921
          -1085004643,           -1016129596
           -923233823,           -1080564740
           -783663422,           -1173456729
           -728487281,           -1230706173
           -731032493,           -1244629172
           -751041698,           -1231203094
           -769214033,           -1182015836
           -762392883,           -1127109893
           -739386378,           -1072473720
           -720773208,           -1013107421
           -713332041,            -942178393
           -699750461,            -867866708
           -702722931,            -795664750
           -679998413,            -736929570
           -631163864,            -701757334
           -580182219,            -683621419
           -542908289,            -671685283
           -523915428,            -652128496
           -506070390,            -630593795
           -477392327,            -631003588
           -465001039,            -631407976
           -465392991,            -607387161
           -462083456,            -574047217
           -435780907,            -546364792
           -408004169,            -523207433
           -380467471,            -504550579
           -355178523,            -492514705
           -334821056,            -480177587
           -324792997,            -458265903
           -329488661,            -419126067
           -326146100,            -367571358
           -301769582,            -328432233
           -275083337,            -288826970
           -232465536,            -251301607
           -186536955,            -243429094
           -153811990,            -217555165
           -145818590,            -169213521
           -128873286,            -124200541
           -104170749,             -85084029
            -64667097,             -49999391
            -15912582,             -56975528
             30371818,             -80857328
             76131445,            -105407492
            115961378,            -118027338
            151345561,            -106832937
            173230373,             -95889435
            182296066,             -89259591
            189239312,             -82776752
            194721424,             -84257603
            190156409,             -80268330
            187508308,             -66501819
            191212467,             -54659970
            196388774,             -40585816
            204739129,             -30536127
            210814554,             -23932988
            213633214,             -17802586
            216998732,              -8340105
            219765226,                429304
            225754227,               9844500
            228171450,              27150822
            227663903,              48107846
            219487116,              76138519
            206614261,             108708958
            219417803,             147326783
            265228869,             147738082
            292825259,             139897965
            309466773,             152939552
            324492039,             165043324
            348706425,             161654471
            365850650,             146283991
            378796319,             133290220
            382246829,             125685216
            371752499,             122749861
            354546802,             123869121
            327506410,             135763565
            318264218,             166413401
            341442048,             181778305
            369483160,             188677079
            396381273,             192827233
            422031024,             199495886
            438913827,             213525244
            446413886,             229617908
            454579302,             241427257
            463195514,             240207440
            460767216,             233806049
            454836114,             228836766
            436753131,             223019647
            409643501,             225756719
            394351073,             246073090
            397027481,             263257875
            411437869,             278109124
            437945675,             275675303
            455499318,             260187926
            462072721,             246237372
            457295988,             233756202
            449156337,             230975713
            439233654,             233773269
            430034452,             243807377
            428895264,             256459357
            431818844,             263635207
            440210949,             263771972
            439418830,             267709953
            430873868,             279166520
            420948398,             292425726
            416417406,             307968500
            416592704,             323098096
            428537115,             334792832
            447408517,             332309065
            457813651,             321065772
            458943976,             309245572
            453732595,             298565785
            440517840,             294865774
            431546499,             300972709
            423221082,             309349547
            414299010,             322482299
            416632271,             339918478
            433510945,             347511981
            449133841,             343598939
            457271743,             339118863
            473023561,             335436488
            483208511,             322711120
            487424497,             312940237
            488508029,             302798732
            481994868,             292050792
            469195918,             287209678
            459001561,             290414955
            450127456,             297481669
            441651377,             310078768
            439569726,             324243163
            447564877,             338872566
            465214472,             343553722
            480296472,             340536803
            496273464,             338652900
            507931951,             333150401
            516680019,             330258402
            535904980,             324982751
            551094128,             301688163
            559378060,             284791672
            574404451,             273541028
            589899282,             254338964
            597885973,             245401272
            603112963,             245278024
            606614781,             242863246
            613623210,             235235001
            614849125,             222799471
            613703796,             211856186
            613359136,             203288151
            620144744,             190309003
            618483686,             171310693
            614827002,             162657717
            605721795,             156692158
            595341237,             154861613
            582740702,             154343526
            562293756,             157267346
            548054216,             169470063
            545001706,             180434678
            537899730,             188393078
            532967179,             195126799
            537518106,             197111976
            541918631,             192385597
            547581537,             183405733
            550278779,             171246098
            553168680,             161434225
            555248232,             152333750
            558274453,             142985433
            558646687,             135082896
            552272594,             128809237
            539481312,             124211453
            528538266,             127146675
            524202181,             132549141
            522980865,             133610210
            518620017,             136187468
            516515662,             139133167
            512595800,             142389105
            506870002,             149548422
            501230788,             156648410
            493796112,             164554860
            482524453,             175052626
            483065349,             189030719
            497227957,             192914853
            510895557,             188686460
            520250679,             188703177
            526357405,             194097050
            531885151,             196863226
            532478912,             192726359
            529180054,             187717277
            527469443,             185068325
            520924642,             181736239
            518956742,             179443620
            509641653,             176871927
            502818432,             179908147
            503894429,             179069005
            502073056,             168212973
            499107426,             159728427
            491439234,             157980375
            481856576,             158314165
            471799524,             159380367
            465719527,             166849428
            460330941,             174530800
            458013061,             184029195
            459450197,             191391810
            459563091,             197709143
            460191511,             203550705
            462677847,             204803715
            462923289,             200430946
            460897053,             196814439
            459525436,             193194431
            451478722,             188962260
            442479347,             189734511
            439147132,             193312487
            433518337,             196861365
            422632841,             203089925
            419032622,             214028487
            427746535,             219452465
            441874555,             215737158
            450276603,             212515014
            458203789,             214626066
            466055714,             215481066
            471635988,             216349591
            480466241,             216855162
            488495819,             210780809
            497584419,             203745210
            509429516,             187454719
            513723931,             167642391
            517811532,             162246566
            528550629,             162479019
            537943021,             155515174
            537275416,             154170699
            535375625,             156324694
            534729401,             153509268
            530107895,             148884882
            519793466,             141824198
            504825906,             134767510
            490988725,             134442970
            484208655,             142339792
            486314499,             149238803
            488531357,             151358096
            491834533,             155042523
            502103763,             154695160
            511075570,             144440041
            516226336,             137891160
            515743052,             135348359
            511712283,             131488683
            508158709,             128433073
            501672123,             123402451
            494092840,             123868406
            493030059,             122970091
            487342528,             121938483
            480070389,             124046130
            480552735,             127115667
            480489146,             125173866
            472877239,             127263517
            464169711,             132594611
            461769171,             139639573
            462901449,             144564181
            463538669,             149353272
            462844837,             152465734
            463185242,             157614113
            464985342,             160293516
            467658603,             160723110
            472772392,             158892952
            473540511,             150695326
            464439159,             141896399
            457161670,             139097155
            453138617,             139896488
            449746466,             141798452
            449767224,             142619320
            446632531,             144228857
            445363868,             148944361
            450541978,             149207898
            452881407,             144653898
            448737987,             146389757
            444224493,             150328493
            443811716,             155613384
            447440886,             158956249
            451166786,             160866827
            453876461,             163652454
            462056143,             165582833
            464239384,             163429767
            464376863,             166058044
            469912022,             167854796
            472873186,             165416211
            477454655,             163988085
            484038884,             158509177
            487613990,             151115538
            488983174,             145869163
            491434549,             141288659
            493600858,             135941940
            494047251,             128861624
            491599729,             123017659
            487638531,             118155979
            479349762,             114791075
            477208818,             115538981
            475146917,             113043715
            469667716,             112985680
            462360696,             113741952
            454315199,             115861396
            448378234,             120085306
            444147337,             124781657
            440941351,             129141146
            444003056,             134966459
            454001242,             131825089
            456849065,             126056047
            465501849,             123628181
            477214866,             111562438
            479761454,             100554367
            481419299,              99019788
            485325801,             100900032
            488780573,              98528211
            492398925,              95163683
            501179944,              86335932
            501030153,              76693654
            493801333,              71680404
            488288556,              67404285
            483292390,              63349897
            473441311,              62907747
            468495421,              66872841
            463901459,              69266308
            458323971,              73864107
            455128233,              78653555
            453648300,              82999655
            453835304,              87298835
            452514504,              89338778
            452285908,              90111386
            450143102,              86151715
            446249008,              84976664
            447844974,              84399047
            447040170,              80116882
            445865108,              75801201
            444029785,              70593349
            435943993,              68270155
            428628365,              68058590
            421826359,              68579717
            414049287,              71181455
            408472044,              73594494
            401284509,              77731230
            405366445,              87322393
            413846482,              85042759
            417846639,              83041063
            422157109,              85149035
            429683505,              85119619
            436880706,              81521583
            444229271,              76630960
            447326788,              71757462
            444935681,              69960285
            445949930,              71356427
            446561641,              67745368
            443399458,              64296702
            439314368,              59337284
            428242530,              51587228
            415432851,              48910210
            410816516,              54646961
            407916289,              58684815
            407099820,              64153563
            408859306,              66519268
            415486459,              68204866
            423544418,              62797476
            424402816,              58031392
            423279491,              54720980
            419334387,              49494544
            416332472,              49445510
            416476995,              46702713
            413123166,              44201385
            411804765,              42582107
            409445643,              41070189
            401666718,              37924089
            387202911,              35264327
            379511749,              42164164
            387501407,              45876989
            387246209,              45814254
            381664702,              48512517
            380724103,              55917282
            383881835,              55565108
            386861295,              54901199
            392584240,              51723751
            391954874,              45391186
            388069658,              40644321
            384463554,              38197280
            384658677,              37486399
            384960118,              32350948
            379860116,              30723030
            376329208,              31721929
            375928313,              33051969
            370083524,              32580241
            361160047,              37320277
            359169189,              43897314
            360837566,              48590606
            366569078,              52232412
            372107148,              51601830
            371150623,              53129008
            370344842,              58839310
            373943618,              60946081
            373788729,              58038588
            375155958,              56741877
            373064313,              51760677
            368970253,              49083353
            370754906,              47699842
            372323244,              35159531
            366995035,              20543397
            364349748,              10862530
            366598994,               3239270
            370845548,              -6379013
            372389301,             -15709926
            368281144,             -20042928
            364614786,             -22265767
            361936566,             -23464492
            355304549,             -25112290
            347541901,             -24870094
            341700404,             -19380923
            345277074,             -14234556
            345847720,             -11752480
            343622538,              -6505689
            342855866,               -576771
            343068414,               3562884
            343448547,               7585334
            346692882,              10263812
            346460874,               8052013
            347129713,               2068481
            343141973,              -8620404
            335234138,              -6976574
            331762372,              -4410813
            328313729,                375991
            327936769,               6403182
            331728060,               9901848
            332435568,              12968046
            336797796,              18657817
            343690322,              19612097
            348009442,              19046575
            348833442,              19353148
            348883588,              20425194
            355036257,              21880923
            357064281,              16432155
            359060738,              11484844
            362761416,               4981436
            364185455,              -2719391
            363757360,              -8399738
            361214857,             -15513320
            352170573,             -24017188
            344739918,             -25628041
            340247960,             -23588675
            337560261,             -18061079
            337029878,             -13505126
            337460006,              -8947823
            341392791,              -5532613
            345567754,              -4704901
            346092584,              -1967925
            350397518,               2828990
            356393809,               3891861
            363075458,               3181002
            367239162,               3368776
            370402287,               5080687
            373997922,               6184638
            376180517,               5720711
            382150935,               4794298
            387645464,              -1132937
            391877153,              -8106388
            397960769,             -16094256
            401563519,             -23223768
            403182860,             -27050217
            412889220,             -31639517
            416414163,             -40858973
            417415698,             -44453841
            417938031,             -45487919
            420048661,             -45455456
            422958515,             -49228345
            424156616,             -53726652
            426455243,             -57801211
            432649712,             -66993564
            429748844,             -73271629
            423078474,             -76973621
            419051744,             -78492089
            419510348,             -80018272
            416716774,             -86330617
            407400347,             -88700988
            401901402,             -88686459
            397828372,             -89906395
            387890825,             -89900128
            377050190,             -89717904
            369692184,             -85378752
            364078300,             -81466560
            360669448,             -77296923
            361205995,             -72514198
            363803700,             -71342176
            364060747,             -73793528
            363374741,             -76154851
            370365724,             -80729051
            368811606,             -93076717
            365739093,             -97687494
            365388712,             -99565217
            366348082,            -101101858
            364568372,            -105360163
            354317592,            -109425801
            347080732,            -109900110
            342225936,            -108438303
            336028165,            -106567688
            327091260,            -103275393
            320350594,             -99285745
            316736682,             -92462105
            319222277,             -88350477
            318180703,             -89794331
            316912364,             -93951451
            314152253,             -94536310
            318945164,             -95210676
            315987808,            -101088744
            309543371,            -104753982
            298479928,            -110822985
            289274916,            -114371592
            282027525,            -112908762
            277632800,            -106610066
            283186746,             -98657960
            292463411,            -100465000
            295066888,            -101820278
            293647214,             -99809233
            297199281,             -94563512
            305214577,             -97478383
            305560521,            -101563228
            304943848,            -104531305
            302899176,            -105312581
            305574478,            -106284935
            305919486,            -111796448
            305093234,            -118556734
            303543393,            -124170391
            300430324,            -127185717
            298045872,            -130359456
            289349146,            -133003824
            281357824,            -137040360
            272736717,            -133787219
            271201624,            -127259465
            272554335,            -121956431
            276407615,            -116536330
            281358304,            -113526364
            280058411,            -110114783
            275326457,            -105541465
            275167772,             -99540609
            276200867,            -100147212
            277582811,            -101064642
            276840945,            -105093177
            277075992,            -106911983
            276429594,            -110180858
            272123270,            -112054617
            269737386,            -113581972
            263949935,            -114656589
            256706906,            -113656715
            249667085,            -112496403
            244195491,            -106696121
            246655554,             -99370905
            249010284,             -96444467
            249126268,             -92006879
            255339273,             -85383007
            262972887,             -85883539
            268720187,             -87517383
            270882387,             -87390047
            272568796,             -85664900
            277428570,             -85284348
            282763188,             -88775956
            289516166,             -97731183
            292357234,            -107815040
            294602081,            -113297642
            295168178,            -116863266
            293206659,            -119466823
            295084956,            -119039239
            297201409,            -122580429
            297900891,            -128953234
            296834346,            -135384134
            294003065,            -140576447
            285758224,            -146993008
            278788681,            -148619524
            276508068,            -146421704
            272865679,            -144683469
            266555819,            -141286702
            262843606,            -136269926
            260823852,            -132047372
            256872106,            -127850042
            254997344,            -121755589
            257929321,            -116473265
            255867214,            -113271312
            255520989,            -106807391
            261755095,            -102339876
            266606806,            -103508336
            269765658,            -103407817
            273691755,            -103184669
            274847867,            -106097957
            274037106,            -112620092
            271313166,            -118339148
            267712014,            -119306999
            261270262,            -120309468
            250853669,            -119726957
            244723363,            -115029878
            244805688,            -109878154
            249103861,            -105384111
            255668095,            -104608114
            259924270,            -105432529
            266217042,            -105832010
            272627225,            -108627214
            276500872,            -111328658
            274541939,            -114269235
            276439857,            -112675463
            279923052,            -115193499
            281707745,            -119813959
            284632501,            -127509924
            285577481,            -136173526
            286115145,            -142595300
            285387815,            -146172254
            284459035,            -149255301
            280690159,            -154163514
            276610350,            -156268724
            271563875,            -157304506
            265967498,            -156613073
            261593822,            -152636041
            260689310,            -148424173
            254522818,            -144921497
            247836381,            -142281629
            243817334,            -137233940
            245874649,            -131422207
            250411188,            -129523044
            255507752,            -130414933
            261002557,            -132202315
            267381760,            -135596515
            266464348,            -138301202
            265764964,            -141049656
            266368190,            -142133039
            266573270,            -144706545
            263000811,            -147677642
            257620846,            -150558443
            249271945,            -153264216
            244189281,            -151539214
            240544246,            -148530259
            236752445,            -144858632
            233818577,            -139743049
            234216451,            -134142612
            235866728,            -130119437
            242592332,            -127628171
            246277438,            -127385891
            246937190,            -124234279
            250470360,            -119823594
            254386789,            -118447100
            256445574,            -116700526
            259184841,            -113995614
            260017884,            -112786636
            260770468,            -112349628
            264835541,            -112323452
            262533787,            -119227357
            260242161,            -123283006
            259698490,            -125961106
            255984722,            -128340549
            249849892,            -129985730
            245074030,            -129345747
            242897051,            -127493259
            243485207,            -128513100
            242685816,            -132138017
            239792058,            -133788634
            234612253,            -133808601
            232216755,            -133342050
            230106546,            -133314813
            228422929,            -132455533
            226394257,            -131555178
            224805860,            -130636175
            224028389,            -130970239
            213356031,            -129838412
            205602655,            -129992936
            201582319,            -125832476
            206094658,            -120165825
            214038105,            -121631137
            218600906,            -125324897
            224293820,            -128389334
            227722075,            -131937886
            229878294,            -134997976
            229136934,            -140689816
            227426188,            -143740776
            223898947,            -147965748
            221166392,            -147162968
            216115480,            -148806597
            207570393,            -147689863
            203746777,            -142980811
            206754819,            -137638198
            209458593,            -135531814
            211080650,            -132993573
            210580899,            -130161333
            210911352,            -127276129
            213677681,            -127825409
            214847860,            -130078526
            218237237,            -130595139
            219548297,            -135397268
            218574407,            -141181670
            213399221,            -144847516
            213306059,            -146538717
            212201717,            -149985097
            205819187,            -152199732
            199029047,            -152768254
            193326918,            -153332472
            187342725,            -149161390
            188526975,            -142259672
            187297786,            -141698060
            185992726,            -138311939
            189925157,            -133756486
            193563049,            -135341784
            195728663,            -139055759
            198324421,            -142073676
            198754191,            -146401098
            195052104,            -149271662
            191022713,            -151596362
            188628498,            -151395474
            183077253,            -153101742
            174524810,            -151781612
            170820056,            -145998195
            172669547,            -140445086
            174057233,            -137007461
            175313993,            -133587035
            182326099,            -129673339
            192917657,            -134038692
            199639242,            -143213958
            202704260,            -146884443
            202838031,            -147071685
            203352210,            -146183013
            206461580,            -145820261
            209338435,            -148510201
            206965855,            -153892993
            203628810,            -157101548
            198520074,            -162295615
            190864191,            -162880333
            186580795,            -158384780
            188131302,            -152450904
            188658679,            -148883355
            189208833,            -144361988
            195970354,            -140561822
            201341458,            -141102525
            204819272,            -140917745
            206562279,            -138666309
            205156070,            -135953801
            203879614,            -131849725
            207028217,            -128192900
            213119677,            -128468888
            215977689,            -131929209
            216483326,            -134453785
            218089013,            -139624016
            215789471,            -147748136
            212699543,            -151212368
            211427994,            -150942156
            206510400,            -151118654
            201555196,            -148631396
            198638524,            -146923929
            191980914,            -145049098
            189602290,            -139724743
            191629253,            -137074785
            191767585,            -135869511
            197981870,            -130825076
            206220476,            -134358499
            208125258,            -138760036
            209836324,            -141717864
            210647217,            -145445840
            213013050,            -147574555
            212052087,            -152723014
            206977082,            -156596790
            202766102,            -157770390
            199843934,            -157757018
            195884987,            -156614798
            196621724,            -155578653
            194175128,            -154927548
            188633195,            -153163570
            183487145,            -151103104
            181368021,            -146707115
            183812863,            -141926539
            189421635,            -138883238
            194191859,            -138107805
            194794509,            -135944897
            194285910,            -133509470
            196863078,            -129576630
            205844757,            -128089357
            210850666,            -133383872
            213393828,            -136824810
            221189549,            -138775175
            224646535,            -143878085
            224061444,            -147815259
            224752933,            -150511703
            225754169,            -153697585
            225797167,            -157200032
            224339565,            -161288933
            217995134,            -164785631
            212523023,            -165340387
            210363335,            -165627594
            202543308,            -165130417
            198101686,            -162441220
            197523689,            -159040549
            197226745,            -157083651
            197970186,            -156560042
            196900757,            -156555292
            194821300,            -156035616
            190036720,            -155027928
            186192871,            -152084764
            182282687,            -150830857
            178885944,            -148356038
            180324124,            -140424250
            188526782,            -139223481
            192578958,            -143036318
            195129186,            -146320492
            197066651,            -149307016
            200448866,            -151881282
            199279503,            -158092921
            196169822,            -162929460
            191689104,            -168734993
            185444904,            -168838091
            181740017,            -166386993
            179989063,            -161489752
            183615236,            -156671131
            185405556,            -154580574
            186159396,            -152487706
            185743185,            -148938725
            190222801,            -144541307
            194733270,            -145164904
            199404952,            -146714473
            200470079,            -150165197
            200658115,            -153300717
            201656693,            -155410895
            201953141,            -158682664
            198406966,            -162377162
            196323572,            -165282177
            194990761,            -169390858
            192542451,            -173644816
            190616642,            -178249709
            189832188,            -183687638
            188171315,            -192349931
            183168639,            -197426559
            180302368,            -200407264
            178846956,            -202700351
            179465386,            -204630912
            178687795,            -208884709
            174359768,            -211074088
            174718356,            -213851082
            171183159,            -216506504
            167012451,            -217550113
            161564710,            -219249673
            157877707,            -217209983
            158047611,            -215682668
            157589002,            -215373658
            156687425,            -214723893
            154955022,            -214046983
            151514461,            -213477750
            145674035,            -211808936
            140146759,            -208838481
            137097571,            -203759020
            135866724,            -198289449
            141477354,            -190248011
            150093982,            -189573902
            152301466,            -188885319
            152306527,            -187301058
            155792382,            -186935375
            157433577,            -189471440
            158486700,            -192710522
            155443713,            -195786986
            152097276,            -196125851
            150826835,            -194255780
            147527657,            -191613759
            143894630,            -187960564
            142479395,            -183805410
            144967991,            -178291665
            149682539,            -175849613
            149416896,            -172823853
            149874364,            -167653982
            155656723,            -163150423
            158747870,            -161961453
            157295228,            -161707525
            159523476,            -160380269
            163381894,            -161865243
            166402051,            -162089990
            164406131,            -168659476
            155724833,            -173910766
            152618444,            -169704991
            154468251,            -168242503
            153331594,            -167457102
            151730110,            -165600572
            151143965,            -163153498
            154130009,            -162969894
            153814027,            -163996343
            147970279,            -161629497
            141313468,            -162207414
            135428385,            -158181321
            136685127,            -152700070
            138722582,            -151318224
            141877074,            -151343616
            147629811,            -150727935
            154103263,            -155080341
            154325274,            -161291392
            153973254,            -165227453
            153656527,            -170166487
            150106491,            -174864592
            145368476,            -179013020
            139163111,            -180835723
            135042706,            -175464863
            140487512,            -169904453
            147376157,            -170512519
            150988300,            -170937355
            153337630,            -169189752
            154655410,            -166239549
            154829945,            -163080287
            156579368,            -159131417
            158420927,            -155728670
            160458993,            -152462056
            163766502,            -149464069
            164783805,            -149622573
            165699386,            -151091338
            169786886,            -149734879
            174995225,            -152441940
            173172023,            -158034656
            171662443,            -162210687
            171622048,            -167020180
            168780571,            -170536908
            167946778,            -172981466
            166838311,            -176931896
            160987812,            -180904724
            153026219,            -181936081
            151132271,            -180715390
            148871912,            -179868141
            145113162,            -179328624
            143744975,            -176885147
            144259501,            -175109379
            143319708,            -173073420
            141830188,            -169226636
            138419641,            -167497596
            134793081,            -167703611
            135485498,            -164483500
            139644738,            -161480853
            141722485,            -166727300
            139000143,            -171676046
            136748141,            -175663324
            131643832,            -176672410
            129720667,            -173024792
            127652132,            -170342323
            124860611,            -167232312
            123216532,            -163173085
            123173730,            -158939903
            127666023,            -154067775
            139606227,            -153340709
            146503460,            -159933575
            147914398,            -163065854
            152214814,            -163544851
            158007021,            -165519903
            159642127,            -169009527
            165036074,            -171759361
            163863444,            -177737623
            161107890,            -182198683
            161254184,            -183963907
            158505011,            -186165547
            155356037,            -186204555
            155976151,            -187934353
            152306177,            -191981525
            146106107,            -192251438
            146032262,            -193416875
            140219433,            -195532829
            134963037,            -194474789
            133297572,            -191709766
            136383902,            -191656733
            131316926,            -189929432
            124335278,            -188100587
            119547669,            -186655148
            117162044,            -181895574
            118667001,            -176269530
            123279029,            -172205777
            127088759,            -169708954
            130967737,            -168344112
            133203872,            -171496432
            135497921,            -173233264
            138245203,            -174318383
            137984174,            -178085059
            132605377,            -181182990
            128215961,            -184367865
            123084591,            -184422660
            120031644,            -180184787
            117101883,            -176542403
            116891093,            -170269048
            119557993,            -165638471
            120771139,            -165570093
            122082607,            -165164917
            126990854,            -163603304
            129134853,            -167632303
            129900068,            -171475020
            132149052,            -175679289
            133549732,            -182580531
            130647583,            -188093843
            128739566,            -192820352
            125750829,            -196301983
            124359755,            -196095165
            124591118,            -196259642
            120819741,            -196523177
            115642333,            -195846843
            112679117,            -193148763
            109816644,            -191703719
            103232223,            -188341999
            102940958,            -179811626
            110212294,            -176083496
            115254247,            -176161161
            116348985,            -173056268
            118694097,            -168277103
            126019976,            -164371658
            133681738,            -165686801
            137243825,            -165771356
            139495213,            -163728667
            141655522,            -162879439
            148028453,            -160918250
            152538530,            -164710136
            154660680,            -169026277
            157961395,            -172691293
            158084124,            -177739504
            156381154,            -181826624
            153631659,            -188152622
            148209593,            -191645047
            143675527,            -190980392
            139520868,            -187786751
            138867704,            -182771702
            135499963,            -178855181
            135027654,            -173269518
            136419055,            -169680965
            139463878,            -165687390
            142317009,            -163932123
            148088766,            -161347806
            155645381,            -162520375
            157517508,            -165611613
            158051835,            -167395495
            164429088,            -165959077
            172453972,            -172726785
            173970677,            -181481155
            174948471,            -185939450
            174679947,            -188666417
            176245880,            -190431458
            177645662,            -193347069
            175889913,            -197742769
            171010568,            -201660304
            165821632,            -204336351
            159676738,            -204594941
            154460369,            -202880021
            147504119,            -202286926
            141480166,            -200338543
            141778699,            -192882141
            147570421,            -190797983
            151840054,            -190659522
            157049666,            -190251391
            161653996,            -191286641
            164437092,            -192341500
            171835126,            -192772906
            174822872,            -196380187
            177480336,            -197737530
            179697238,            -199581588
            183216482,            -202284822
            186389520,            -207657072
            186912293,            -212671181
            185112465,            -216233499
            184558538,            -219028435
            184138134,            -222393392
            182140783,            -226567111
            181760450,            -231444841
            175111500,            -234579194
            170808785,            -236463700
            165977739,            -240156723
            155738724,            -244724056
            147746012,            -243467463
            144814716,            -239972271
            142061675,            -234619175
            143994790,            -228908246
            147265409,            -227420763
            147563002,            -229569162
            151091584,            -227892674
            153692974,            -231535685
            149200812,            -235672907
            147102401,            -239241707
            141742854,            -242197384
            137701346,            -240981671
            137016549,            -239436783
            133319913,            -236888194
            128554363,            -234813820
            118682597,            -233445004
            113433674,            -229239648
            112137811,            -224989042
            113471803,            -219933668
            117043270,            -216482365
            120236649,            -215723702
            123119579,            -216792431
            125337185,            -218745488
            130279221,            -220059973
            130717714,            -225129372
            129541996,            -229141303
            131502042,            -232252828
            132323696,            -237117675
            130444098,            -241329009
            129787133,            -244776073
            130264416,            -248162186
            130576602,            -253075616
            124281469,            -256828251
            119585359,            -258541361
            116971572,            -260097495
            111933410,            -259670730
            106124509,            -258604515
            101972325,            -253513216
             99942835,            -248309042
             99301824,            -243032006
             97637132,            -238916096
             96010154,            -236921682
             98001664,            -235586344
            100740694,            -235274380
            106304761,            -233101887
            104665955,            -237802106
             98693437,            -243720505
             94617836,            -250555469
             90090588,            -250283721
             89378258,            -244659119
             92257507,            -241437423
             90090628,            -237285737
             85818785,            -232632198
             83752085,            -227761188
             83553547,            -223941351
             87814573,            -218992127
             91963893,            -218413921
             97458882,            -217917460
            105719928,            -219740486
            111372686,            -225173208
            114622120,            -228153084
            117451231,            -229469063
            121866022,            -229912112
            122389185,            -234225305
            120353819,            -237875810
            120827961,            -239724012
            117770303,            -241977261
            115071453,            -242562864
            110663406,            -243604538
            101495515,            -244776351
             94539983,            -244751659
             91009868,            -238421135
             93001278,            -232778707
             93486570,            -227753994
             93663781,            -223447856
             94050394,            -219331783
             99177556,            -214698184
            105067058,            -214915973
            107855958,            -216554919
            109471081,            -218654380
            111479952,            -220212573
            111920162,            -224125159
            108910442,            -227885115
            110355093,            -228279055
            105671160,            -230443918
             99748885,            -230773730
             96266791,            -230750330
             88244876,            -231659663
             82065184,            -228415417
             80090859,            -224579946
             81392982,            -219811807
             85120756,            -216359453
             87427222,            -217575913
             91358519,            -216389897
            100389143,            -218474668
            100527013,            -224669200
             98290902,            -228845122
            100041333,            -230501173
            101882195,            -233353100
            103684829,            -237900424
            102816639,            -243894344
             99496528,            -247529437
            100669946,            -250830583
            100653796,            -254868784
             96706692,            -257467342
             97778461,            -258987517
             95241742,            -261703292
             92748624,            -263650991
             92496052,            -265760031
             86607779,            -267975949
             75925266,            -270736734
             70556920,            -271458362
             67753595,            -266823019
             66876550,            -262041957
             64749377,            -257043792
             63830510,            -251706805
             62251136,            -246131781
             64494175,            -239765381
             68339912,            -235453824
             67503995,            -234508394
             67677263,            -233153843
             71740492,            -227456319
             75130527,            -230383757
             74164538,            -233629108
             75009231,            -235898206
             72754586,            -240223187
             73664090,            -241777137
             70947877,            -244052890
             65767245,            -244766734
             61371549,            -247708287
             53294485,            -251143060
             48108031,            -247287192
             50615356,            -240865391
             52138901,            -236200598
             52632058,            -230166768
             59011996,            -223257412
             57928613,            -222159945
