                    0,                     0
                    0,                     0
                    0,                     0
          -3307124818,           -2534030705
         -11978663790,          -11437497911
         -11978663790,          -11437497911
         -11978663790,          -11437497911
         -11814596039,           -1080613781
          -1827766282,           10839982054
          -1827766282,           10839982054
           3246625909,             195412419
           5123675223,            -711950103
           4082226399,           -6011025772
          -5666219099,          -10149875474
         -23293706205,           -1950952076
         -23293706205,           -1950952076
         -22351770203,           -3916789033
         -22088690087,          -15626654213
         -22088690087,          -15626654213
         -22088690087,          -15626654213
         -29635475139,          -12227148138
         -29635475139,          -12227148138
         -26269480089,          -11194522534
         -20926374992,          -15342242697
         -27533364384,          -14605040455
         -27533364384,          -14605040455
         -32158256958,           -5069567562
         -32158256958,           -5069567562
         -32158256958,           -5069567562
         -35438390814,           -2133336831
         -36445994324,          -12318632115
         -24578574037,          -18575794187
         -18848360215,          -23600052732
         -19137737109,          -31041918577
         -10616871772,          -17808527101
          -2075285658,          -11122133446
           4548069715,          -10307128455
          21222511446,           -9791970297
          21222511446,           -9791970297
           8507566960,           -5518862518
           -487154074,           15464149072
           -487154074,           15464149072
          -6092422935,           13229743217
          -8248547971,           12957295884
          -8294862168,           15776510705
         -12248854463,           26505439760
         -12248854463,           26505439760
         -12248854463,           26505439760
          -6221678600,           30900243126
           5817632250,           29043764071
          15533640034,           25167248354
          21690600387,           18588216786
          33222282915,            2703830237
          33222282915,            2703830237
          31679752096,            5142552372
          34852009738,           10482615756
          20530936247,          -13278011996
          20530936247,          -13278011996
          20530936247,          -13278011996
          22131628996,          -11379358210
          33699008206,           -7361873114
          16136385390,           -4100080180
           8826459081,            3391926142
          19815638027,            6059350189
          16447926995,          -16374297892
          16447926995,          -16374297892
          19338506499,          -20095002696
          17800607882,          -20389655330
          19921682518,          -23768630370
          15238165153,          -30658259582
           2583978797,          -26207935863
          -2150083206,          -26142999576
          -4726283717,          -30540756498
          -4726283717,          -30540756498
          -4726283717,          -30540756498
          -8193541961,          -29676329645
         -14548806444,          -28274364653
         -20978584775,          -17164108291
         -18550479909,            6023986843
         -18550479909,            6023986843
         -17730176671,            -690591949
         -26584515748,          -14656806444
         -26584515748,          -14656806444
         -35353215362,          -15673824754
         -28460031457,          -13313798197
         -12835325980,          -15117864588
         -12835325980,          -15117864588
         -29600571210,          -13159485589
         -29600571210,          -13159485589
         -20496891820,           -1445217183
         -10727642929,           -7103456783
          -7110394179,          -12996959786
          -7055535022,          -22466802710
         -13352462154,          -15540322796
         -17582166605,          -17361447362
         -24548173419,          -10220277870
         -24548173419,          -10220277870
         -24548173419,          -10220277870
         -19211910015,           -3016615555
          -8910639029,           -1221008720
           7935944759,            6876235030
           7935944759,            6876235030
         -12483701316,            7390344898
         -12483701316,            7390344898
         -15434300632,            7761725021
         -18962767197,            5527531686
         -26957239742,             676253983
         -23767225375,           -7155159979
         -13415832289,          -17249268781
         -13415832289,          -17249268781
           9936270233,           -8209017579
           9936270233,           -8209017579
          11885000735,           -1077831568
          19915912214,           13418909981
          19915912214,           13418909981
          12008403265,           17768423214
          12008403265,           17768423214
          16590856631,           16652077989
          17592425282,           23057748176
          19220629750,           16074840739
           6238895768,            6356125800
           6238895768,            6356125800
           6784150753,            6138780754
           6694244706,            7010886462
           4395257781,            9613032718
           -788790120,           14460064035
           -788790120,           14460064035
          -6352801061,            3675483292
          -4703801184,            2222229872
           2634394039,           -5144588071
           2634394039,           -5144588071
          12151997339,           14437650996
          12151997339,           14437650996
           7295057855,           17230358339
           3818050309,           31388603671
           3818050309,           31388603671
           3818050309,           31388603671
           -591222085,           25251574918
          -7223516881,           20690763145
         -12058905036,           17596325230
         -14799431649,           19295689256
         -19240405488,           27724934758
          -6887204907,           31692671326
           -899788252,           18036120766
          -3206832155,           -6702068300
          -3206832155,           -6702068300
           -351578156,            4628402215
           9722922832,            6553647232
          15877021334,            5394879850
          16923116613,            -598661199
          24731083518,             869427349
          24731083518,             869427349
          18480607716,            8118063424
          14224915589,           23721507042
          14224915589,           23721507042
           9203991597,           18211569561
            903475077,           19834900771
          -1944547825,           33211783373
          -1944547825,           33211783373
          -4248484129,           31287849228
          -3284259164,           33162320799
          -8741432360,           41252487203
          -8741432360,           41252487203
          -8741432360,           41252487203
          -3791458720,           29575986675
          -5912334643,           18805228960
         -18365323125,           16304231858
         -11694362375,           25330487484
           -455112528,           35770203883
           -455112528,           35770203883
          -6946451311,           34612549867
          -4005124585,           34507541912
          -2164462367,           35338994649
           -999727582,           32725935425
           -999727582,           32725935425
         -10191534703,           28674899103
          -9711054670,           38111292016
          -9711054670,           38111292016
          -9711054670,           38111292016
         -23548110726,           16369982897
         -23548110726,           16369982897
         -17131933723,            1703053349
          -2976933404,           -4054081672
          10801048507,           10047044719
          10801048507,           10047044719
           9166027627,           11499293820
           1805803843,           11375759284
         -15486309767,           18270953010
         -15486309767,           18270953010
         -16040439368,           17971792470
         -20891983975,           22243931145
         -20891983975,           22243931145
         -19991864482,           12284914694
         -30744677594,           -2996971416
         -30744677594,           -2996971416
         -30744677594,           -2996971416
         -21247561540,           -3770469108
          -1988391188,           -1350838187
          -1988391188,           -1350838187
          -2988610170,           -7791976821
          -4669007497,          -23493246421
          -4669007497,          -23493246421
          -4669007497,          -23493246421
          -4669007497,          -23493246421
          -9464743766,          -32305158018
         -22485435572,          -24944349151
         -16138037568,          -15282067283
         -12467270190,          -17589210536
         -10153859482,          -16125698038
           1911729686,          -21595910138
           1911729686,          -21595910138
           1911729686,          -21595910138
         -15412161677,          -24136568419
         -15412161677,          -24136568419
           8538839661,          -22049558649
           8538839661,          -22049558649
           6596255852,          -16826631039
          10666051062,          -11423776475
          11297577821,          -15600822484
          12683412723,          -23155492695
           2750224808,          -27174789411
          -5196280121,          -28154284882
          -4907069890,          -31018791023
         -10150214612,          -28047317267
         -18324387909,          -23022752823
         -19726788219,          -14769652489
         -29270634021,           -3896305797
         -29270634021,           -3896305797
         -26339904236,          -12133092457
         -15107151252,           -7770551168
          -4029824736,           -7668858127
          -2082951652,          -10414162093
           4603972486,          -10651781325
          11017187319,           -2251059756
          15879864590,            8736214883
            807983700,           22865722874
            807983700,           22865722874
          -4071981106,            8302959097
         -11121184529,           13661268139
         -21958221249,           22447789586
         -21958221249,           22447789586
         -21958221249,           22447789586
         -25759651110,           15865691773
         -26898414090,           21491014237
         -30425301563,           31794082421
         -30425301563,           31794082421
         -27343310639,           25627695869
         -26796529729,           22921838019
         -32347341884,           15040284181
         -17931823058,           12729926174
         -18146922685,            2866215162
         -23852236321,            7909163250
         -19917790897,           19065561259
         -19917790897,           19065561259
         -31981316273,            5614951746
         -31981316273,            5614951746
         -31981316273,            5614951746
         -31981316273,            5614951746
         -31981316273,            5614951746
         -28604553711,            7158082052
         -27812785100,            4659114176
         -32353851459,           -3181071023
         -32353851459,           -3181071023
         -20163244596,          -11839945480
          -8013063777,           -7131995922
          13718208191,           -8857867713
          13718208191,           -8857867713
           7742429370,          -13414498575
          11862151503,          -26140521459
          11862151503,          -26140521459
          11862151503,          -26140521459
           5284489512,          -14348820813
           -321561056,           -1190550484
           5214202985,            1013172443
           3728190043,           -1078452883
          -1495862007,           -5174243816
         -16508985673,          -17795362750
         -16508985673,          -17795362750
         -16508985673,          -17795362750
          -6402329215,            6870598910
          -6402329215,            6870598910
           5826291061,           -9363972843
           5826291061,           -9363972843
           8398975503,            -378983707
           7174281596,            5013616858
           5363089991,            8652307899
           6975388465,           20874252702
           6975388465,           20874252702
           1179500293,           26732570754
          -5819642812,           22707959031
          -6824152229,           29635545943
          13261956086,           28475823292
          13261956086,           28475823292
          15330781225,           27474779697
          21039468368,           34694228054
          21039468368,           34694228054
          21545111492,           41519528572
          31695151758,           34153753010
          27910421110,           15759968857
          33710686854,            -564433502
          33710686854,            -564433502
          33710686854,            -564433502
          34603003918,            8806261062
          33905402307,            4114612209
          32973855909,            3680256285
          33351942781,            2476895730
          33654281457,           -5997114124
          33654281457,           -5997114124
          21625261734,           10619657286
          21625261734,           10619657286
          19137765401,           19726376133
          32723788614,           12519973103
          32723788614,           12519973103
          25544307366,           11777208930
          27220072752,           15366540429
          36795371367,           16415521358
          26140746963,            3025637165
          29850218088,           -4830804014
          33529550083,          -13782393367
          19522400923,          -16743018894
          -3084691812,          -15585583793
          -3084691812,          -15585583793
           4096348160,          -17873808924
          13175365223,          -27973548514
          13175365223,          -27973548514
          12828604242,          -27484166092
          14133983724,          -32123818154
          14133983724,          -32123818154
          14133983724,          -32123818154
          14133983724,          -32123818154
            583170902,          -25129574968
           5487699817,          -13250535573
          20591762328,            2321036800
          20591762328,            2321036800
          14414233628,          -16414136887
          14414233628,          -16414136887
           6303961610,           -8171360613
          -1693805033,           -2214060351
          -6566225598,           -5157478325
         -15502002129,           -9007659665
         -19413995093,          -12629666151
         -22447813191,           -8882342144
         -32463841690,          -16525561013
         -32463841690,          -16525561013
         -14993748048,          -23164304410
         -14993748048,          -23164304410
         -10014144634,          -11296351662
         -14740842378,            8842926294
         -14740842378,            8842926294
         -14740842378,            8842926294
         -14740842378,            8842926294
           7720272982,           17786460106
           7720272982,           17786460106
           7720272982,           17786460106
           7332332912,            6824782364
          14778530192,            -671874443
           7065368321,            7354328031
           1080287257,           24475382456
           1080287257,           24475382456
          -1784312646,           22108690737
          -3879945636,           22053079129
         -10446903080,           32187527846
         -10446903080,           32187527846
         -10446903080,           32187527846
          -6694001529,           32246393468
          -1812112613,           31965476856
           5742298070,           32452825236
          16180993694,           27228171944
          10603178740,           15195728411
           1663019166,           15194249791
          -8039657152,           12569745169
          -4208419661,           19970595577
           -368913385,           32018279548
           -368913385,           32018279548
           7718590265,           30926072896
          16999424886,           15205800080
          16999424886,           15205800080
           7389881757,           20307736472
           7389881757,           20307736472
           7389881757,           20307736472
          16125083836,            7128719489
          16125083836,            7128719489
          16125083836,            7128719489
          25460950763,           19163495720
          25460950763,           19163495720
          25460950763,           19163495720
          18840201849,           26536840382
           8160794438,           23324800740
           2617944534,           24297598464
           1314929980,           26267047059
           3624045265,           27001415981
           3879008926,           25474633089
            663105489,           24864898863
          -8555257481,           32867311470
          -8555257481,           32867311470
           1655788981,           23522401079
           5797044405,            9250022666
          -8826970807,           -7698376214
          -8826970807,           -7698376214
          -9097791937,          -12154554440
         -13097213976,          -11469450748
         -17964866057,          -14950639053
           -334749444,          -11109692431
           -334749444,          -11109692431
          -5802045887,           -3109210393
         -15232894513,            3411809121
          -4650249835,            9209585589
           6069288542,           11961481171
           5536992168,          -10954316016
           5536992168,          -10954316016
           5536992168,          -10954316016
          -2871727175,           -9186415018
          -8124980792,           -9882378254
         -25014839390,           -6917664778
         -25014839390,           -6917664778
         -19317780152,           -3099264675
         -11374726784,            4730712466
           -451543611,            3156330992
           6074266587,            2835325797
           5488372970,           12274298578
          -1850573426,           12779019488
          -6768453810,           13617977798
         -13829091994,           12843450835
         -18865957733,            8431666290
         -23511645084,            1064276643
         -30631543637,          -12139908240
         -30631543637,          -12139908240
          -2114727710,           -8497935768
          -2114727710,           -8497935768
          -2114727710,           -8497935768
          -2114727710,           -8497935768
          -6775603903,           -5514597646
          -9113883761,            2595881950
          -2103962879,           12634390477
           3928202879,            4394097742
           9439209098,            9578059434
           6002113793,           20906627446
           3386220895,            6704641603
          -1547690427,           -1353048973
          11801518591,          -15120526361
          11801518591,          -15120526361
           -758368310,          -20892289964
           -758368310,          -20892289964
           2752361899,          -22721522459
          13523065030,          -32655438178
          13523065030,          -32655438178
          13523065030,          -32655438178
          14620106276,          -35743708614
          14620106276,          -35743708614
           7980839813,          -20600445199
           6554578761,           -9355915715
           8453675699,           12778211834
           8453675699,           12778211834
           8453675699,           12778211834
           8453675699,           12778211834
          10504292433,           14064003547
          12506965458,           29172155317
          12506965458,           29172155317
          10893952055,           22139560322
           6965158967,           16483693218
          -1043941142,           11533418586
         -12180528710,           12779403546
          -6553419336,            7896752394
          -8452864102,           -8645665404
          -8452864102,           -8645665404
         -18157661667,          -14427152011
         -18157661667,          -14427152011
         -17599388476,           -3435186306
         -20050513067,           15634232231
         -20050513067,           15634232231
         -20050513067,           15634232231
          -2438947445,           26405844828
          -2438947445,           26405844828
          -6744733502,           14544633692
         -17742687813,           13136131725
           4330490988,           -1112629306
           4330490988,           -1112629306
           4330490988,           -1112629306
           4330490988,           -1112629306
           4330490988,           -1112629306
           -148118454,           -6015729421
          -5860125441,           -8159409312
         -18362746668,           -7303205960
         -12853922667,           14215108663
         -12853922667,           14215108663
         -19431178634,           22687711986
          -9405964330,           26070640031
          -1090583506,           17092144084
           6426765452,           19496421603
          11043096079,           14539123435
           9395260866,            4289080593
           8759994435,            -997717426
           3207465192,           -5953950909
           4528213257,          -13852956548
           9523493414,          -13392482904
          11731699334,          -16291376825
          13366150289,          -29442826423
          13366150289,          -29442826423
          11484643755,          -27191087406
          11225819635,          -26268575495
          15884995702,          -27225629463
          15170749673,          -14685805639
          28658387416,          -11568554136
          28658387416,          -11568554136
          24174908165,           -5176480454
          14535489135,            2388256821
          12791036514,           10009885556
          15435390246,           15345025670
          22545612045,           22363588725
          27522767304,           11170455500
          16590482182,            5103688869
           5342436369,            6905049415
           5170886581,           11947768435
         -13130751851,           19959849604
         -13130751851,           19959849604
         -13130751851,           19959849604
          -4288755275,           17843515169
           3511255064,           14107223234
          13145969174,            8501577395
          15644629366,          -12087758470
          15644629366,          -12087758470
          18408229034,           -8054661608
          25803370301,           -9579988398
          23245783945,          -14664295211
          26199051823,          -19357606086
          23143996435,          -21002424889
          22587107013,          -20021149508
          22575164259,          -19670307988
          24822046303,          -30519588048
          24822046303,          -30519588048
          36702785245,          -23940692011
          36702785245,          -23940692011
          36702785245,          -23940692011
          17961008535,              -8111950
          17961008535,              -8111950
          17635726148,            3977067322
          23941420003,           19534319582
          23941420003,           19534319582
          20496582616,           16932297700
          15578041125,           16717403884
          17347079731,           29741045364
          17347079731,           29741045364
           5104783317,           21191574648
          -1301176562,           14907084967
         -18949686240,           15588920232
         -18949686240,           15588920232
         -21293586364,            1772913411
         -11271261026,           -5260526926
          -6601392529,          -24298211872
          -6601392529,          -24298211872
          -9840153559,          -18370831511
          -9229995945,          -14532251577
         -10874149285,           -9593688332
         -17381103097,          -11895589497
         -17623955862,          -12787443079
         -19438180342,          -10874542320
         -32934079074,          -15343120758
         -32934079074,          -15343120758
         -24342345540,          -30067537365
         -24342345540,          -30067537365
          -1577759609,           -8162374265
          -1577759609,           -8162374265
          -1577759609,           -8162374265
          -1577759609,           -8162374265
          13713205447,           -3780926702
          13713205447,           -3780926702
           3413975656,           -6628559593
           2668280797,          -11687395064
           3085727766,          -14396518825
           3964873993,          -15254848288
           2586588625,          -23540000849
          11703407267,          -15685132495
          27519737921,          -13556573124
          27519737921,          -13556573124
          21170144138,           -5818860663
          19973061651,            8811699426
          19973061651,            8811699426
          19973061651,            8811699426
          18023652485,            6137166540
           6182487595,            1288702850
           5909035243,           11534405708
           5424814858,           26112946641
           5424814858,           26112946641
          -6183285932,           29493644629
           3402640981,            2606688592
           3402640981,            2606688592
          11533178063,            5932972754
          23535106911,           -3577860207
          23535106911,           -3577860207
           4878163135,            3937948800
           4878163135,            3937948800
          11305561970,           -1228346629
          19520841556,           -7551357353
          13030880470,            2840172314
          10426312761,           -5146649496
          -1029450503,           -8934269625
          -7003946190,           -4318592816
          -4902241068,            4927697716
           3083101499,            6192715745
          10605576579,            4501247987
          17525331183,            4700432879
          16313611902,            5757944545
          16576456338,           10945573618
           8877228914,           15528388020
            331130424,           18535425973
          -8664975806,           10694127665
         -20238875143,           -6687502714
         -20238875143,           -6687502714
         -20238875143,           -6687502714
         -20238875143,           -6687502714
         -27696359584,           -7902477372
         -27696359584,           -7902477372
         -20121297246,           -4244054783
          -9643593541,            1183660275
           -849024250,            1011452409
           2468382504,            4955844130
          12934830009,           13592918575
          -7695991452,            4361082245
          -7695991452,            4361082245
           4276482401,            -168467902
           4276482401,            -168467902
           4276482401,            -168467902
           4282027869,          -18156790178
           4282027869,          -18156790178
           8355489903,          -19206579395
           8629932949,          -21874167130
           5600817609,          -25674213828
           7913206622,          -26985274603
          11873180585,          -20572706675
          11560155757,          -15592783561
          14029224799,          -10571994761
          20885316614,           -1028804096
          13803586648,            7701823376
          12711846239,           13169017511
          14524608331,           15063318122
          15931425228,           20308362294
           7286527091,           33543206439
           7286527091,           33543206439
          -5207352549,            8018362237
          -5207352549,            8018362237
           2003215355,           13119033937
          -8905670764,           18202755078
          -8905670764,           18202755078
          10516402922,            1145516852
          10516402922,            1145516852
           9805368112,            4836239918
          17815924284,           13049044359
          17815924284,           13049044359
          -2990735271,           22019232940
          -2990735271,           22019232940
          -2990735271,           22019232940
           2770200584,           12579921056
           -909608259,           10578161175
          -2750268530,           14346815716
           2346686104,           16415756086
           7847289631,           17219769251
          12612022167,           16651685374
          16478802667,            7154264455
           9401047907,            2791100419
          -1729965320,            9385471762
           3029177964,            7489789934
           8392306607,            1979972051
          13937540026,           -5924231384
           7287682126,           -8038763544
          -2629563647,          -15935055993
          -2629563647,          -15935055993
          -2629563647,          -15935055993
          -2629563647,          -15935055993
         -19879557199,          -17596990140
         -19879557199,          -17596990140
         -17913406148,          -18070759376
         -24135796004,          -28111413831
         -24135796004,          -28111413831
         -12477913421,          -18744308849
          -7386969342,          -18770373921
          -1305407973,          -24735673445
          -1305407973,          -24735673445
          -9933216905,            -564598954
          -9933216905,            -564598954
         -11570836443,           -7197835640
         -14591533783,          -11361318603
         -12017959913,              35716147
         -12017959913,              35716147
          -7466562539,          -13575178146
          -3902856278,            -619243792
           8864412306,           13739921424
           8864412306,           13739921424
          13588737980,            8534661680
          27550979231,            4685772986
          27550979231,            4685772986
          27550979231,            4685772986
          12057794364,            7106967828
           9482270246,           14703348022
          10900628836,           19376569063
          17938361696,           30313970800
          17938361696,           30313970800
           6284624697,           25158305557
           4399237287,           36938166723
           4399237287,           36938166723
           1277717431,           35610368626
           1669633910,           37257890336
           5809446012,           39699645722
          11284294862,           40120384303
          18337914529,           39770656215
          24684075750,           42781768917
          25475558623,           29967260106
          27496567452,           12601895844
          27496567452,           12601895844
          27496567452,           12601895844
          27588861620,            4597544992
          24466163888,          -16109071341
          24466163888,          -16109071341
          13752494953,           -8048244500
          -5835135802,            8539620929
          -5835135802,            8539620929
          -5835135802,            8539620929
          -5835135802,            8539620929
          13954267584,           -3041696674
          13954267584,           -3041696674
          17498928442,          -21456540507
          17498928442,          -21456540507
          17498928442,          -21456540507
          17498928442,          -21456540507
          13892267192,          -19414853883
           2637890994,          -24542564324
           2637890994,          -24542564324
           2637890994,          -24542564324
           2637890994,          -24542564324
           2637890994,          -24542564324
          13553375654,          -16990687668
          12064343335,            8722361657
          12064343335,            8722361657
              4076396,            2598507127
          -1960721882,           11938796644
          -1372505318,           27684510485
          -1372505318,           27684510485
           7047392840,           18902255014
          12941321550,           24351087886
           1327983950,           35084624165
           1327983950,           35084624165
           1327983950,           35084624165
         -10666822937,           38732628992
         -10666822937,           38732628992
         -10666822937,           38732628992
         -10666822937,           38732628992
          -1423217879,           30879920191
           2232153311,           30572237736
           7968850793,           30959985396
          -1558494415,           20980733466
         -13331602886,            8888307574
         -13331602886,            8888307574
         -13331602886,            8888307574
         -13331602886,            8888307574
         -13331602886,            8888307574
         -26082494477,           11375776057
         -26082494477,           11375776057
         -16661367740,           11706015663
          -1355035906,            1751760018
          -1355035906,            1751760018
          -1355035906,            1751760018
          -8748263724,           -3165083538
         -24162647253,           -8658009422
         -24162647253,           -8658009422
         -16897586786,             980120502
          -9513096658,            3742543501
          -1866553041,             494188294
          16732275517,            4211402372
          16732275517,            4211402372
          15594724818,            8659700488
          22512719072,           21523672609
          22512719072,           21523672609
          22512719072,           21523672609
          30907485292,           25156808536
          19043434512,            7947484738
          10565575483,            1401196898
           2886187176,          -12548309156
           2886187176,          -12548309156
           2886187176,          -12548309156
           2886187176,          -12548309156
           2886187176,          -12548309156
          10219556780,           -5959836839
           8442179934,           15155467047
           8442179934,           15155467047
           6574500745,           17635741060
           8467621088,           25229920631
           8467621088,           25229920631
           3926230518,           17117145000
          -2953911616,           14617240019
         -11576456194,           20374258653
          -5973873001,            5680399654
          13857151545,            5264769946
          13857151545,            5264769946
          -4473385999,           15281750662
          -4473385999,           15281750662
         -23747213224,            5543264706
         -23747213224,            5543264706
         -18582184237,           15408014195
          -5803368027,           18085714717
           6363028791,           17383124704
          25069963177,           13456677480
          25069963177,           13456677480
           3375582143,           19727595747
           3375582143,           19727595747
           1110669436,           18839625994
            136692512,           24591159360
          11683613209,           22250468533
          22351921324,            2690426082
          22351921324,            2690426082
          22351921324,            2690426082
          15704281107,           -3278822030
          -2536150211,           -6804891083
          -2536150211,           -6804891083
          -6488811830,           -8476333922
          -5999254593,           -6570847457
          -7669075154,           -1734972049
         -19541744687,           10381931266
         -19541744687,           10381931266
         -13515694738,            9577675299
          -8662677834,            -862591988
           1386490220,           -2951087316
          15143935232,          -16239153201
          15143935232,          -16239153201
          15143935232,          -16239153201
          18975940890,          -21031083658
          18975940890,          -21031083658
          18975940890,          -21031083658
          18975940890,          -21031083658
           2975237110,           -5702327237
           2975237110,           -5702327237
           2975237110,           -5702327237
           4166883056,           -5504386837
           5835673885,           -8616149811
           6560539954,          -14963546922
          22631240613,          -16916933790
          22631240613,          -16916933790
          10239640166,           -9430100704
         -12159604720,           -9178050871
         -12159604720,           -9178050871
         -18475519161,           -6612066173
         -20449243890,            1824360901
         -12808824421,            8042311728
          -3352745852,           14031985788
          -5283212069,            4149017079
          -9211518798,           -1480570828
         -24486925805,          -11344321092
         -24486925805,          -11344321092
         -24486925805,          -11344321092
         -22538482585,            1527891059
         -14838485998,            7255254834
          -4129631566,            4045538503
           4923962376,            6377164908
           4173635177,           11852455192
           8600734418,           21214387891
            344564245,           10229453916
         -16509177486,           -1858813583
         -16509177486,           -1858813583
          -4460903173,             913392548
           2168367756,           -5864388151
           3660108030,           -8472378452
          14158487321,          -12373115862
          14158487321,          -12373115862
          22151597919,           -4151465442
          22151597919,           -4151465442
             44236274,          -11925457133
             44236274,          -11925457133
         -10918326393,           -6062184891
          -3130237991,            5128801718
           2721083119,           -2555380006
           2553315398,           -4692562231
           3513012902,          -10817653873
          10302322127,           -9878346983
          21385017567,          -18511254589
          21385017567,          -18511254589
          21385017567,          -18511254589
          17134730236,          -15439790605
          10098407116,          -10139033659
           -475945115,           -5004017479
          -1483135245,            4532543043
           5512841744,            9203845074
           4643553765,           14887405592
         -13499884822,           19440615236
         -13499884822,           19440615236
          -3007468430,           -3141941793
          -3007468430,           -3141941793
          -3007468430,           -3141941793
           1785222876,             192702392
           7217673306,           -2520250830
          13160538038,           -3231089272
          17964788444,           -6305656559
          30614214555,          -12144900726
          30614214555,          -12144900726
          31383979957,          -16538139065
          25834256535,          -30904050180
          25834256535,          -30904050180
          25834256535,          -30904050180
          25834256535,          -30904050180
          25834256535,          -30904050180
          25834256535,          -30904050180
          15164033513,          -33004395497
           3204202169,          -37113757826
          -3787310178,          -21722707254
          -6516587692,            4121457758
          -6516587692,            4121457758
          -6516587692,            4121457758
          -6516587692,            4121457758
         -16082639832,            2192286345
         -12114840516,           12260566054
          -3326427605,           26621258883
          -3326427605,           26621258883
            307909792,           18633078476
          -2858327968,           12077050148
         -11217729243,            5616958101
         -16320650922,            6952313107
         -23020867346,          -11883753283
         -23020867346,          -11883753283
         -10715072594,           -9617196346
         -13053182875,          -20271263286
         -27176090658,           -3881962788
         -27176090658,           -3881962788
         -28572057991,           -9350990891
         -20988016270,          -13855573184
         -14696171183,          -21668805104
          -5060652585,          -20084089023
           6765464702,          -29520744584
           6765464702,          -29520744584
           6765464702,          -29520744584
            775261287,          -27013525995
             11361265,          -27536468883
          -6727436879,          -25478935295
         -16742419572,          -27650714446
          -5353450910,          -21700725273
           1974582058,          -20112713230
           6459960041,          -21578085178
           5381830978,          -25535707238
          -1447938113,          -24077529111
          -4879027247,          -36181623212
          -4879027247,          -36181623212
           1477064891,          -22176219508
          21649788447,          -10369392899
          21649788447,          -10369392899
           7423910777,          -22720457297
           7423910777,          -22720457297
          15194035543,          -18283493589
          14501295446,          -33414288536
          14501295446,          -33414288536
          19170338134,           -5351139328
          19170338134,           -5351139328
          20308238649,           -9841816253
          28191465049,           -2677368588
          23599496099,           17453194823
          23599496099,           17453194823
          23599496099,           17453194823
          34558509914,           18659687320
          34558509914,           18659687320
          22585071454,            8756874016
          11626684154,            3757639987
           1636157936,           -4178109702
          17895683012,             940793775
          17895683012,             940793775
          15482768820,           -2209242609
          15251929111,           -7199820924
          21738633021,          -13919208344
          35832886137,           -9743445841
          35832886137,           -9743445841
           8332647837,            6064489801
           8332647837,            6064489801
           8844475209,           -8589287094
           8409833863,            5533633048
          10197099849,           11056681624
           7137969893,           21913069215
           7137969893,           21913069215
            689145942,           26969771743
          -5659090003,           22094062377
         -12543423271,           13465182476
         -24242278558,           -2170783969
         -24242278558,           -2170783969
         -16969594990,          -20846901614
         -16969594990,          -20846901614
         -16969594990,          -20846901614
         -21317989789,          -18479647744
         -32961455498,          -16801223987
         -32961455498,          -16801223987
         -32961455498,          -16801223987
         -32961455498,          -16801223987
         -32961455498,          -16801223987
         -35794394004,          -10350721384
         -30054162122,            -727540957
         -24259138957,           13019868314
         -24259138957,           13019868314
         -17509476619,           16428712888
          -4724608506,           11830479514
           1803629300,            9175184454
            618295415,           19951776101
            618295415,           19951776101
            618295415,           19951776101
            618295415,           19951776101
           6224585799,           12183797980
          18530602138,           -4356243305
          18530602138,           -4356243305
           6149060719,          -10934147949
         -13734520143,           -3788432997
         -13734520143,           -3788432997
         -13734520143,           -3788432997
         -13734520143,           -3788432997
         -14736759852,          -12738845097
         -16112135311,           -3127360252
          -7267987283,           -5384779498
           5220330414,          -17942737728
           5220330414,          -17942737728
          -7297935317,          -20935102638
          -7297935317,          -20935102638
          -7297935317,          -20935102638
          -7627582227,          -19853354499
          -8739823053,          -16400362460
         -12687890331,          -10492926832
         -15711776267,            -322022642
         -16540006233,            8730345574
         -13898541737,           16355493513
         -10128868896,           22333705519
             33010757,           19677054152
           6388161799,           21689515334
          22510575905,           22913601866
          22510575905,           22913601866
           8803923114,           18397609982
           7399651052,           10774101447
           5024805916,            1933804876
          -6688539986,           -1911933445
          -5970468179,           15412019045
          -5970468179,           15412019045
          -5970468179,           15412019045
          -4233544398,           15310066873
          -1031846110,           12353386440
           -113008359,            9609202027
            581512503,            6737771763
            797290267,            3885573808
           -453851684,            1933376157
          -2003692620,            1548406849
          -3299334894,            1624973709
          -3985898104,            2363611994
          -4114920827,            3060865693
          -4102118517,            3570429308
          -4334807593,            3730861801
          -4125314468,            4114399545
          -4086719058,            4105163163
          -3746925136,            3998340619
          -3193596839,            3725561460
          -2764089134,            3432652080
          -2434118171,            3257345744
          -2497696498,            3004489134
          -2769359241,            2726926393
          -2804159086,            2690628338
          -2376757197,            2789725273
          -2652276418,            2558947162
          -3146547752,            2497424556
          -3160805521,            2814833869
          -2910220801,            3130866241
          -2848562779,            3328969923
          -2635228431,            3449286305
          -2575605649,            3528579247
          -2609880954,            3449978153
          -2868352353,            3213752315
          -3148836512,            3171139235
          -3005797457,            3540491879
          -2858754342,            3791962068
          -2783675091,            3864734506
          -2190352414,            4008675900
          -1898037219,            4175807325
          -2145978481,            4033182556
          -2248523879,            3980216692
          -2046802825,            3860461473
          -1868898160,            3578632267
          -1423176496,            3406485543
          -1035060121,            3258126823
           -608717059,            3102617520
           -290556450,            3255373443
           -379269344,            3214721931
           -535144860,            2985839965
           -723248122,            2350073129
          -1072305128,            1891813735
          -1257789340,            1901954315
          -1386677143,            1922720503
          -1742475898,            1735429732
          -1800821493,            1960528326
          -1802434059,            2175150704
          -1875706677,            2253454738
          -1679013214,            2423440623
          -1742644953,            2456879831
          -1765716393,            2432642591
          -1820556725,            2405687604
          -1792590067,            2444905936
          -1809730361,            2460064210
          -1898965257,            2509585683
          -1936496611,            2583015351
          -2067763649,            2593992578
          -2018532518,            2637664861
          -1475464460,            2655555598
           -749293095,            2646754740
           -751848196,            2650727274
           -777925630,            2357637839
           -769590856,            2128332632
           -603231089,            2005453242
           -559506502,            1869911768
           -634213258,            1609861629
           -888990856,            1298698351
          -1285314936,            1149904939
          -1608466952,            1189831958
          -1913188998,            1298635289
          -1633798723,            1684355258
          -1258057094,            1908342844
           -973803433,            2071696148
           -779764700,            2173942596
           -678676001,            2265283528
           -717379429,            2212298439
           -711660990,            1990072328
           -678200488,            1745883933
           -696141010,            1407770332
           -874663880,            1076335487
          -1068152960,            1025192832
          -1352501900,             828928091
          -1595208752,             942453329
          -1462469272,            1225707178
          -1226249982,            1267557425
           -952805170,            1255476420
           -598319505,            1232235758
           -451190937,            1193160650
           -476131814,             836284677
           -698053776,             434719441
           -915711007,             529233481
          -1090682408,             648044780
          -1191037991,             844206335
          -1125899910,            1085786260
          -1084656020,            1209546250
           -894032045,            1291449622
          -1005828509,            1302991825
          -1148231730,            1232628783
          -1111173274,            1301514820
          -1033209562,            1337081189
           -845100535,            1310267493
           -602736218,            1216884009
           -401052542,            1101311306
           -345960629,             920878060
           -416404405,             569620217
           -640093741,             392010822
           -855427715,             459937868
           -907982538,             657364179
           -972080524,             764565298
           -924290320,             884436770
           -697618225,             976445334
           -449325820,             996739272
           -315416354,             957961478
           -304386690,             816801637
           -199859149,             712520360
           -182179752,             633786283
           -257609256,             541736794
           -375976766,             438780698
           -563694136,             312692693
           -790233403,             309756451
           -886470492,             477153816
           -956952539,             608562568
           -961159574,             781614149
           -854811992,             919679557
           -650240916,            1014132280
           -431448873,            1045943509
           -328282405,            1027079220
           -218315693,            1000200360
           -193613534,             918504082
           -193129365,             774729211
            -32358087,             689416690
            144533799,             693445962
            132262505,             699553670
            193890414,             681881932
            336479132,             736029677
            217209866,             711776807
            125424451,             567318312
             22214128,             435644547
             -4776126,             391777102
            -54574476,             357446894
           -130018204,             294731497
           -183907258,             212222004
           -100307749,             215758717
            -22297480,             236427266
           -117064320,             180963057
           -269336638,              17513437
           -429573332,              64063387
           -580407715,             116161970
           -748193644,             149574917
           -719273357,             363385673
           -650302646,             485063867
           -573811884,             471297757
           -464189364,             406824260
           -379974788,             316910622
           -324839402,             257419368
           -247684250,             224578109
           -206239245,             201040899
           -180540487,             178989704
           -188319302,             155640123
           -173300310,             156301037
           -205234873,             136057889
           -319350354,              37642994
           -487929072,             -45168947
           -580990417,              78173192
           -589716693,             224152409
           -562570317,             323874982
           -617210274,             350266155
           -603050680,             393506303
           -633409346,             435453444
           -672247938,             445271492
           -663124443,             494287648
           -669901660,             500550397
           -644692041,             549747539
           -476983933,             614885569
           -264329478,             638044367
           -138413150,             654477710
           -107245966,             633206432
            -84747169,             594531131
            -63647643,             519311682
            -37620363,             300328230
            -76852604,              96126132
           -167514722,              50471725
           -277302240,              29219764
           -287890294,              78466980
           -393356787,              67543545
           -444995482,             132660193
           -387134879,             206716370
           -308399158,             195414546
           -296332650,             182741796
           -366794306,              91932006
           -432014071,              77875666
           -486112708,             100807457
           -471150337,             205970678
           -469934873,             284321084
           -415742121,             360239867
           -325946971,             395776226
           -240456756,             380957471
           -141654909,             323975869
            -85863469,             225255539
            -96242962,              93746225
           -150089431,              33483776
           -192625922,              32722945
           -288287024,              -8160378
           -364618546,              31635957
           -361167861,             133159859
           -397072764,             183073741
           -416238647,             242699777
           -316859457,             334088436
           -170978639,             380943905
            -11658306,             405092327
             10582522,             409081636
             53311159,             397583398
             89951643,             362134058
            100935157,             316917472
            148972301,             284051418
            168783282,             227367110
            217084413,             197017690
            325367834,             172997224
            392619481,             229674241
            312834629,             218756274
            353619483,             239047951
            357317820,             245108634
            279594421,             152868875
            234370282,              77615891
            167978003,             -24066463
             77455973,            -107920613
            -47110282,            -206842450
           -178952273,            -239574107
           -232877630,            -152380510
           -182902298,             -36438607
            -99462286,              41735882
            -44581507,              50276558
             29780282,              52689288
            133577101,              46333458
            206338229,              43545240
            210174824,              37956641
            199121876,             -54087795
            182043394,            -191235890
            110101082,            -265598208
             12168824,            -318984434
            -60518984,            -267180927
            -84260242,            -194322432
           -151754813,            -186264051
           -190701945,            -164661715
           -131756392,             -82097074
           -143157264,             -43774149
           -205065770,             -85035136
           -199852221,             -34200295
           -143526769,              28016561
           -103406763,              72781584
            -72777731,              99860255
            -26531230,              78708872
             47453516,              72693710
            120859762,              26070798
            175901539,             -43009282
            206379651,             -95780782
            188598541,            -190059908
            143224669,            -338886239
             72156642,            -338850906
             15131406,            -275372581
            -20793246,            -207985040
            -22586362,            -143449657
            -61461505,            -112062472
            -44882125,             -44257340
             11955757,              -4746820
             15543891,              16433453
            -46136923,             -18382830
            -38200255,             -12154520
             11137183,              17427890
             62335533,              44918148
             88803586,              61342094
            124955753,              68653808
            204044530,              84706004
            196684190,              43284667
            234316070,              14709856
            278565973,             -42568509
            298551530,             -98712454
            317453015,            -134937698
            345948042,            -167519075
            340469332,            -199346838
            321115531,            -233222347
            303255311,            -257062105
            296665882,            -274313589
            263469974,            -310157919
            225734121,            -352139581
            161325513,            -384221830
             78885093,            -396360540
             63069348,            -322729415
             29134067,            -289640017
            -19031535,            -275244735
            -53437330,            -250678955
            -68787704,            -209507289
            -46181886,            -154375823
               354589,            -106417987
             75268040,             -85878390
            168961054,             -78480440
            262716851,             -95805555
            272867156,            -136977507
            348458709,            -136158084
            434794387,            -154384948
            411450637,            -137619063
            381594488,            -159276357
            383102942,            -165597696
            362414143,            -191170342
            364904436,            -213040493
            422206733,            -220759624
            382798117,            -239740010
            361730071,            -359873955
            324387734,            -436556538
            226503090,            -461798661
            142278482,            -428622257
            112305630,            -343948219
             72568728,            -299920867
             58700599,            -247138813
             77504223,            -204841389
            119666196,            -175596950
            171683726,            -159465428
            214449226,            -183283222
            267655826,            -233990166
            295947960,            -329832345
            281892012,            -363938970
            256893629,            -363064319
            221986643,            -362703633
            202949207,            -362652409
            164570936,            -370845084
            104309082,            -411497505
             71194591,            -386037309
             34817317,            -347473393
             13185109,            -295420123
             24244535,            -255898463
             58843198,            -203689094
            200863401,            -148168433
            251324200,            -134772542
            275457575,            -138393241
            322603045,            -138410870
            361539476,            -152581623
            397694861,            -162793350
            421155933,            -176172914
            402050194,            -209983561
            392306995,            -279834682
            395159394,            -317717027
            353870590,            -377259947
            306742870,            -421044086
            245881675,            -471884250
            165292776,            -531511393
            101349390,            -466192814
            116054250,            -366789383
            131506248,            -314739018
            191907716,            -272995393
            246879760,            -285326583
            332021408,            -283078255
            356745488,            -302367679
            357963549,            -352279943
            362804334,            -427587705
            329310525,            -510134139
            278516186,            -495272605
            219110783,            -477908034
            177059854,            -479476195
            149207819,            -455789239
            118982026,            -436980483
             65833583,            -464728218
             21424568,            -459314602
             83274646,            -349177677
            169141831,            -282687801
            153107040,            -282855992
            200718038,            -269911569
            292098353,            -265275113
            325576905,            -325003572
            364356865,            -360776710
            364452712,            -394922356
            342341664,            -456977812
            312766701,            -519656195
            253825368,            -532603674
            231519517,            -493008184
            194745452,            -474928635
            144716159,            -484981553
            131064963,            -447431155
            128924443,            -399547257
             72354204,            -399390427
             49866933,            -333929097
             86437868,            -270731030
            133599093,            -222341593
            196029413,            -188649832
            227862140,            -181475470
            236784452,            -204795487
            296123126,            -196176977
            332276256,            -244722786
            373066892,            -329409041
            389828921,            -402030027
            341998416,            -479270225
            285820537,            -499603574
            270886090,            -468452517
            274185694,            -493074508
            290013770,            -524604423
            301368717,            -544592511
            327697209,            -546798767
            375406345,            -555048385
            378220813,            -567415444
            360173291,            -611010171
            333070025,            -627729677
            277505546,            -615603880
            213897390,            -608428217
            163756165,            -567352681
            156560168,            -465619519
            182034615,            -382459987
            155889040,            -349970068
            162484931,            -312607241
            207196850,            -284763967
            246947218,            -284977301
            300287064,            -288688724
            345757459,            -317111808
            390285607,            -393268059
            446106058,            -512004794
            412321548,            -601915275
            358879693,            -527607611
            291574287,            -478809865
            273041090,            -417513153
            295219422,            -355220457
            317276472,            -322605610
            333288803,            -311941430
            398289979,            -280999734
            425910126,            -287852946
            447688554,            -305160601
            472771205,            -345800408
            518980651,            -385506479
            542342651,            -436185298
            517116900,            -503303102
            492001034,            -541805314
            492035846,            -567691960
            461646041,            -592442322
            448256257,            -610987293
            410172700,            -668776100
            374795988,            -727023905
            324816876,            -670572444
            281934876,            -593591898
            272589598,            -498494896
            261796915,            -436558423
            272617141,            -382238336
            302351946,            -347293277
            318940011,            -331391125
            335595831,            -330046566
            395324901,            -311263769
            418297372,            -314355090
            454809466,            -306162806
            462176641,            -322967696
            492692003,            -336237769
            514415414,            -372058594
            529615037,            -416235060
            555862601,            -447950519
            559457658,            -491870117
            565201807,            -522745028
            588185024,            -536245044
            569223336,            -533742463
            574307112,            -540181511
            623730459,            -538255103
            604721115,            -537248513
            577453748,            -535637413
            566285724,            -547247258
            574880502,            -552324576
            558134016,            -590442041
            543421417,            -611669682
            554146005,            -618068691
            577710984,            -619006730
            538862042,            -641243299
            539803530,            -685523567
            504891825,            -701731046
            448646665,            -691245481
            399474391,            -705025173
            338828233,            -742495827
            315925216,            -707826822
            269737734,            -691842206
            221982018,            -683214211
            189823598,            -624840478
            211046525,            -539360326
            247456907,            -484405424
            320809224,            -452536731
            404008466,            -446805421
            448136925,            -482277578
            454069070,            -543014698
            459398533,            -586886107
            465892169,            -609709438
            455838158,            -638992425
            435035900,            -658509653
            430875287,            -660418950
            427702055,            -655494830
            379924505,            -680317617
            328419078,            -732168903
            270330587,            -688186400
            219085081,            -635003821
            170868113,            -598752156
            158774357,            -545436515
            198841995,            -480960181
            267343090,            -419009604
            334937628,            -426869458
            383644798,            -483558974
            436024758,            -565932827
            414576039,            -579806503
            382634284,            -562187497
            337971195,            -593612311
            283288820,            -646727458
            223379163,            -697247840
            170954914,            -643221989
            175889824,            -555583635
            238348296,            -465488112
            334105506,            -416941259
            390103522,            -387180096
            373816682,            -391436284
            406218997,            -405320026
            473845309,            -425560329
            474197144,            -466154726
            462051767,            -513546072
            446435990,            -572264404
            417276275,            -595607097
            385679651,            -597297520
            351311989,            -608631038
            339026726,            -630881167
            320575929,            -651970515
            304008930,            -666942134
            265620782,            -678636411
            207401250,            -700793841
            146913967,            -688907754
            129950436,            -588158898
            153023151,            -498869610
            174427012,            -431903654
            211725732,            -365479134
            241282178,            -325585364
            213497099,            -335449531
            270832039,            -323657140
            353508096,            -344003423
            392706089,            -423390369
            416183006,            -492682718
            390195305,            -571512396
            362791292,            -593291777
            311404007,            -605681614
            261206132,            -615635387
            231146626,            -605695837
            179377153,            -606187704
            142192617,            -570235145
            121008995,            -519162723
            152481278,            -428206793
            221718332,            -367729730
            231538322,            -343338056
            267546125,            -319377565
            356466097,            -294617425
            384368303,            -303091268
            412534686,            -310948202
            418921931,            -346596640
            458722803,            -380497745
            470815916,            -435930114
            479351239,            -473467746
            504312903,            -500287789
            509741975,            -506087063
            501603480,            -508482176
            485140095,            -546778651
            483366497,            -595697664
            468474993,            -610973901
            425311975,            -620887534
            407227168,            -626867431
            383739096,            -640979579
            359059954,            -669621288
            316082227,            -737834786
            269510715,            -704873636
            232225015,            -631058494
            182244303,            -586094093
            144207703,            -545422241
            146610415,            -477062351
            138056597,            -434897770
            134820609,            -414268716
            172555133,            -365737642
            217541006,            -328521592
            225206361,            -338618389
            301592389,            -309656166
            362376675,            -324286003
            391019249,            -349039638
            421532494,            -374360627
            450072492,            -411562693
            470166397,            -489320895
            476486441,            -602863166
            441330062,            -666943172
            375320421,            -643539233
            282495574,            -620130909
            233903441,            -572786440
            255976313,            -491198239
            304109424,            -447274248
            363511924,            -415557812
            405653895,            -411702983
            428985490,            -424229435
            463360436,            -429100304
            479029927,            -441313480
            483846860,            -457110227
            489876920,            -527738598
            509864619,            -559482799
            481777495,            -604430626
            461626218,            -626845882
            467479668,            -654087214
            454364054,            -668917038
            464848115,            -674233366
            446987515,            -692305387
            434331988,            -716376728
            389128838,            -758097818
            338262560,            -752792285
            278499785,            -726097208
            224841837,            -685008454
            198827351,            -610046801
            183646583,            -537395220
            145944940,            -528134564
            183259728,            -492573406
            250774294,            -442786780
            317180551,            -421984774
            365721142,            -425697352
            409648894,            -451436560
            449157336,            -472720148
            466693580,            -478466492
            463249004,            -534579163
            512300575,            -594542301
            491472618,            -645284172
            431308011,            -669090786
            358008692,            -685825348
            296862358,            -703849393
            236846829,            -708265624
            211467522,            -646258159
            190117977,            -589752455
            180288483,            -538602020
            201576311,            -476779689
            231271503,            -427608673
            267769144,            -401577078
            328244075,            -372677901
            315843629,            -366990261
            324850338,            -364144264
            350339721,            -349301319
            363751726,            -355018086
            376135652,            -366902421
            400262913,            -372555854
            417315242,            -404662205
            464649459,            -448649791
            490139084,            -501732215
            487839764,            -614214638
            484900667,            -670153525
            423071306,            -689681744
            352920336,            -690050583
            292514499,            -687260814
            259072904,            -645935752
            247238510,            -593048988
            234932057,            -567778763
            232613634,            -573025948
            205237464,            -590811913
            190186035,            -606819764
            196725448,            -588901938
            187430654,            -583346704
            194690451,            -562291410
            179566633,            -549553468
            193944252,            -534896103
            178201324,            -525633386
            153301017,            -559448812
            204773079,            -487524706
            299971539,            -418784892
            401787811,            -417122506
            459631679,            -446182287
            488585179,            -474808392
            515652738,            -494092843
            521511570,            -527213784
            515936830,            -564157748
            506484414,            -641486202
            467841538,            -668597827
            378488749,            -685073249
            331343397,            -635631932
            248720590,            -637221578
            215421296,            -600362762
            241692337,            -520379430
            291325182,            -448010981
            291918127,            -420416782
            309021514,            -398762824
            341151003,            -394434075
            417412879,            -395669944
            481032086,            -465271793
            508265675,            -529598764
            493447045,            -564238736
            460695249,            -600339225
            418780153,            -632010889
            378801991,            -666673788
            366833613,            -648555598
            323039792,            -652712583
            268420812,            -664775331
            237361749,            -630255815
            210728586,            -578003101
            218357505,            -480955095
            274227371,            -411987727
            299788047,            -420578792
            386685760,            -385181707
            445572221,            -418060031
            474111930,            -464717893
            468452889,            -529832455
            464607125,            -562261634
            413333845,            -594597194
            359574622,            -611080434
            303216719,            -608561361
            270291751,            -568665563
            211292895,            -567382344
            176686801,            -510550849
            206290501,            -423296240
            251942176,            -360503754
            288934827,            -340119444
            346034335,            -333666429
            430309035,            -343275518
            491094074,            -376274612
            528353630,            -375547055
            501369361,            -376566957
            493196212,            -403211560
            528302221,            -435804981
            533378722,            -493898808
            502884171,            -543908661
            447978763,            -612330163
            391204270,            -635664016
            314342885,            -659718627
            261794479,            -607453549
            258855068,            -510891205
            273889381,            -428397666
            262917684,            -392180393
            285813053,            -355900389
            350823906,            -324269238
            351581784,            -313463304
            348765673,            -306531742
            331652661,            -306791675
            331925123,            -320935562
            384356769,            -311037295
            443306532,            -342288834
            490889183,            -383863778
            487186819,            -442553598
            503248883,            -493206910
            502311398,            -580934932
            475671264,            -670718126
            410661546,            -669353076
            362499545,            -620174282
            288776910,            -603195428
            260237307,            -553530447
            239568417,            -517757923
            232414007,            -485312308
            292784603,            -422704568
            341847036,            -419524048
            401216613,            -418418779
            498652951,            -409427842
            522113526,            -447950943
            519054126,            -477488799
            534208230,            -514183022
            549490756,            -575867507
            534905929,            -618846110
            461155802,            -663586307
            401805036,            -686023422
            343539391,            -653529489
            294073034,            -614506807
            264422363,            -577234274
            266986280,            -532521567
            224681347,            -523510248
            200528031,            -519420199
            208195722,            -480032138
            254628935,            -421926766
            312904908,            -382387436
            378377411,            -344738723
            381928208,            -333267394
            381110973,            -336551626
            419608808,            -341183082
            495286833,            -346743668
            558457456,            -380052685
            551740600,            -413949826
            572443193,            -438211388
            601959759,            -449339047
            593490930,            -482290138
            588677875,            -535477059
            599793066,            -583215743
            564061321,            -631456378
            506787581,            -655645799
            448218152,            -665853467
            371650878,            -688022814
            332440654,            -654040169
            291199418,            -615471101
            239731037,            -607371715
            242745429,            -542649052
            254918704,            -483161926
            253816723,            -455497901
            247427696,            -435564715
            240547042,            -446033958
            228796165,            -458701814
            217979664,            -470152892
            234374230,            -436307950
            256867878,            -420852957
            332912052,            -365615084
            451058526,            -331318269
            505347578,            -367496622
            529851032,            -402044775
            536958728,            -448594459
            549900725,            -496014003
            549218777,            -538821807
            505996619,            -612009545
            458919653,            -645905474
            375686814,            -661378213
            322271971,            -599554037
            297033871,            -528556538
            310760370,            -453081746
            349408893,            -398695508
            354443504,            -382507788
            369831881,            -376628122
            414982163,            -358268913
            476125900,            -368095668
            506567545,            -404771997
            532275612,            -435823918
            541887821,            -498278821
            549074578,            -554016758
            519349505,            -589764786
            459169312,            -611914457
            405739927,            -637198448
            370045951,            -638950826
            340024243,            -647968838
            323756185,            -659231511
            326551088,            -667812883
            338268616,            -675261802
            353142167,            -707125806
            345300924,            -739932967
            356217212,            -735279766
            342930005,            -719966023
            339872527,            -698739769
            320980555,            -699154278
            300550771,            -707755237
            314351854,            -688860543
            284102345,            -701404635
            272041385,            -692833369
            231314172,            -683792741
            224638432,            -621119976
            221190286,            -583716692
            226682827,            -563908546
            218677442,            -550961719
            222745902,            -547478935
            195336709,            -556620149
            184438642,            -549603422
            187785416,            -494164276
            223370800,            -431268059
            283966571,            -379961255
            388854475,            -335081175
            425677579,            -330883193
            418539813,            -344480014
            460090801,            -365742110
            536710693,            -431152061
            557704347,            -506882560
            517644546,            -573364764
            451733736,            -597146621
            396202988,            -578913336
            359949201,            -539273990
            315435880,            -508478541
            297479355,            -464004289
            310267414,            -421032348
            359600320,            -364960651
            369274566,            -344943678
            359973866,            -347233885
            394080168,            -313675904
            450501213,            -302397305
            452589452,            -317754724
            492990810,            -343249695
            597175461,            -367247156
            640154741,            -444755599
            628495738,            -491580758
            538126245,            -574766830
            467815774,            -600534333
            464237623,            -512013532
            435690578,            -474692705
            407210337,            -463360264
            388039530,            -443345563
            383720127,            -415520520
            400112649,            -403991215
            367194832,            -418292823
            323507284,            -441593314
            322424043,            -413272092
            363127710,            -318986929
            436827744,            -297334662
            503058391,            -310160921
            566209311,            -353923448
            615359464,            -398713933
            626222448,            -454993443
            606298590,            -510646712
            592481097,            -538593729
            549340944,            -580896239
            489376590,            -601973079
            417194198,            -589297985
            359494380,            -531152524
            373896639,            -424901384
            442377304,            -373773055
            466611865,            -339661279
            456829582,            -319179557
            431346176,            -302090300
            416889502,            -287815472
            411313217,            -285267466
            433155082,            -269768955
            456253417,            -265850378
            482270752,            -265739682
            516260852,            -267632946
            541104326,            -307577368
            619022143,            -340797946
            659428841,            -404811858
            639629127,            -465090287
            592977389,            -524870016
            566845892,            -551638791
            528084699,            -581884011
            497283105,            -588736485
            466755690,            -576021273
            456580803,            -580524867
            400103808,            -610551284
            355095763,            -589316595
            348194682,            -533349550
            328587557,            -499132399
            309747436,            -483719518
            325626097,            -436864392
            341514386,            -410841416
            345167226,            -389572153
            349066588,            -348532662
            348175090,            -338975137
            399377997,            -296935459
            512599688,            -264781639
            582451945,            -313354217
            557146563,            -408266066
            515820480,            -454093884
            456374175,            -471530724
            401407064,            -436398326
            399921071,            -363787218
            382589524,            -327433822
            382675979,            -286728466
            415050864,            -236918854
            469935636,            -200724154
            561378319,            -195126723
            668225186,            -236390295
            690783227,            -272374479
            679268918,            -299803490
            698848537,            -319157235
            700223755,            -365202960
            685444969,            -406844020
            689332207,            -434606424
            640660646,            -498354385
            595701228,            -530444443
            548217006,            -525274872
            482661426,            -518440189
            442804769,            -485348696
            431015011,            -472971194
            396565291,            -506158141
            369060829,            -521623639
            380832928,            -501446833
            335758569,            -525446105
            313429160,            -477348824
            328355136,            -409004636
            354297877,            -389639007
            300326929,            -415617924
            272214344,            -398084982
            278136604,            -341875185
            320608931,            -276236916
            390003545,            -228839830
            456932895,            -215021446
            508802022,            -211015463
            564940837,            -236761497
            600761999,            -316549010
            611919208,            -374885512
            584537947,            -410660096
            532582355,            -446589961
            469984111,            -482357960
            423742523,            -485542723
            376515852,            -427505058
            370664973,            -345450421
            365698068,            -291406456
            419529400,            -220785701
            472308686,            -206814151
            515438480,            -236966055
            568231204,            -259586790
            599393105,            -316142329
            577269985,            -383396148
            556600298,            -421931864
            554690903,            -446052788
            547499780,            -481758299
            534763724,            -515582973
            515236804,            -536745735
            472974344,            -537174213
            441356641,            -487664611
            417653563,            -453215719
            370492775,            -450569928
            329283652,            -430617023
            324043030,            -367390104
            302984441,            -342526733
            282494901,            -282164400
            365477429,            -209900421
            449502049,            -183857749
            457944828,            -180263649
            451822268,            -172802012
            491600788,            -155149162
            554805838,            -153390624
            584285385,            -165269919
            577450736,            -172396482
            592209420,            -182905586
            618739533,            -225659656
            662646321,            -269428683
            653848465,            -334052698
            651432306,            -380022301
            647180835,            -415436341
            608928744,            -466282008
            566758895,            -497623569
            496824527,            -546852295
            422412017,            -532910907
            372924673,            -462029357
            338530998,            -392209114
            345212884,            -323701035
            328318400,            -292049273
            372412346,            -238070246
            410603146,            -231454468
            466040198,            -210828527
            503126862,            -232947050
            576352622,            -230109006
            603962943,            -265051820
            601059834,            -303748815
            610418909,            -343933361
            654976103,            -367988943
            680696354,            -421405348
            688863766,            -437242787
            672344734,            -439151139
            651770954,            -466766344
            637659755,            -495388756
            605023011,            -528501579
            547662862,            -566480741
            473386623,            -587154170
            403833229,            -573645606
            342107476,            -529362973
            301783363,            -476426735
            273948409,            -446396512
            295390916,            -373220350
            391237789,            -316925308
            455839360,            -320779730
            500625020,            -323917859
            539612409,            -328138413
            555013359,            -343128212
            576920074,            -363883977
            618191191,            -374442944
            613748070,            -409883080
            620510556,            -419388366
            602465317,            -454716905
            605492803,            -478501468
            604164623,            -515391884
            585363724,            -538240714
            560299672,            -567513005
            531890655,            -586101805
            487854971,            -602494402
            455774833,            -622298539
            445381288,            -631875870
            400049709,            -663964036
            368997920,            -647287161
            302957183,            -648279046
            231989028,            -650020464
            216525963,            -537875223
            233033206,            -465959983
            271653135,            -392943141
            344530259,            -366020966
            391293502,            -379176360
            434173999,            -439360638
            479854455,            -467506263
            448290860,            -524017958
            412963318,            -588282193
            367746756,            -616528100
            292667061,            -616354947
            255954844,            -560077333
            238408790,            -510173004
            202988734,            -494656625
            170484336,            -477051236
            121262198,            -463821211
            151946004,            -393549045
            208962093,            -352200155
            288160340,            -320079556
            360865796,            -325605436
            410414111,            -359859420
            436317153,            -413250749
            454729771,            -462907230
            462031007,            -484096846
            442370955,            -528298748
            418963336,            -559072783
            425140697,            -561277145
            405692140,            -579517808
            392360058,            -596836386
            379789634,            -603460526
            377411632,            -602911169
            377813124,            -613070975
            323267935,            -656593979
            287330091,            -648296767
            237013383,            -619169947
            196275263,            -584727072
            155367956,            -539445752
            150555840,            -453738070
            152680672,            -391580177
            173561605,            -344316979
            195962589,            -326618191
            259738534,            -326028955
            360057650,            -350914197
            411420446,            -398519694
            432846294,            -417809587
            391263891,            -478374265
            364487979,            -570442488
            301775362,            -606288850
            259820241,            -524216687
            269548527,            -424037569
            280834746,            -366154586
            230886443,            -351907424
            219406701,            -323610441
            255732726,            -283434411
            306121333,            -271526850
            389166868,            -267925028
            433904935,            -308417554
            488130133,            -333663006
            542659108,            -365208663
            562504646,            -384756404
            568605535,            -389687697
            558445110,            -412106754
            570587199,            -424192950
            522482496,            -492319592
            493371937,            -546197059
            439326729,            -558839243
            375628674,            -566022835
            332785725,            -546632497
            272292950,            -544507741
            203533686,            -560183769
            176688916,            -498317765
            214335339,            -385039898
            244766881,            -321276919
            262942695,            -287207984
            296834686,            -271615651
            351459047,            -260559346
            426672279,            -272472294
            468069845,            -307133639
            487142965,            -351854175
            499811546,            -412718461
            497224540,            -459970565
            454182674,            -518567016
            401949402,            -554280965
            383275927,            -533121762
            315899677,            -556160563
            268355267,            -552538531
            234088587,            -519071297
            176745731,            -511967681
            179649537,            -422267485
            219011963,            -365258097
            289317237,            -322042253
            356360424,            -316425069
            409354453,            -367743474
            458563060,            -395636098
            499296650,            -433815988
            484217479,            -470230038
            475790211,            -523046114
            470071086,            -542290903
            428236542,            -561583564
            429475561,            -568638039
            403553032,            -586689565
            391157500,            -601882811
            397923955,            -589570684
            386093538,            -591249815
            357371728,            -607209825
            357390523,            -589778679
            315145887,            -596812273
            298111652,            -592232627
            295578423,            -580462405
            237888485,            -601378074
            173095642,            -639050743
            140016032,            -568265554
            150104304,            -465657113
            149962391,            -405933732
            145356191,            -369736225
            164348094,            -328859880
            182018796,            -292425004
            245316905,            -251968897
            279309890,            -240419209
            315005510,            -284158023
            405213788,            -289843667
            470341239,            -331015823
            464118873,            -400943066
            434646881,            -456418730
            412366700,            -482297112
            368199454,            -532786306
            366730552,            -520307318
            308933228,            -528628931
            271954234,            -537117982
            225633681,            -545491079
            159217208,            -536983483
            166557693,            -428502574
            237568063,            -342595549
            243331570,            -298027386
            276748123,            -245501631
            354247239,            -205401191
            335503768,            -258951209
