                    0,                     0
           1352914699,            -579820586
           1511184243,           -1304166821
           1511184243,           -1304166821
           -595735589,           -1522739855
          -1636231973,           -1396314068
          -1636231973,           -1396314068
          -1636231973,           -1396314068
          -1636231973,           -1396314068
          -1636231973,           -1396314068
           -556352862,             320612601
            438553403,             490153184
            438553403,             490153184
           -991942409,            -941890621
          -1817545170,           -1550133079
          -2339104663,            -698783228
          -1993949649,             271172103
          -1711677603,             972519851
          -1906505743,            1591477209
          -2850506781,            1261763503
          -3375354908,             472299233
          -3969086697,             442890599
          -4615283614,             538062594
          -4482361575,             911634780
          -4482361575,             911634780
          -3574796614,            2817021021
          -2651415092,            2215098843
          -2651415092,            2215098843
          -2651415092,            2215098843
          -3370736557,            1839408232
          -3597743767,            1578191032
          -3597743767,            1578191032
          -2459019302,            -273040966
          -2459019302,            -273040966
          -2459019302,            -273040966
          -2459019302,            -273040966
          -2459019302,            -273040966
          -2459019302,            -273040966
           -323664419,            -264849738
           -323664419,            -264849738
           -323664419,            -264849738
           1489931779,            -901149341
           1489931779,            -901149341
           2476025977,             929771405
           1958344447,             -20771673
           1413391584,            -622432263
           1090616982,            -882239367
             83530243,            -780610461
           -558618639,           -1189662140
           -558618639,           -1189662140
          -2474595365,           -2055915409
          -2830279498,           -2782298723
          -2602300480,           -3257015487
          -1753842406,           -3684920593
          -1623774925,           -4350099526
          -1580249686,           -5234341748
          -1580249686,           -5234341748
          -3465577481,           -4561915420
          -3465577481,           -4561915420
          -5036647404,           -3651963844
          -4784566953,           -4477385906
          -4557918424,           -4981618720
          -4873138461,           -5365726465
          -5454900771,           -5806368507
          -6083634721,           -6169366778
          -5612155886,           -6842377239
          -4723989732,           -6856639564
          -4018475801,           -7045328801
          -4018475801,           -7045328801
          -4284468584,           -5030082671
          -4284468584,           -5030082671
          -4284468584,           -5030082671
          -2223199242,           -5136878229
          -2223199242,           -5136878229
          -1769956208,           -3050036597
           -656526949,           -3290252850
           -656526949,           -3290252850
           -656526949,           -3290252850
           -894529179,           -1774206056
           -977015276,            -892485450
          -1772029500,            -812703637
          -2453345368,            -582589430
          -2453345368,            -582589430
           -575858741,             336831385
           -166875917,            -667478426
          -1123077278,            -868564829
          -1123077278,            -868564829
          -1123077278,            -868564829
          -2055752603,             252708777
          -1816396582,             966941592
          -2099260080,             -89262301
          -1096468095,            -426301968
           -100900853,             -31958219
            219545268,             650883346
            888247587,            1616667421
           1601313345,            2424628955
           2357411640,            3079502624
           3030490024,            2781561886
           3012954904,            2387859633
           2438163807,            2056536200
           2001589063,            2940830534
           2001589063,            2940830534
           2001589063,            2940830534
           2001589063,            2940830534
           1554994334,            4914189921
           1554994334,            4914189921
           -424390782,            4895613242
          -1371092008,            5010526102
          -1099477753,            5874234778
           -241622860,            6109176418
             97911216,            6660623078
            998110194,            6712479526
           1494737248,            6185659981
           1494737248,            6185659981
            419102978,            7546278409
           -419972044,            6832688258
            183464394,            5882807774
            183464394,            5882807774
            693356538,            3902437274
            693356538,            3902437274
           -358236311,            3785364155
           -870781543,            3585251334
          -1220247312,            3620600827
          -1220247312,            3620600827
          -1220247312,            3620600827
          -1827884988,            1836945555
          -2148883653,             886779559
          -2148883653,             886779559
           -924775973,            2535213419
           -289950765,            3212590475
            295227455,            3177537289
            745472963,            3608962882
           1087724560,            4242541171
           1393636091,            4621999688
           1744228647,            4763138449
            738812286,            4379743782
            872504998,            3345484025
            872504998,            3345484025
            872504998,            3345484025
            872504998,            3345484025
            872504998,            3345484025
           1361725924,            5049005770
           1672475512,            6017618257
           1192025126,            4961960106
           1192025126,            4961960106
           1091839862,            6166016002
           1359085604,            6679846848
           1395661336,            7069555359
           1513629948,            7729574248
           1692484011,            8369792571
           1962609216,            8958592089
           1962609216,            8958592089
           1646032901,            9656201968
           1319789251,            9857855866
           1289250316,           10157935762
           1289250316,           10157935762
           2023666920,            8822405536
           1851313315,            8067966834
           1851313315,            8067966834
           1151528820,            6022041562
           1151528820,            6022041562
           1151528820,            6022041562
           -364780764,            5776955805
           -849911513,            5235907251
           -839542821,            4143335006
          -1378579041,            3679138151
          -1378579041,            3679138151
            595513615,            4341858120
           1046955549,            5163405182
           1721906383,            5254228764
           2706570784,            5430502432
           3726119763,            5537063380
           2689798169,            5396436377
           1681600884,            5435375987
           1178251352,            6127254089
           1474878933,            6687849697
           1474878933,            6687849697
           2461424716,            8291100471
           3080986390,            9084871356
           3746385723,            9661555586
           4391823076,           10092090270
           4391823076,           10092090270
           6063954649,           10948968732
           6063954649,           10948968732
           6063954649,           10948968732
           5302215423,            9396433989
           4831408850,            8633151141
           5489443325,            8526138172
           6451705353,            8311020403
           6451705353,            8311020403
           6451705353,            8311020403
           8190889477,            7675142733
           8292754452,            6715244787
           7873195600,            6108994266
           7873195600,            6108994266
           7873195600,            6108994266
           9054338940,            4508385228
           8364205766,            5119620615
           7362247086,            4233877697
           6262877386,            3678921044
           6262877386,            3678921044
           6848085178,            1635818127
           6462637568,            2661664588
           5210260717,            2383288161
           4060312371,            2324549301
           3892667120,            1235135851
           3892667120,            1235135851
           1714302802,            1584628832
            772453199,            1167577571
            424929365,             559965259
            -75645883,            -280880914
            -75645883,            -280880914
            -75645883,            -280880914
             -8951998,            1209309231
             -8951998,            1209309231
             -8951998,            1209309231
           1666353808,            1946124068
           2582407583,            2320389308
           2582407583,            2320389308
           3793425545,            1477683514
           4356726739,            1616577823
           4694966872,            1353422407
           4636512745,             711614597
           3614451628,             859146677
           3614451628,             859146677
           5309904345,             189127181
           5603169466,            -621331077
           4992105709,            -767455519
           4265170295,            -790610123
           4265170295,            -790610123
           5683403414,             779296408
           5652341556,            1831434293
           5652341556,            1831434293
           5652341556,            1831434293
           7286657575,            2420736359
           8026121828,            2769162809
           8807826663,            3042711956
           9566080353,            3179205609
          10301586433,            3182755434
          10950602821,            3121774254
          10645169629,            2216718191
          10041655501,            1273780653
          10041655501,            1273780653
          10041655501,            1273780653
          10041655501,            1273780653
          10041655501,            1273780653
           8323066626,            -181771976
           7983404758,           -1080075570
           7983404758,           -1080075570
           8774694767,           -2722710550
           8364393747,           -3477215627
           8394969278,           -4016744969
           8447013600,           -4722030985
           8899504058,           -5012770168
           9296321361,           -5203778472
           9296321361,           -5203778472
           9296321361,           -5203778472
           9790525833,           -6207306289
          10157756788,           -6275797656
          10670091285,           -5721130556
          10758360584,           -5025566410
          10758360584,           -5025566410
          10693307804,           -6292138627
          10915517328,           -6668474474
          10055613852,           -7132418374
           8980027784,           -7451006224
           9753945435,           -6982870334
          10450088705,           -6325532906
          10707222667,           -7127084726
          10657931748,           -7834215852
           9694632342,           -7764334890
           8921306717,           -6878998955
           8067948098,           -6737663593
           7030661738,           -7091537405
           7030661738,           -7091537405
           7030661738,           -7091537405
           5788949733,           -8811526568
           6439690236,           -9219672107
           6439690236,           -9219672107
           7792687756,          -10231572134
           7733414819,          -10817437037
           7733414819,          -10817437037
           6148497674,          -10299640398
           5335853758,           -9773612347
           5469268058,          -10476355447
           5690124503,          -11091535939
           4841674519,          -11095896501
           4856196658,          -10004909585
           4841537685,           -8672689855
           3606751829,           -8355346626
           2575502113,           -7859469538
           2575502113,           -7859469538
           2575502113,           -7859469538
           3851151749,           -7301562905
           4567804672,           -6877834452
           5236472951,           -7155886663
           5236472951,           -7155886663
           5236472951,           -7155886663
           6239019933,           -8487398291
           6823059722,           -7859553957
           5688406227,           -7616237522
           5415777085,           -6764773880
           5415777085,           -6764773880
           5415777085,           -6764773880
           5415777085,           -6764773880
           3191719468,           -6432981645
           2643010495,           -5488052792
           2643010495,           -5488052792
           2643010495,           -5488052792
           2048324104,           -3906072000
           1371497568,           -3451978349
            693205756,           -4157661039
           1323752888,           -4713324229
           1918269117,           -5274111378
           2559374369,           -5946923932
           2559374369,           -5946923932
           3642234308,           -7572402480
           4036714828,           -8240885292
           4226087404,           -8953738129
           3208073750,           -8937665749
           3251392658,           -7762434369
           3209875997,           -6524415471
           3929220868,           -5706786755
           4490929503,           -5077308487
           5210457281,           -5121343093
           4915720457,           -5999625632
           4366573888,           -6637186236
           3647508210,           -6070454879
           2494706195,           -5996153465
           2494706195,           -5996153465
           2494706195,           -5996153465
           2494706195,           -5996153465
           3708355199,           -7620155127
           3708355199,           -7620155127
           2888434938,           -8744465173
           2888434938,           -8744465173
           1448867190,           -7773461614
           1422193570,           -6956137170
            584607013,           -6055571788
            686952833,           -5237198924
            908839608,           -4007548867
            537495228,           -5015658448
           -340312417,           -5221133027
           -340312417,           -5221133027
          -2133989311,           -4033706885
          -1423381913,           -3189986102
           -540819209,           -3917765171
           -540819209,           -3917765171
           -540819209,           -3917765171
            377348500,           -3220411631
            377348500,           -3220411631
            377348500,           -3220411631
            881424120,           -4798836529
           1683959378,           -4578459574
           1496050936,           -3591599814
           1539471519,           -2475952260
           2291797683,           -1816163685
           2352402829,           -1151258735
           3110598679,            -566299486
           3748305621,            -777646123
           3748305621,            -777646123
           3748305621,            -777646123
           3748305621,            -777646123
           5053195661,           -1913957911
           5821244419,           -1873238900
           6151611695,           -2329391639
           6151611695,           -2329391639
           5193969229,            -455623624
           4705859819,             608663210
           4296818201,            1641021439
           3434183589,            2113607155
           2763774371,            1708121366
           2763774371,            1708121366
           2763774371,            1708121366
           2763774371,            1708121366
           2763774371,            1708121366
           1778918006,            -147008542
           1249965653,            -869026200
            453399138,            -232807492
            453399138,            -232807492
           1857136372,            1191515941
           2657185907,            1803637022
           3433233956,            2397394471
           3433233956,            2397394471
           2041746747,            2969717731
           1280285828,            2740407970
            183904018,            2517572148
            183904018,            2517572148
            183904018,            2517572148
            183904018,            2517572148
            183904018,            2517572148
            693782973,            4374780268
           1069872860,            5356323224
           1069872860,            5356323224
           1069872860,            5356323224
           1069872860,            5356323224
           1069872860,            5356323224
            973352164,            3842718827
            406239679,            3372468250
            -36936931,            3042639529
           -183611301,            2499443707
             82136453,            1779270231
           -881322824,            1360545735
          -1710823281,            1861654085
          -2221612251,            1327520281
          -2750909562,             805604808
          -2750909562,             805604808
          -3054929333,           -1151298622
          -3225024420,           -2132639407
          -3225024420,           -2132639407
          -3225024420,           -2132639407
          -4932159954,            -909019054
          -5881433732,            -891971239
          -6302697885,           -1270901628
          -6302697885,           -1270901628
          -4567428721,              55715610
          -3897713665,            -873465868
          -3311386996,           -1686545189
          -3311386996,           -1686545189
          -5144780672,           -2151344910
          -4988645737,           -3095411637
          -5763531367,           -3246445734
          -6577095299,           -3069473437
          -7301827803,           -2768961290
          -6694854847,           -3507801617
          -5954448566,           -3541043215
          -4809852879,           -3807170076
          -4809852879,           -3807170076
          -4809852879,           -3807170076
          -4809852879,           -3807170076
          -4665557293,           -2275615765
          -4665557293,           -2275615765
          -4665557293,           -2275615765
          -4665557293,           -2275615765
          -4665557293,           -2275615765
          -4665557293,           -2275615765
          -4665557293,           -2275615765
          -4665557293,           -2275615765
          -4665557293,           -2275615765
          -4665557293,           -2275615765
          -4665557293,           -2275615765
          -4665557293,           -2275615765
          -4665557293,           -2275615765
          -3752496461,            -532310045
          -3752496461,            -532310045
          -2093733340,           -1675981915
          -2093733340,           -1675981915
          -3705958587,           -3043041667
          -3115340491,           -3898766940
          -3852477869,           -4369089627
          -2834676333,           -3981714426
          -1804168249,           -3400498316
          -1804168249,           -3400498316
          -2007741240,           -1236899063
          -2587061610,           -2122595606
          -2138512120,           -2628800896
          -1702730195,           -3024596461
          -2279624673,           -2887035731
          -3304404259,           -2328148625
          -4169591438,           -1786028132
          -4944398492,           -1195746744
          -5695961334,            -558749288
          -6424977291,             123562754
          -6217895064,            1099235671
          -6565757809,            1723100922
          -6565757809,            1723100922
          -6565757809,            1723100922
          -6565757809,            1723100922
          -4951445866,            1027162799
          -5128112677,            1759341134
          -5128112677,            1759341134
          -5128112677,            1759341134
          -5128112677,            1759341134
          -5360816354,            -355023405
          -4257381942,            -632663236
          -4257381942,            -632663236
          -2970019313,            1319051946
          -2270125389,            2300822077
          -2880918735,            1343904896
          -3554936328,             556760166
          -3554936328,             556760166
          -1644401973,            1828547551
           -915165537,            2277882900
           -398527077,            2135661333
            357675378,            1841434879
             -2104654,            1107144098
           -641001578,            1522310956
             45586543,            1566103789
            716679166,             998637212
            716679166,             998637212
            952876828,            2772564361
           1813229635,            3192976793
           1813229635,            3192976793
            470342555,            2581791413
           1074802949,            2165035684
           1074802949,            2165035684
           1074802949,            2165035684
           2459898069,            3517423822
           3400059791,            3386985247
           4031479964,            3221753365
           4322216253,            2623320563
           4322216253,            2623320563
           6125285050,            3188866041
           6125285050,            3188866041
           6070375517,            1031615755
           6870878932,             895627888
           7332753294,             840506520
           7577753535,             802167910
           7697830065,            1627215156
           8411494780,            2135780874
           8887216791,            1963252662
           8250554180,            1313635339
           7319880930,             606852861
           7319880930,             606852861
           7319880930,             606852861
           5940643330,            2263684522
           5338899947,            2969808367
           4683721996,            3083284474
           4227334893,            2250228098
           4189091172,            1534878555
           4189091172,            1534878555
           4189091172,            1534878555
           4192267455,            3550416502
           4192267455,            3550416502
           4904018054,            2219838326
           4904018054,            2219838326
           4904018054,            2219838326
           5787689664,            3828280423
           5787689664,            3828280423
           4454417802,            2167243782
           4238892575,            1160387683
           3672557717,             800619021
           3672557717,             800619021
           1758494719,            -254191702
            761670364,            -521861603
           -269673770,            -652652388
          -1334502089,            -650670431
          -2047470683,           -1387765734
          -2575600323,           -1793365167
          -2722802218,           -2379982964
          -2722802218,           -2379982964
          -2722802218,           -2379982964
          -2722802218,           -2379982964
          -3414212266,           -4112469742
          -3927623732,           -4663101433
          -4408344128,           -3971806925
          -4408344128,           -3971806925
          -5693433014,           -2435313509
          -6132390752,           -1474058757
          -6132390752,           -1474058757
          -5497447463,           -2331780128
          -5188515491,           -2104199829
          -4141858541,           -1699633377
          -4141858541,           -1699633377
          -4141858541,           -1699633377
          -4141858541,           -1699633377
          -4532998861,           -3581379661
          -4532998861,           -3581379661
          -5041253991,           -5406673557
          -5738471184,           -5618213973
          -5268500515,           -5071609444
          -5268500515,           -5071609444
          -6656633728,           -3630970971
          -7298145371,           -2696573510
          -7791562646,           -1790207973
          -7378609877,            -789197383
          -7249752278,             -72437871
          -6854531128,              65862732
          -6854531128,              65862732
          -6854531128,              65862732
          -6262348137,           -1997697454
          -6262348137,           -1997697454
          -5043685541,           -1035823398
          -4373085064,            -502011144
          -3690390346,             -16425513
          -3690390346,             -16425513
          -3690390346,             -16425513
          -3690390346,             -16425513
          -5254715883,            1014859404
          -5974302554,            1619279051
          -6607877115,            2269990618
          -6607877115,            2269990618
          -8213527068,            1042249728
          -8213527068,            1042249728
          -8213527068,            1042249728
          -6163234990,            1526378312
          -6163234990,            1526378312
          -6163234990,            1526378312
          -6163234990,            1526378312
          -6163234990,            1526378312
          -6236035979,            -452148323
          -6874057865,            -876734268
          -7020179330,           -1452530620
          -7020179330,           -1452530620
          -8226913159,           -1666652740
          -8226913159,           -1666652740
          -6562766556,           -1616653158
          -5932014334,           -1059753579
          -6405668863,            -103429830
          -6800840450,             840198600
          -7055307870,            1819942687
          -6411643774,            2584520433
          -5722557020,            2664811283
          -4709116577,            2807293426
          -3998029626,            3436676259
          -3998029626,            3436676259
          -3749239719,            5395160275
          -3513831399,            6254131641
          -3156636310,            7087333866
          -2810157073,            7895540024
          -2810157073,            7895540024
          -2810157073,            7895540024
          -1050815114,            6241334614
           -237269658,            6815510709
            489897370,            7280612700
            753459684,            7983706179
            753459684,            7983706179
            753459684,            7983706179
            753459684,            7983706179
            215459817,            9805779297
            -53424431,           10584623086
           -902446377,           10164234653
          -1917317056,            9882491473
           -875372987,            9730458593
             65225595,            9945564486
            636424757,           10028823011
            980520491,           10458403229
           1739884963,           10421053172
           1739884963,           10421053172
           1739884963,           10421053172
           1739884963,           10421053172
           1739884963,           10421053172
           3362725661,           11268062747
           3362725661,           11268062747
           3906088986,           12218511054
           4346409839,           12248389495
           4346409839,           12248389495
           4346409839,           12248389495
           4346409839,           12248389495
           5117960676,           10978994676
           5117960676,           10978994676
           5117960676,           10978994676
           5117960676,           10978994676
           5866364988,           12453511101
           5866364988,           12453511101
           5866364988,           12453511101
           5866364988,           12453511101
           5690374038,           10533717539
           6101371314,            9661399488
           6501130267,            8545142296
           5929385841,            7457272136
           6003086480,            6646047327
           6018968183,            5488636248
           4823899948,            5365041438
           4060928761,            4430594027
           3836242786,            3567129712
           3836242786,            3567129712
           1788420217,            3846662877
            669144068,            4013633885
           -416553796,            4304444782
           -416553796,            4304444782
          -1563698354,            2500274191
          -2183222535,            1569159836
          -2913010010,             730403422
          -3749752879,              45658719
          -4561393462,            -554119133
          -5413109337,           -1007054631
          -5413109337,           -1007054631
          -5413109337,           -1007054631
          -3317980772,            -590295936
          -2394726984,            -416480858
          -1928822952,            -384225907
          -2582007472,             309866016
          -2969307109,             857148342
          -3107847269,             248898974
          -2545783725,            -209601634
          -2373961753,            -586708856
          -1789809606,            -969515325
          -1130076785,            -120518947
          -1907475158,             509734011
          -2532702561,            -296259829
          -3280969944,            -935845003
          -3280969944,            -935845003
          -1378654580,            -134675539
           -370295898,             278869040
            607812023,             615582772
           1492152197,             877770583
           2349962166,            1003243740
           2349962166,            1003243740
           2349962166,            1003243740
           1055397620,               6778785
            781978881,            -718371712
            781978881,            -718371712
          -1045366752,             333971591
          -1903647437,             953720266
          -2800604211,            1683725500
          -3606227772,            2456255086
          -4402756391,            1712712008
          -3693625433,             862626203
          -3096950190,             -40463877
          -2582599713,            -916461255
          -2212528770,           -1766178711
          -2212528770,           -1766178711
          -2403850945,             219541935
          -3137293676,             821872660
          -3794206716,             813056768
          -2779645628,             616938312
          -1747645231,             402118007
          -1283603818,            -476603454
          -1040476635,           -1087447539
           -477367407,           -1378592241
            422397204,           -1857293260
           1328153938,           -1648107912
           1704623433,           -1032182473
            881130831,            -289689114
            881130831,            -289689114
            532574358,           -1633913141
            683611441,           -2208719777
           -166296813,           -2339042141
           -282038215,           -1305813663
           -422933438,            -178660511
           -422933438,            -178660511
           -422933438,            -178660511
           -422933438,            -178660511
           -925641511,           -2106035981
          -1243752414,           -3013666346
          -1681169009,           -3829643290
          -1681169009,           -3829643290
          -1681169009,           -3829643290
          -3305771186,           -2168565764
          -3946043469,           -1286406782
          -4835274845,           -1113633410
          -5437627054,            -912740929
          -6033830557,           -1183778150
          -5539799612,           -2012132444
          -5539799612,           -2012132444
          -7306340909,           -2467164547
          -8172924602,           -2478735016
          -8705215903,           -3017650591
          -8707295202,           -3527625531
          -8686632336,           -4352966036
          -8686632336,           -4352966036
          -6364449062,           -4995471169
          -6364449062,           -4995471169
          -5786968533,           -6262946243
          -5227598247,           -6457026760
          -5227598247,           -6457026760
          -5227598247,           -6457026760
          -6616958528,           -7680655167
          -7299805036,           -7172428685
          -7305019758,           -6364626228
          -7305019758,           -6364626228
          -7305019758,           -6364626228
          -7472416223,           -4240952156
          -7370740332,           -3085500706
          -7861720104,           -2229511409
          -8502487030,           -1979842654
          -8032572736,            -974970783
          -7583695109,             148076167
          -7583695109,             148076167
          -6325392104,            1947520147
          -6325392104,            1947520147
          -6325392104,            1947520147
          -7617394060,            1953519052
          -7905363614,            2472686788
          -7315028932,            1599475279
          -7401092206,             577931329
          -7534505353,            -113383527
          -7659826174,             497553304
          -7659826174,             497553304
          -7659826174,             497553304
          -7659826174,             497553304
          -9233917655,             482626704
         -10067279622,             652505368
         -10155264822,            -252228006
         -10155264822,            -252228006
          -7917871593,           -1017755280
          -8242439511,           -2059030600
          -7190737229,           -1718784762
          -6262103512,           -1573422522
          -5669219698,           -2060266716
          -5669219698,           -2060266716
          -5669219698,           -2060266716
          -3695256841,           -1096515582
          -3211490612,           -2079246022
          -3584638270,           -2928628066
          -3935130192,           -3453028687
          -3831088620,           -4015194160
          -3831088620,           -4015194160
          -3831088620,           -4015194160
          -3973854000,           -5827473621
          -3038517369,           -5971931313
          -3038517369,           -5971931313
          -3269484396,           -4439858674
          -3269484396,           -4439858674
          -3269484396,           -4439858674
          -4717588093,           -3018172724
          -4717588093,           -3018172724
          -3416419280,           -4602664790
          -2826665069,           -5371010809
          -2254603484,           -6245155467
          -2254603484,           -6245155467
          -2831210475,           -4125065518
          -2831210475,           -4125065518
          -4936707484,           -4130162572
          -5627342631,           -4637791765
          -5389901682,           -3963308023
          -5097022929,           -2782955024
          -4812930539,           -1638012615
          -4408511901,            -591842988
          -3346398788,            -298639158
          -3346398788,            -298639158
          -4792195053,            1127659225
          -5452887226,            1909432490
          -5452887226,            1909432490
          -4000810420,             177112268
          -4000810420,             177112268
          -5169276298,             687194975
          -5169276298,             687194975
          -5169276298,             687194975
          -5169276298,             687194975
          -5169276298,             687194975
          -2952613705,             537730106
          -3030608481,            -515529103
          -2026516671,            -766891988
          -1183558335,            -348227761
           -514884969,            -623347827
           -514884969,            -623347827
           -514884969,            -623347827
           -514884969,            -623347827
           1046749808,           -2021986602
           1627626343,           -2729816050
           1627626343,           -2729816050
           1627626343,           -2729816050
           2351891666,           -4451807835
           2351891666,           -4451807835
           1894787858,           -2256669296
           2995313916,           -2018192896
           3638760339,           -1852898393
           3916084194,           -1777454503
           3916084194,           -1777454503
           3916084194,           -1777454503
           3916084194,           -1777454503
           3916084194,           -1777454503
           5344789896,           -2754923020
           4698106151,           -3374916873
           3797888630,           -3945529270
           3797888630,           -3945529270
           3797888630,           -3945529270
           2653159818,           -2023277126
           1612040987,           -1618356087
           1397981114,            -882226119
           2437142904,            -549165975
           2607611217,           -1450163316
           1613324309,           -1422187603
           1498590727,           -2501875079
           2418091305,           -2647228797
           2418091305,           -2647228797
           2418091305,           -2647228797
           1701303470,           -4371698200
            782692466,           -4459259471
            304740068,           -5032367663
           -338873545,           -5678169137
          -1036072623,           -5203498838
          -1253974917,           -4819122045
          -1253974917,           -4819122045
            458681577,           -3772605251
            458681577,           -3772605251
            458681577,           -3772605251
           -263748475,           -5012341793
           -256331852,           -5581976891
           -350953327,           -6441178524
           -571585177,           -7274604108
           -785598072,           -8018602415
          -1615771495,           -7614522391
          -2513519806,           -7105743667
          -2991595236,           -7843251661
          -2991595236,           -7843251661
          -1484508170,           -7221407054
           -764036098,           -6870992654
            -32965934,           -6627727450
            676172125,           -6456184711
            676172125,           -6456184711
           1428981075,           -8195234455
           1428981075,           -8195234455
           3189997908,           -7562830365
           4003772195,           -7161738271
           4003772195,           -7161738271
           5816394314,           -6946886123
           6679999795,           -6825263874
           6679999795,           -6825263874
           6679999795,           -6825263874
           5255534120,           -7071477525
           5744740006,           -7519743352
           5744740006,           -7519743352
           6989737014,           -5490264786
           6989737014,           -5490264786
           8068535093,           -6742896052
           8389585864,           -6235824984
           8027383936,           -5959290113
           6820086710,           -5608473801
           6507561787,           -4775410527
           6869481435,           -3661887008
           6524050987,           -3007967432
           5636885729,           -3147455900
           5522044467,           -3622881762
           5522044467,           -3622881762
           5742930189,           -1581460025
           5742930189,           -1581460025
           6472585415,           -1405167206
           6682937456,           -1447347570
           7231539258,           -1882111565
           7171068192,           -2614465397
           6511115837,           -2938301557
           5891906516,           -3137581653
           5565828754,           -3565002737
           4802223949,           -3698212299
           3465600444,           -3932556676
           4121013379,           -2919242763
           4032059055,           -2189737633
           3961963718,           -1672059489
           3939068398,           -1163469238
           3709997722,            -739388597
           3595698251,            -348888363
           3467612205,             -44445966
           3412394754,             271088431
           3561915539,             475975884
           3590798565,             586105560
           3560445264,             678616808
           3544728716,             746026961
           3418587241,             832714563
           3286930760,             891904204
           3166472940,             915038777
           3070629625,             931378229
           2993338254,             983334729
           2932699485,            1046652915
           2891470129,            1132590302
           2787382547,            1177265210
           2702823196,            1203949478
           2631215086,            1261076203
           2563213305,            1303917880
           2499614320,            1342910588
           2454979168,            1405272174
           2413543889,            1470927904
           2362237364,            1520255593
           2308723385,            1554461641
           2298980730,            1614567344
           2286131963,            1718760482
           2212974570,            1841403945
           2112421454,            1909741842
           2011568703,            1956343026
           1911634204,            1996001385
           1828968377,            2052130426
           1772066021,            2141987162
           1713624793,            2243829164
           1686075329,            2345014191
           1733766747,            2434926716
           1765178088,            2504657860
           1749688753,            2555728151
           1716570103,            2592473947
           1682266615,            2655270800
           1662625551,            2732773003
           1623919494,            2797018914
           1567100999,            2845903394
           1508759865,            2901516947
           1462825681,            2973768000
           1423223377,            3046059857
           1384448246,            3108847653
           1326620648,            3146375769
           1278356256,            3202917776
           1241073040,            3269162106
           1196407463,            3319995677
           1194907302,            3390808652
           1205762413,            3452119377
           1223128282,            3496207843
           1240612645,            3521019924
           1237988246,            3535438025
           1232208585,            3537244084
           1221454901,            3555794151
           1185905848,            3597871515
           1149524011,            3644320641
           1124598395,            3696153356
           1124863179,            3755142607
           1120159311,            3809518421
           1107414977,            3848747110
           1096823997,            3888116921
           1088695746,            3920736861
           1086319802,            3956431343
           1087214248,            3987007575
           1072308620,            4004513943
           1070519956,            4037506785
           1068046204,            4069303171
           1065767421,            4096138556
           1087758445,            4118468017
           1103233109,            4122685234
           1109381918,            4115757255
           1113779641,            4110747770
           1105204633,            4100611751
           1085743524,            4097481884
           1055155181,            4113268245
           1014371189,            4119167928
            976400214,            4123437809
            942197737,            4136031840
            909760194,            4156027815
            881092256,            4180731382
            861075274,            4217386963
            835695876,            4249161069
            800529726,            4256441762
            770894514,            4267201045
            760954446,            4299705822
            758175936,            4332809481
            753911335,            4357930118
            760887459,            4382670555
            766033219,            4399975094
            763737600,            4410985976
            747189314,            4421122620
            716514144,            4424927622
            687450028,            4426608588
            683774904,            4457087110
            688902179,            4484556205
            675971333,            4495281565
            656355556,            4496521455
            630175667,            4491404147
            603651186,            4479214564
            578903909,            4468306414
            562010198,            4443351835
            558417999,            4410724081
            551516675,            4397180321
            541138419,            4373993235
            545644642,            4341323276
            554056994,            4320826490
            557601148,            4306887948
            561904654,            4285517153
            581218964,            4271279613
            600312133,            4271397995
            616056925,            4276586682
            634043762,            4278721624
            646484353,            4272957565
            649078447,            4264653813
            646182832,            4253004830
            651598407,            4234045288
            653479711,            4225700031
            645277852,            4217308151
            633287828,            4211671102
            620406857,            4201738446
            613426815,            4185937393
            607978829,            4176334546
            600409547,            4176959533
            585304610,            4179372573
            564522915,            4170611757
            555523145,            4149364917
            555280351,            4128532369
            568406939,            4115343758
            578591710,            4113259457
            583455963,            4107224115
            593672967,            4099978672
            607393613,            4097037169
            614141549,            4094021941
            621764511,            4085216372
            636781837,            4082998383
            649035409,            4081586638
            649787278,            4086716121
            633856248,            4088689207
            629008302,            4066218551
            630430109,            4057208511
            628255353,            4050825604
            628675880,            4038988339
            631452994,            4032182613
            629434949,            4025304399
            631503416,            4014697262
            637377898,            4010934533
            644096209,            4009260480
            648447791,            4009628680
            645564940,            4008744943
            641895481,            4002408172
            639130790,            4003225413
            636691805,            4015385542
            621241104,            4024202683
            607393681,            4013934755
            600808939,            4020245375
            604625779,            4044710192
            618649969,            4074711857
            632236654,            4100899191
            639089610,            4121733276
            639388058,            4137811854
            641723286,            4155150136
            649087244,            4175228069
            660185394,            4191118159
            662969774,            4202915428
            661459413,            4214091615
            662076315,            4231437979
            661090913,            4245480606
            655486290,            4255369758
            648169605,            4263739418
            635830912,            4272959682
            625364677,            4281747007
            616728840,            4296166421
            606324373,            4301388373
            601676323,            4312725170
            598516570,            4324784241
            594771597,            4335517195
            592114217,            4347670123
            594941944,            4363712521
            596957664,            4376130512
            599987603,            4389305546
            592039489,            4395272402
            584420525,            4394171350
            575416202,            4402206443
            563147396,            4400180002
            551172919,            4393102462
            540593544,            4377468095
            539655107,            4356527524
            538283547,            4351458599
            532446568,            4353048010
            526126652,            4357542706
            521761114,            4367585682
            519593720,            4377436352
            516216859,            4389928135
            506433373,            4384557802
            502045403,            4381638507
            504447920,            4394945321
            518653659,            4411147175
            525937992,            4419934885
            529140024,            4425408064
            532748768,            4429011770
            536347948,            4436012829
            541167446,            4444716636
            548566963,            4453625801
            560647877,            4462629764
            578911621,            4466757025
            596126557,            4461294542
            602971078,            4453462912
            601965758,            4443283192
            599724841,            4428237425
            600757385,            4412965256
            600213933,            4398791228
            613737848,            4382804753
            628637498,            4377281840
            636958051,            4371423452
            639066072,            4359701063
            642870965,            4351773613
            642937752,            4345869866
            640993858,            4333615795
            642285528,            4325580326
            641808980,            4325708010
            640457346,            4332975002
            637166235,            4346575541
            624105064,            4342127999
            617948329,            4321597127
            620955113,            4303243515
            621472194,            4302620775
            621588839,            4310014770
            615676994,            4313893274
            606483472,            4313809191
            598292699,            4302965097
            596337381,            4307389438
            610589464,            4325471162
            612397896,            4336899570
            612005696,            4341894558
            611168645,            4349053018
            608674421,            4352961036
            602647712,            4350647718
            602313016,            4356103919
            614920206,            4370880725
            634196255,            4380332122
            649838660,            4383398022
            663428328,            4380680770
            669512473,            4371984519
            673298157,            4362673979
            676209423,            4353076949
            676918010,            4344575719
            678300432,            4333304699
            681098785,            4321694642
            686195981,            4310843112
            691501275,            4308094057
            692282735,            4307222627
            689098636,            4310676001
            678572804,            4307008838
            676825604,            4287896867
            683699906,            4272097891
            688808416,            4264492798
            699152731,            4261461431
            702954168,            4267874678
            707217789,            4276749156
            716692793,            4287194570
            727736889,            4294599789
            733126820,            4297320219
            740597871,            4299293010
            747826606,            4301890311
            752940988,            4302864467
            761203613,            4304287109
            766907772,            4306257613
            770777216,            4302585102
            774666281,            4304425612
            779215414,            4312087368
            791159604,            4320347433
            802526373,            4322320663
            806977650,            4318336669
            810220711,            4314798588
            810712575,            4307582992
            813443608,            4302588343
            813386635,            4300100530
            811315838,            4297856922
            804886352,            4298023764
            796330129,            4296612673
            788000755,            4293894942
            780578078,            4294145293
            769535678,            4292153470
            763028763,            4280536308
            757248494,            4276875637
            752140680,            4279222374
            745276381,            4280550649
            742015841,            4285677821
            735130574,            4294329188
            725300969,            4283202426
            721790477,            4270296459
            719042223,            4264915851
            718614291,            4270793995
            721434216,            4282659283
            725788900,            4295573661
            733709351,            4307515165
            739049030,            4314869790
            746672236,            4320509740
            755138357,            4323225200
            761432410,            4323522022
            764270884,            4323210299
            764484681,            4320771398
            767189541,            4321598933
            772151002,            4329256711
            775736472,            4334394639
            781487272,            4338295909
            791577727,            4343128322
            803824767,            4342924521
            808075016,            4336976591
            809172799,            4329542223
            814162576,            4319451525
            818667089,            4315621974
            818950399,            4314530008
            813720937,            4315779929
            806061216,            4309191013
            801378359,            4309155167
            792643029,            4310811413
            785036020,            4307539327
            777582693,            4306759116
            770391954,            4305818706
            770946388,            4315749760
            778042458,            4328997234
            781792361,            4337131136
            784905059,            4343745540
            782382910,            4343455783
            782660742,            4341577795
            780919364,            4345743239
            780874888,            4350056002
            786512599,            4358561342
            796307548,            4365427127
            807192749,            4369119388
            815051497,            4367324803
            821431158,            4361770924
            824704465,            4356249766
            826141189,            4348056274
            825819998,            4338607098
            828706639,            4326442844
            833207215,            4317750101
            838857966,            4311914444
            845359910,            4309574536
            849876096,            4307392532
            851124457,            4304663808
            849103938,            4296996184
            849105633,            4287842167
            848580044,            4280198456
            847791875,            4271856121
            854602915,            4262554174
            859517126,            4260795231
            863664450,            4263913790
            870049242,            4268592658
            875259109,            4271276186
            882236940,            4272771268
            889758513,            4274292344
            895260316,            4274768763
            891328637,            4272839233
            886031609,            4262630914
            883802201,            4255432658
            880604486,            4254585745
            874819545,            4253856468
            867351329,            4246077113
            864743261,            4238464048
            861203075,            4238648105
            852304362,            4233857904
            846918677,            4221505490
            846699541,            4210984170
            845570022,            4208672202
            840188726,            4205856245
            838030677,            4194215889
            843439382,            4184972760
            849708625,            4183251701
            854065583,            4184398541
            853001020,            4179217875
            853201478,            4172400396
            856163676,            4167315066
            859563944,            4166227976
            859499090,            4165747799
            864274872,            4161903470
            870584230,            4163502958
            874177153,            4163425682
            875159439,            4162173459
            873189163,            4163726984
            865788639,            4165500692
            859394321,            4158938750
            857048589,            4158063457
            853038309,            4163183107
            847009436,            4167168559
            842934855,            4174265466
            841057473,            4184483056
            846848125,            4199279871
            849027060,            4210041358
            846734855,            4214467513
            847076007,            4220005056
            848647566,            4230576642
            842118942,            4233290880
            835217193,            4227010836
            828525084,            4222858295
            821499038,            4221587200
            815595009,            4221731806
            811319905,            4225936707
            804851535,            4229684813
            797482787,            4227329228
            791483748,            4219761902
            788518464,            4208583621
            792410898,            4197747482
            795339449,            4196344753
            794273111,            4195623329
            791476164,            4194353226
            791683075,            4200692658
            797826179,            4213466211
            796517026,            4220458866
            796734847,            4226811066
            795496843,            4235534402
            788826685,            4233968443
            784851873,            4229903459
            781545838,            4229943124
            778866365,            4234602185
            776054141,            4239140284
            772140028,            4241563577
            769371404,            4241989032
            767334464,            4246007816
            763111738,            4249054843
            757043375,            4243912385
            752987127,            4235681296
            751961414,            4223287508
            758555373,            4211167963
            764651021,            4204265887
            770770570,            4199765644
            779097301,            4195996501
            788079536,            4194611852
            795295044,            4193988815
            801993494,            4191477136
            810319216,            4191174123
            819939229,            4193620404
            831475972,            4194351205
            836882630,            4191914214
            839586288,            4187916969
            838387542,            4186095610
            833991533,            4178608406
            839355472,            4167789543
            842378441,            4163369268
            847381824,            4159154380
            853503962,            4157002033
            857196896,            4154621553
            863349523,            4153808940
            863457244,            4150878428
            872756768,            4150322599
            872627370,            4156083556
            876168819,            4163120670
            881573724,            4174048552
            882097515,            4179317172
            886425217,            4186234040
            890473051,            4193112494
            897174540,            4199552830
            903905913,            4204203954
            911976314,            4208698987
            916388904,            4210029812
            920408270,            4209199921
            927007274,            4211593936
            935770810,            4214497318
            940164858,            4215060075
            941189004,            4209884887
            948715564,            4207777245
            956151476,            4212865376
            963892878,            4216891876
            969638918,            4217486376
            971017327,            4214528918
            973697535,            4211661250
            975712179,            4210670426
            975488839,            4212572345
            974028614,            4212139342
            973848308,            4217436379
            974926136,            4225570779
            978442348,            4232985499
            981389842,            4237556043
            988811402,            4241951337
            993634927,            4244053164
            996976162,            4240836576
           1004422640,            4240565265
           1009770322,            4240134320
           1006779640,            4237166754
           1000579623,            4232850894
            993013991,            4230188546
            985323059,            4224480880
            979203476,            4218814232
            973261233,            4217391317
            966404920,            4217052747
            958509794,            4216661872
            950811855,            4215660667
            943957547,            4218985014
            933545419,            4218446104
            925414370,            4210042950
            920180819,            4199621388
            919193819,            4187734060
            927138932,            4177586497
            933395531,            4175355634
            933546672,            4171484277
            939783186,            4164857690
            945433388,            4164508207
            948964067,            4165524621
            945468803,            4168640844
            941363465,            4172524903
            945729766,            4186661363
            950368999,            4199031463
            954638720,            4208863120
            956428306,            4215123044
            964680198,            4221626604
            975826276,            4225235383
            977534814,            4223243540
            982169028,            4221610715
            984525122,            4225190392
            987068976,            4228499553
            988732300,            4232016356
            994351704,            4236021423
           1001218567,            4240861848
           1009843098,            4242854519
           1016626710,            4241822575
           1012714118,            4236775008
           1009316352,            4226957575
           1008564045,            4217003076
           1009088979,            4209346220
           1008296009,            4206021777
           1002040643,            4203538709
            996176027,            4193188807
            996533198,            4182229254
           1001916270,            4175888795
           1007734446,            4176652838
           1007950452,            4181532028
           1008657333,            4188602559
           1005526724,            4193806498
           1005866678,            4198958805
           1013156231,            4208576641
           1021059607,            4214566132
           1025836661,            4215947041
           1028905728,            4214483377
           1033697567,            4214628296
           1037352198,            4213210958
           1038181530,            4210501788
           1038563575,            4209246799
           1040910117,            4212873879
           1050908108,            4222548586
           1054807935,            4227302871
           1057859434,            4227621599
           1064611507,            4229695288
           1073056568,            4230094543
           1073953648,            4228138546
           1070682432,            4218100849
           1074676862,            4208319103
           1077743495,            4207634297
           1078923029,            4212044668
           1066869215,            4213814354
           1058404932,            4201493764
           1061671261,            4184254031
           1062325904,            4175419687
           1065937451,            4168012268
           1067999672,            4164815866
           1069892896,            4160296019
           1071864846,            4156661578
           1072118121,            4157133550
           1068770656,            4163194850
           1059865639,            4167953195
           1052073058,            4169248430
           1045841286,            4177803437
           1041334369,            4184476707
           1040340304,            4192664070
           1042878885,            4202373981
           1037860802,            4208274647
           1031680788,            4207032038
           1027567746,            4210631394
           1033313447,            4222525286
           1044144293,            4231128707
           1057141774,            4233186671
           1063753451,            4229169070
           1060971853,            4223594144
           1058374097,            4212834571
           1061860797,            4202213106
           1063585489,            4195024928
           1066084375,            4189383286
           1066370597,            4185499995
           1065228882,            4177390124
           1067624904,            4170238718
           1069166406,            4169163484
           1066345015,            4172233206
           1058797880,            4173845036
           1053526240,            4178884922
           1045528563,            4183108698
           1039928209,            4186318884
           1036864988,            4192958071
           1040486804,            4202659678
           1045350360,            4212320165
           1046713124,            4215938939
           1052014997,            4221389350
           1059514516,            4227044369
           1063378584,            4225981064
           1069111231,            4228490034
           1071386863,            4229650918
           1075390295,            4230822826
           1074117416,            4231975736
           1072833175,            4233357784
           1070164043,            4237083733
           1065693131,            4241330299
           1058269035,            4238165371
           1051052000,            4235387675
           1045932690,            4238220870
           1047927504,            4248367456
           1049716334,            4257021702
           1047732899,            4258401153
           1044787998,            4260641270
           1039950654,            4261462255
           1035320710,            4263838423
           1031769647,            4266127108
           1033859685,            4274065447
           1038385962,            4281296023
           1036940212,            4283710982
           1039982496,            4284732276
           1046919081,            4290235382
           1054212592,            4292311413
           1061382196,            4290801827
           1065563232,            4287616362
           1069024603,            4280900817
           1074753297,            4275099173
           1079118085,            4270872820
           1081179154,            4265476127
           1086585910,            4260796582
           1090486485,            4260349958
           1095000912,            4264352758
           1096439526,            4267676167
           1096793586,            4265830895
           1099547766,            4269456997
           1103493324,            4274450020
           1107689808,            4276726689
           1113057632,            4277249526
           1118777316,            4275807180
           1123343454,            4271664370
           1121629580,            4263425743
           1120037755,            4252732086
           1121057247,            4242107135
           1119856903,            4238361407
           1112896381,            4235346335
           1104603683,            4232968603
           1094844195,            4229878585
           1086482353,            4220293860
           1085268527,            4207153590
           1080189645,            4205033196
           1074129609,            4198268203
           1067159758,            4189278056
           1065795358,            4180761161
           1063971775,            4184677259
           1058919197,            4190060905
           1051917983,            4193170395
           1046412999,            4194523846
           1046632825,            4203645231
           1054104338,            4214477639
           1062407952,            4220411781
           1070915257,            4223016510
           1079035773,            4222663421
           1086188205,            4220640734
           1089369632,            4216083394
           1088866149,            4206991545
           1091723988,            4199099639
           1090772927,            4193938559
           1089741712,            4185696900
           1087726781,            4181533909
           1082437590,            4181304268
           1074776596,            4181917699
           1068276916,            4182449936
           1063244897,            4187104309
           1059796955,            4194348233
           1060450698,            4203078711
           1065277844,            4212438985
           1069027350,            4218277341
           1076786308,            4222314866
           1084411817,            4224695044
           1088316181,            4225054281
           1090383300,            4224252508
           1095525975,            4227249850
           1104551642,            4232663247
           1114682613,            4231970091
           1118492599,            4227325684
           1119731485,            4219420536
           1119201288,            4212566202
           1117582293,            4205098904
           1115235017,            4197595562
           1113896742,            4188545666
           1111768033,            4182228451
           1106564914,            4176725748
           1103378421,            4171121115
           1098151892,            4170510372
           1091178279,            4168659867
           1082523377,            4163277236
           1077149254,            4157458456
           1071196528,            4158079087
           1062957739,            4157083134
           1057349258,            4156626802
           1051099022,            4161482611
           1044490712,            4163162370
           1036833590,            4160264075
           1031784811,            4155821530
           1027316134,            4153567896
           1023719524,            4156881909
           1016813456,            4159597034
           1011806739,            4156659803
           1009354522,            4159651312
           1007837033,            4167230581
           1001260544,            4171267774
            995259585,            4167495231
            991550418,            4162624676
            986826344,            4159487096
            984284709,            4154097473
            981106118,            4151497785
            977169920,            4145758639
            977014423,            4136805945
            979242135,            4129458301
            979503122,            4126803182
            977441256,            4125519660
            974765259,            4125130563
            971866195,            4128736552
            969487135,            4131288527
            969510371,            4137924343
            970643475,            4146624073
            975575735,            4155567905
            984960538,            4163331062
            990291929,            4169358402
            992182039,            4173903151
            992861249,            4176995256
            999233083,            4183868866
           1006238284,            4190937072
           1013028339,            4194440859
           1017881004,            4197520668
           1026113877,            4200104884
           1034608762,            4203218970
           1037966346,            4203842533
           1045099735,            4204459232
           1053020019,            4206515280
           1062847982,            4207135737
           1071503183,            4203533316
           1076103096,            4197453949
           1077653869,            4189888583
           1081798942,            4181614808
           1086466298,            4176729594
           1091761176,            4176805062
           1092570039,            4178977896
           1095006458,            4182644624
           1103203262,            4189500486
           1113378151,            4191589264
           1118167969,            4190073224
           1123672507,            4187224334
           1129660068,            4184902259
           1134608590,            4181375260
           1133347582,            4177074759
           1128996736,            4171757175
           1124423418,            4165433067
           1118763783,            4159893790
           1111956463,            4157134638
           1103868474,            4153317556
           1101156619,            4141178725
           1103795707,            4131497644
           1106806614,            4124136687
           1109385461,            4118464002
           1112584653,            4112644391
           1114571289,            4106590500
           1116163089,            4100829376
           1120722726,            4094279309
           1123780134,            4090829335
           1125784950,            4086285504
           1125953210,            4081655359
           1123120817,            4077600829
           1119976445,            4074815603
           1115213120,            4076064506
           1107623149,            4078857594
           1099345646,            4076888537
           1092620925,            4072482161
           1089477293,            4064013178
           1092485055,            4056695437
           1096952264,            4052433760
           1100311944,            4050612842
           1098775987,            4049406491
           1096083730,            4046739300
           1091851141,            4042061415
           1095459370,            4033703093
           1100252333,            4029667878
           1104439851,            4028866164
           1112262315,            4027888719
           1119175524,            4027001015
           1120953417,            4025451911
           1119175971,            4025342172
           1114188841,            4028414671
           1106512301,            4028631654
           1099639952,            4023607433
           1098702375,            4014884403
           1099724633,            4011522190
           1097954655,            4011053930
           1095196985,            4009633989
           1090644625,            4007054029
           1088959947,            4005481533
           1084158025,            4008058589
           1076727844,            4001493126
           1080436347,            3992900538
           1085829473,            3990201616
           1088979099,            3991501899
           1089485052,            3996385761
           1081425972,            4000273694
           1076041272,            4005067681
           1071607145,            4015237666
           1063504628,            4019543469
           1058951753,            4023598347
           1056073291,            4030875681
           1053460457,            4039507171
           1046595087,            4043230905
           1043920329,            4046066568
           1046395651,            4056855597
           1056243927,            4067771100
           1069864115,            4076286561
           1079336921,            4080436073
           1089789783,            4082225733
           1098295327,            4080009790
           1099644406,            4078550285
           1094732130,            4075573912
           1090534731,            4071969317
           1087234633,            4066268456
           1085996928,            4061645136
           1082245227,            4058069511
           1079263265,            4051541952
           1083037330,            4044454706
           1081071755,            4042612160
           1080697930,            4034773798
           1089639859,            4027950856
           1094368964,            4026434787
           1096693437,            4030246192
           1100951269,            4041768312
           1099900438,            4053743735
           1095728529,            4058815017
           1088420551,            4060911482
           1081826263,            4055666486
           1077165772,            4052807355
           1071566243,            4050123483
           1067011178,            4045973032
           1063167662,            4040112883
           1067762988,            4031362513
           1069783290,            4026852147
           1070936029,            4024309082
           1070452006,            4024242308
           1068048880,            4025749418
           1065297276,            4030387450
           1062274671,            4036158894
           1058169428,            4041764790
           1055355753,            4046639494
           1053431844,            4053910398
           1051475922,            4060609736
           1054677741,            4069690863
           1062284653,            4080424795
           1067550323,            4087959909
           1071389937,            4093910311
           1076110149,            4099789627
           1081751068,            4105812383
           1084145758,            4112053569
           1082359719,            4116524553
           1078408238,            4117978128
           1071669975,            4114423677
           1069309018,            4104804295
           1072102892,            4095259162
           1074577628,            4088033200
           1075555390,            4082608762
           1072691585,            4080330122
           1068707810,            4074174082
           1072892109,            4065201540
           1076057206,            4059510742
           1074592355,            4056910650
           1072337171,            4054601403
           1069305936,            4055434967
           1062814064,            4054520747
           1060353500,            4048718699
           1058920977,            4046107713
           1056390219,            4045167136
           1050654401,            4044590906
           1050172491,            4035674825
           1056291830,            4028224001
           1057791392,            4025001371
           1057414908,            4024394623
           1052827920,            4026622547
           1050109976,            4023999734
           1047158586,            4027059850
           1041683904,            4026145997
           1038030772,            4022588047
           1037534634,            4015626964
           1040144857,            4010962229
           1041299211,            4012910543
           1043345197,            4022890103
           1045650142,            4032005868
           1046385297,            4040182147
           1050581800,            4048537816
           1058007517,            4058240389
           1056913260,            4064292192
           1061332916,            4071268560
           1068803142,            4079921748
           1075756486,            4087127537
           1083290460,            4092248460
           1091662947,            4097339364
           1102837743,            4100266598
           1110228447,            4102083010
           1117363658,            4102924808
           1120872455,            4107572086
           1127381603,            4111197321
           1136039764,            4115415692
           1142891431,            4118478118
           1144845672,            4121627318
           1146301416,            4125156916
           1146397165,            4130065082
           1145048886,            4134248582
           1143947536,            4138624570
           1144360814,            4143567345
           1149916724,            4150014997
           1156480409,            4154768395
           1160772462,            4156635279
           1167020991,            4159177187
           1171615829,            4162112731
           1170890109,            4164169896
           1172071517,            4165982458
           1172797601,            4170534673
           1171821045,            4175149623
           1168920219,            4177073915
           1171011187,            4181762255
           1178441329,            4188707257
           1189186530,            4189171346
           1194632552,            4183560219
           1199599012,            4176073647
           1199833487,            4169578622
           1197021069,            4160764633
           1201119370,            4149765273
           1208261474,            4142178386
           1215592172,            4138251891
           1219636168,            4133435631
           1217708447,            4129321639
           1212437194,            4125108611
           1205380793,            4120874050
           1198847918,            4117320791
           1193790014,            4118245405
           1191689712,            4125546659
           1194128975,            4134081765
           1197669990,            4140855705
           1199011339,            4144732492
           1201555051,            4148022335
           1203256906,            4152834350
           1208835975,            4157923670
           1216526283,            4160362005
           1221081433,            4159229937
           1226790696,            4157303971
           1233779150,            4156867925
           1242076347,            4156347943
           1245752010,            4151944076
           1242707593,            4147609231
           1237192741,            4146611281
           1227808242,            4146656932
           1220233554,            4144157279
           1212289826,            4142926878
           1204647692,            4138829516
           1198828184,            4132714742
           1192051518,            4131391893
           1185024083,            4130002422
           1177564281,            4125534139
           1173664392,            4122499364
           1168459490,            4125631270
           1166418215,            4129968548
           1166545852,            4137489596
           1163628674,            4142225978
           1160347011,            4144377920
           1157672241,            4147350301
           1160555090,            4154111178
           1170497694,            4160198342
           1179379031,            4161498690
           1187902975,            4158180181
           1195916661,            4154060290
           1201197585,            4148703038
           1204054647,            4143878123
           1214458501,            4139917205
           1221746838,            4137716556
           1227359566,            4133823392
           1228473198,            4127861573
           1231602319,            4119617434
           1232004917,            4113088188
           1228064850,            4107557309
           1224450068,            4099606509
           1230006587,            4088908794
           1231463322,            4083236602
           1226047274,            4079738748
           1222609666,            4071335364
           1223045093,            4062644727
           1221940786,            4055910942
           1221346003,            4049383188
           1220046751,            4043753270
           1219263316,            4036874773
           1220600476,            4030326558
           1223600793,            4024767734
           1228613683,            4019487491
           1229800409,            4015875043
           1235728565,            4014094138
           1240109092,            4018419752
           1242040739,            4024167663
           1237082597,            4029933357
           1227535715,            4028402035
           1220290843,            4023546337
           1214445000,            4021305567
           1208930703,            4021248634
           1202641052,            4025357406
           1196738778,            4030430991
           1190158431,            4034898050
           1181819897,            4032111737
           1179820724,            4022548183
           1176802132,            4023030602
           1180965767,            4037101551
           1183824844,            4048690003
           1179838605,            4054717493
           1176677480,            4057145817
           1172402555,            4060488787
           1167035916,            4062375144
           1163831952,            4067243894
           1160031583,            4071389851
           1161952042,            4078812542
           1176211625,            4085722544
           1189878119,            4081961294
           1195538691,            4075832274
           1197607099,            4069325517
           1196870500,            4062162285
           1199136325,            4054179208
           1195767021,            4054830982
           1189820220,            4058866749
           1187961993,            4065298090
           1184791968,            4073739958
           1187195077,            4080161636
           1192965531,            4088437942
           1198440552,            4093068604
           1203482661,            4096450117
           1210667605,            4099556845
           1217816426,            4100930943
           1225367328,            4099822442
           1229949336,            4098487566
           1236071888,            4098370258
           1238727110,            4100722921
           1246934656,            4104089392
           1256375041,            4105861629
           1261414500,            4103383639
           1265953063,            4099809943
           1268341747,            4095513897
           1272944855,            4090541093
           1279160333,            4086778911
           1283874429,            4083137778
           1289861883,            4079080638
           1292039044,            4074965040
           1293302948,            4067635077
           1291687647,            4063174764
           1284822691,            4060648534
           1277606760,            4053712679
           1276022422,            4044601547
           1277596374,            4036448770
           1277861515,            4030135274
           1276526359,            4024488683
           1275984322,            4017148204
           1281419312,            4010682476
           1283112792,            4007098623
           1278615372,            4005488909
           1274893168,            3997856822
           1280316310,            3991253738
           1285450805,            3988769650
           1290444592,            3988411255
           1296319114,            3986764676
           1300577461,            3984392979
           1301157206,            3984437172
           1294973513,            3992360323
           1287356143,            3998378539
           1277222517,            4001764310
           1269494494,            4000418592
           1261643573,            3999868259
           1253602897,            3997210362
           1246544863,            3992984620
           1243034402,            3985687998
           1244623059,            3977689223
           1247822279,            3971266007
           1247003032,            3967929301
           1244794016,            3967199290
           1240535034,            3974336902
           1233112159,            3980500590
           1227655471,            3983524437
           1222766672,            3988361592
           1218433861,            3994770255
           1215224530,            4001537181
           1210153439,            4007823208
           1208264536,            4012901727
           1203582433,            4020611061
           1198778936,            4022998777
           1194617846,            4028497299
           1186308420,            4029580831
           1182469276,            4021941002
           1183316914,            4014174475
           1184502573,            4008931534
           1180421630,            4007630033
           1178355184,            4001155959
           1183665790,            3993971256
           1184339801,            3990428769
           1182490371,            3987598125
           1180481895,            3985749851
           1177961578,            3987668664
           1173780912,            3992848017
           1169010595,            3996340735
           1165389683,            3999721743
           1162702039,            4004403465
           1157111258,            4007971047
           1154407846,            4009395514
           1151721552,            4014485023
           1144861526,            4017226786
           1142108228,            4013248385
           1140980413,            4012598196
           1139182162,            4017371766
           1135295680,            4022428353
           1130613103,            4023630138
           1127770874,            4019689752
           1129485195,            4013749448
           1130808529,            4008566426
           1132420874,            4003464386
           1138811940,            3996641478
           1143703393,            3991227346
           1147854125,            3986059626
           1151148972,            3980661393
           1152431818,            3976293507
           1150002522,            3972290259
           1155241681,            3965197059
           1160953406,            3962373721
           1171328017,            3961557638
           1181881656,            3961939528
           1190877245,            3957681217
           1191024004,            3954255693
           1189267255,            3951823706
           1185860388,            3953464836
           1181464980,            3954556549
           1181593628,            3962273716
           1184708564,            3974327709
           1187646931,            3982360480
           1186801291,            3990884074
           1187599860,            3997073708
           1192450951,            4005516889
           1198144960,            4013803932
           1201368881,            4021031302
           1201464437,            4027850084
           1196861182,            4033285139
           1192479504,            4031377509
           1188006008,            4032446230
           1186262020,            4034713768
           1183998553,            4040356408
           1181242551,            4044908993
           1179037351,            4048372060
           1176063410,            4051684125
           1175060982,            4055945495
           1179687664,            4063497263
           1194983963,            4065908631
           1206106454,            4064006609
           1213471525,            4061373091
           1220684128,            4060355909
           1228668634,            4060307710
           1235495332,            4060850130
           1240862183,            4062535259
           1247406552,            4065568277
           1251486027,            4069127402
           1253878700,            4073471075
           1255357518,            4077457130
           1257425426,            4082793965
           1259644360,            4088497048
           1262907205,            4093278144
           1264713781,            4097110736
           1265815478,            4100176907
           1269125871,            4103879213
           1272245927,            4109501744
           1272486417,            4112486451
           1276288407,            4117299311
           1281499179,            4122284088
           1288099665,            4125065654
           1290755921,            4127760602
           1291298705,            4130392194
           1291897222,            4132429207
           1290377885,            4135876060
           1290330004,            4139611035
           1291625889,            4143164237
           1295242662,            4145790194
           1296338941,            4148663550
           1298212728,            4150322252
           1299092894,            4152666476
           1302041025,            4154617839
           1305010710,            4157246663
           1307331300,            4159193015
           1311941658,            4160919434
           1313902221,            4162531615
           1316819417,            4162026573
           1319694215,            4162526598
           1321858650,            4164363262
           1326074664,            4165622202
           1332109991,            4164839730
           1336029825,            4159815735
           1338106863,            4151936424
           1338916941,            4144521013
           1345498602,            4138171826
           1353305410,            4133713666
           1358300725,            4128156989
           1359399260,            4121677792
           1361987965,            4116081707
           1365759542,            4116449252
           1371556252,            4117919299
           1375319479,            4119741846
           1379448448,            4118942729
           1384968936,            4116757212
           1386592261,            4111165790
           1385842823,            4102443903
           1383351363,            4094917352
           1382890518,            4086239205
           1389048589,            4078325903
           1389570551,            4072759890
           1385868185,            4067091044
           1377859127,            4062531804
           1370661894,            4056501244
           1366548442,            4050780762
           1358141376,            4048832915
           1348908163,            4043078565
           1343218573,            4035301388
           1338744225,            4030902207
           1332475176,            4035116959
           1326196594,            4043230022
           1319283394,            4048167958
           1314169072,            4052646605
           1310776526,            4058300376
           1312680240,            4065048990
           1317020751,            4071813586
           1322318874,            4075220634
           1328633555,            4076951774
           1333032853,            4078205445
           1338245057,            4078681054
           1346157471,            4077720648
           1349703129,            4076876057
           1355019912,            4075737807
           1359932512,            4076252011
           1365249251,            4076343184
           1370784103,            4073311019
           1371198811,            4068407128
           1369720014,            4061298710
           1367556113,            4054854769
           1363873048,            4051363148
           1353669418,            4054008083
           1343264478,            4053838145
           1334344195,            4050451016
           1326615731,            4044731446
           1321875431,            4037764361
           1315976957,            4033476599
           1310876139,            4029047966
           1304895089,            4028804787
           1299036726,            4033347702
           1291880485,            4037449102
           1284353129,            4036764242
           1278450642,            4035360729
           1272427559,            4036712093
           1267627183,            4038606535
           1259849173,            4041964631
           1253245707,            4034680865
           1253178337,            4025689852
           1251747578,            4019007380
           1251199053,            4011678089
           1251377240,            4005552030
           1250195224,            4000635838
           1248008342,            3995872607
           1245855329,            3990803517
           1243810124,            3986008460
           1241702110,            3983226828
           1235869187,            3982900435
           1230984304,            3977552089
           1228859438,            3972115238
           1229111255,            3965736278
           1231019561,            3961109607
           1237596232,            3958459476
           1246620524,            3961357417
           1255050449,            3964136716
           1263692633,            3966516646
           1271890379,            3968110341
           1278747998,            3968418608
           1283478291,            3967677714
           1290198334,            3967239409
           1298729664,            3966337005
           1304543241,            3963707892
           1303247431,            3961782838
           1299252182,            3959935032
           1292887133,            3958792910
           1285943830,            3960120426
           1278536527,            3958836366
           1275797623,            3955272903
           1273441341,            3958380120
           1268843881,            3967708062
           1260551488,            3972215455
           1255333081,            3973429152
           1254568752,            3979997248
           1254229885,            3989816547
           1252203724,            3996501104
           1251456018,            4002261905
           1255245502,            4009635873
           1261294053,            4017271391
